svm_type c_svc
kernel_type linear
nr_class 10
total_sv 112
rho 1.4529181215960023 2.1284154985012465 1.3360046005614132 2.32785231904559 0.9225712717767582 0.7249427672134162 -1.277052699005443 1.8475673866109907 2.1636529335258463 -1.6420482462361317 -0.3916909879825739 -0.10652709579258786 -0.5209512049236154 -0.8238220986641552 -1.4015008613837747 0.446716228978208 -0.14811062315011359 0.12433029587157984 -1.0020156365222888 0.5866962703221835 -0.35586947244100237 -2.204055080586281 0.6801331445989437 0.4984545100258501 -0.7407592423774156 0.0894121923503804 -0.2014816641428679 -1.241393979578955 1.7775484371328396 0.7990426324566849 0.7123950303999758 0.5056640854540003 -2.169524766845724 2.620153056735303 1.948227669718543 -1.2788793674292909 -0.9684871365129037 0.679765811792261 0.22375072941287283 -0.8932335042958347 0.7556080969366714 0.4977444465191019 1.7937385077528099 2.063335485822736 -1.0672063245804637
label 5 4 3 2 6 9 8 7 0 1
nr_sv 10 18 10 9 15 11 7 4 12 16
SV
0.0 0.0 0.0 0.0 0.0 0.0 0.0012083565295845674 0.0 0.0 1:-6.595744680851063 2:-2.0 3:-8.735632183908047 4:-4.306569343065693 5:-3.0 6:132.0 7:1.25 8:-4.230769230769231 9:-6.394557823129253 10:-8.516129032258064 11:-2.233009708737864 12:-14.0 13:-71.66666666666667 14:-5.967741935483871 15:-6.521739130434783 16:-3.918918918918919 17:-7.160493827160494 18:-4.545454545454545 19:-5.769230769230768 20:-5.409836065573771 21:-8.977272727272727 22:-2.2764227642276422 23:-6.634615384615384 24:-13.333333333333332 25:-4.426229508196721 26:-11.285714285714285 27:-5.384615384615384 28:-5.699999999999999 29:-3.0246913580246915 30:-5.0 
0.0 0.0 0.0 0.0 0.0 0.0 0.003811855087698737 0.0 0.0 1:-6.595744680851063 2:-1.076923076923077 3:-4.022988505747127 4:-2.9927007299270074 5:-0.6 6:96.0 7:2.916666666666667 8:-1.7307692307692308 9:-5.306122448979592 10:-7.677419354838709 11:-3.592233009708738 12:-14.0 13:-67.5 14:-2.903225806451613 15:-5.543478260869565 16:-2.2972972972972974 17:-7.283950617283951 18:-8.181818181818182 19:-0.576923076923077 20:-3.9344262295081966 21:-7.386363636363637 22:-0.7317073170731707 23:-6.4423076923076925 24:-9.166666666666666 25:-18.524590163934427 26:-13.428571428571427 27:-2.7884615384615383 28:-4.9 29:-1.9753086419753085 30:-3.333333333333333 
0.0 0.0 0.0 0.0 0.0 0.0 5.755764365301756E-5 0.0 0.0 1:-5.74468085106383 2:-1.076923076923077 3:-4.712643678160919 4:-3.3576642335766422 5:-1.2 6:100.0 7:2.916666666666667 8:-2.307692307692308 9:-5.578231292517007 10:-7.612903225806451 11:-3.4951456310679614 12:-15.0 13:-68.33333333333333 14:-3.548387096774194 15:-5.869565217391305 16:-2.7027027027027026 17:-7.160493827160494 18:-8.181818181818182 19:-1.346153846153846 20:-4.2622950819672125 21:-8.181818181818182 22:-1.3821138211382114 23:-6.826923076923077 24:-10.0 25:-17.868852459016395 26:-13.0 27:-2.2115384615384617 28:-6.5 29:-2.839506172839506 30:-3.333333333333333 
0.0018486674546751751 0.001386640828052757 0.0 0.0 0.0 0.0 0.0 0.0 0.0 1:-6.595744680851063 2:-2.307692307692308 3:-6.781609195402298 4:-2.9927007299270074 5:-2.4 6:14.0 7:2.5 8:-3.8461538461538463 9:-6.190476190476191 10:-7.354838709677419 11:-2.3300970873786406 12:-21.0 13:-70.83333333333333 14:-5.32258064516129 15:-6.956521739130435 16:-3.378378378378378 17:-7.160493827160494 18:-5.454545454545454 19:-3.076923076923077 20:-5.409836065573771 21:-10.454545454545453 22:-1.5447154471544717 23:-8.365384615384615 24:-12.5 25:-10.819672131147541 26:-11.428571428571427 27:-1.153846153846154 28:-4.0 29:-3.0246913580246915 30:-2.5 
0.0 0.0 1.7092238400541113E-4 0.0019714466433494744 3.3062879845209114E-4 3.178753823923754E-4 0.0 2.8406542098605836E-4 0.0 1:-4.8936170212765955 2:-1.2307692307692308 3:-4.827586206896552 4:-2.9197080291970803 5:-1.2 6:14.0 7:2.916666666666667 8:-2.884615384615384 9:-6.598639455782313 10:-6.193548387096774 11:-2.233009708737864 12:-22.0 13:-70.0 14:-4.516129032258064 15:-7.065217391304348 16:-3.108108108108108 17:-7.160493827160494 18:-5.454545454545454 19:-2.692307692307692 20:-5.081967213114754 21:-10.227272727272727 22:-1.6260162601626016 23:-8.173076923076923 24:-13.333333333333332 25:-10.819672131147541 26:-11.142857142857142 27:-1.153846153846154 28:-4.2 29:-2.962962962962963 30:-2.5 
0.0 0.0 1.4630116839197711E-4 0.0 0.0 0.0 0.0 0.0 0.0 1:-4.042553191489361 2:-1.5384615384615385 3:-5.517241379310345 4:-2.846715328467153 5:-1.4000000000000001 6:46.0 7:-0.41666666666666663 8:-4.423076923076923 9:-7.687074829931973 10:-4.387096774193548 11:-4.077669902912621 12:-21.0 13:-72.08333333333333 14:-4.516129032258064 15:-8.26086956521739 16:-2.1621621621621623 17:-7.777777777777778 18:2.727272727272727 19:-3.8461538461538463 20:-5.737704918032787 21:-10.795454545454547 22:-1.7886178861788617 23:-7.6923076923076925 24:-11.666666666666668 25:-10.0 26:-11.428571428571427 27:-1.25 28:-2.8000000000000003 29:-3.3950617283950617 30:-2.5 
0.0 0.0 0.0 0.0 0.0 0.0 8.19558629251712E-5 0.0 0.0 1:-4.468085106382978 2:-1.5384615384615385 3:-3.67816091954023 4:-1.5328467153284673 5:-0.2 6:32.0 7:1.6666666666666665 8:-3.6538461538461537 9:-7.4149659863945585 10:-4.516129032258064 11:-4.271844660194175 12:-18.0 13:-70.41666666666667 14:-3.709677419354839 15:-8.043478260869566 16:-2.4324324324324325 17:-8.148148148148147 18:-6.363636363636363 19:-2.307692307692308 20:-5.245901639344263 21:-10.340909090909092 22:-1.3008130081300815 23:-7.596153846153846 24:-10.0 25:-7.868852459016393 26:-11.285714285714285 27:0.0 28:-2.3000000000000003 29:-2.1604938271604937 30:-2.5 
0.0 0.0 0.0 0.0 0.0 0.0 0.0 0.0 7.353758649351336E-4 1:-4.042553191489361 2:-2.4615384615384617 3:-4.022988505747127 4:-2.335766423357664 5:-1.2 6:28.0 7:1.6666666666666665 8:-3.6538461538461537 9:-7.4149659863945585 10:-4.580645161290323 11:-4.174757281553398 12:-18.0 13:-70.41666666666667 14:-3.709677419354839 15:-8.043478260869566 16:-2.4324324324324325 17:-8.148148148148147 18:-7.272727272727273 19:-2.307692307692308 20:-5.081967213114754 21:-10.227272727272727 22:-1.3008130081300815 23:-7.5 24:-10.0 25:-8.196721311475411 26:-11.0 27:-0.09615384615384616 28:-2.1 29:-2.2839506172839505 30:-2.5 
0.0 0.0 3.309938060324803E-4 4.7251265085321856E-4 0.0 0.0 0.0 4.577938213395018E-4 2.20255364415088E-4 1:-4.468085106382978 2:-2.6153846153846154 3:-4.367816091954023 4:-2.9927007299270074 5:-1.2 6:22.0 7:1.25 8:-3.6538461538461537 9:-7.4149659863945585 10:-4.580645161290323 11:-4.174757281553398 12:-19.0 13:-70.41666666666667 14:-3.548387096774194 15:-8.043478260869566 16:-2.4324324324324325 17:-8.148148148148147 18:-7.272727272727273 19:-2.307692307692308 20:-5.245901639344263 21:-10.227272727272727 22:-1.3008130081300815 23:-7.596153846153846 24:-10.0 25:-8.524590163934425 26:-10.857142857142856 27:-0.19230769230769232 28:-2.2 29:-2.3456790123456788 30:-2.5 
0.0 0.0 0.0 0.0 0.0 0.0 0.002208122865491543 0.0 0.0 1:-4.25531914893617 2:-0.3076923076923077 3:-4.827586206896552 4:-3.7226277372262775 5:-0.2 6:236.0 7:-2.0833333333333335 8:-3.4615384615384617 9:-7.346938775510204 10:-4.258064516129032 11:-3.3980582524271847 12:-15.0 13:-70.83333333333333 14:-4.354838709677419 15:-7.391304347826086 16:-2.2972972972972974 17:-7.4074074074074066 18:-6.363636363636363 19:-4.615384615384616 20:-5.409836065573771 21:-9.09090909090909 22:-2.0325203252032518 23:-6.826923076923077 24:-11.666666666666668 25:-12.295081967213115 26:-14.142857142857144 27:-0.8653846153846154 28:-3.8 29:-1.7901234567901234 30:-3.333333333333333 
-0.0 0.0 0.0 0.0 0.0 0.0 0.0 0.0 6.845630073382721E-4 1:-2.765957446808511 2:3.384615384615385 3:0.9195402298850575 4:1.386861313868613 5:0.8 6:-2.0 7:-0.8333333333333333 8:-2.307692307692308 9:-3.129251700680272 10:-4.774193548387097 11:-0.6796116504854368 12:-4.0 13:-33.75 14:-6.774193548387096 15:-3.695652173913043 16:-2.9729729729729732 17:-5.185185185185185 18:-4.545454545454545 19:-4.423076923076923 20:-6.721311475409836 21:-8.295454545454547 22:-5.528455284552845 23:-1.6346153846153846 24:-4.166666666666667 25:-4.2622950819672125 26:0.8571428571428572 27:3.75 28:-1.3 29:1.2345679012345678 30:0.0 
-0.0 0.0 2.5670743626929294E-4 0.0 0.0 0.0 0.0 0.0 0.0 1:-6.170212765957447 2:1.2307692307692308 3:0.11494252873563218 4:0.8029197080291971 5:0.4 6:-4.0 7:2.0833333333333335 8:-4.038461538461538 9:-3.1972789115646263 10:-5.032258064516128 11:-0.6796116504854368 12:-4.0 13:-17.916666666666668 14:-5.967741935483871 15:-4.239130434782608 16:-3.918918918918919 17:-4.444444444444445 18:-1.8181818181818183 19:-5.769230769230768 20:-6.39344262295082 21:-8.068181818181818 22:-4.390243902439025 23:-1.5384615384615385 24:-4.166666666666667 25:-3.6065573770491803 26:-4.428571428571429 27:4.230769230769231 28:-0.1 29:1.6049382716049383 30:1.6666666666666665 
-0.0 0.0025680366697913813 0.0 0.0014479940007911935 0.0 0.0 0.0 0.0 0.0 1:-6.595744680851063 2:0.7692307692307693 3:0.3448275862068966 4:0.948905109489051 5:0.0 6:-4.0 7:3.333333333333333 8:-5.1923076923076925 9:-2.925170068027211 10:-4.709677419354838 11:-0.4854368932038835 12:-3.0 13:-48.33333333333333 14:-5.645161290322581 15:-3.9130434782608696 16:-4.054054054054054 17:-4.320987654320987 18:-2.727272727272727 19:-5.1923076923076925 20:-6.557377049180327 21:-7.954545454545454 22:-4.0650406504065035 23:-1.442307692307692 24:-5.0 25:-2.7868852459016393 26:-7.571428571428571 27:2.307692307692308 28:-1.7000000000000002 29:0.9876543209876543 30:-0.8333333333333333 
-0.0 0.0 0.0 0.0 0.0 0.0 0.0 0.0 2.6248267307975024E-5 1:-6.595744680851063 2:0.9230769230769231 3:0.45977011494252873 4:1.094890510948905 5:0.2 6:-4.0 7:3.333333333333333 8:-5.0 9:-2.8571428571428568 10:-4.645161290322581 11:-0.4854368932038835 12:-3.0 13:-25.0 14:-5.645161290322581 15:-3.9130434782608696 16:-3.918918918918919 17:-4.320987654320987 18:-2.727272727272727 19:-5.0 20:-6.557377049180327 21:-7.954545454545454 22:-3.983739837398374 23:-1.5384615384615385 24:-4.166666666666667 25:-2.7868852459016393 26:-7.285714285714286 27:2.2115384615384617 28:-1.7000000000000002 29:1.0493827160493827 30:-0.8333333333333333 
-0.0 0.0 0.0 0.0 0.0 0.0 0.0 0.0 1.2475190690446354E-4 1:-5.531914893617022 2:1.8461538461538463 3:1.0344827586206897 4:1.3138686131386863 5:0.6 6:-4.0 7:3.333333333333333 8:-5.0 9:-2.7891156462585034 10:-4.516129032258064 11:-0.38834951456310673 12:-3.0 13:-29.166666666666664 14:-5.806451612903226 15:-3.9130434782608696 16:-3.783783783783784 17:-4.197530864197531 18:-2.727272727272727 19:-4.230769230769231 20:-6.557377049180327 21:-7.954545454545454 22:-3.7398373983739837 23:-1.5384615384615385 24:-5.0 25:-2.6229508196721314 26:-7.714285714285714 27:2.4038461538461537 28:-1.3 29:1.1111111111111112 30:0.0 
-0.0 0.0 0.0 0.0 0.0 0.0 0.0 4.763011876722848E-4 0.0 1:-5.106382978723404 2:2.307692307692308 3:1.0344827586206897 4:1.386861313868613 5:0.8 6:-4.0 7:3.333333333333333 8:-5.0 9:-2.7891156462585034 10:-4.387096774193548 11:-0.38834951456310673 12:-4.0 13:-25.0 14:-5.806451612903226 15:-3.9130434782608696 16:-3.6486486486486487 17:-4.197530864197531 18:-2.727272727272727 19:-4.423076923076923 20:-6.557377049180327 21:-7.954545454545454 22:-3.821138211382114 23:-1.5384615384615385 24:-4.166666666666667 25:-2.6229508196721314 26:-8.0 27:2.5961538461538463 28:-1.2 29:1.1111111111111112 30:0.0 
-0.0 0.0 1.2682957401566103E-4 0.0 0.0 0.0 0.0 0.0 0.0 1:-5.106382978723404 2:2.307692307692308 3:1.0344827586206897 4:1.3138686131386863 5:1.0 6:-4.0 7:3.333333333333333 8:-5.0 9:-2.7891156462585034 10:-4.387096774193548 11:-0.38834951456310673 12:-4.0 13:-25.0 14:-5.806451612903226 15:-3.9130434782608696 16:-3.6486486486486487 17:-4.197530864197531 18:-2.727272727272727 19:-4.423076923076923 20:-6.557377049180327 21:-7.954545454545454 22:-3.902439024390244 23:-1.5384615384615385 24:-4.166666666666667 25:-2.6229508196721314 26:-8.142857142857142 27:2.692307692307692 28:-1.2 29:1.0493827160493827 30:0.0 
-0.0 0.0 4.1690221411512534E-4 0.0 0.0 0.0 0.0 0.0 2.6911303785573154E-4 1:-6.595744680851063 2:0.15384615384615385 3:0.22988505747126436 4:0.948905109489051 5:0.4 6:-4.0 7:5.0 8:-5.576923076923077 9:-2.653061224489796 10:-4.451612903225807 11:-0.38834951456310673 12:-3.0 13:-19.583333333333332 14:-5.32258064516129 15:-3.4782608695652173 16:-4.45945945945946 17:-4.320987654320987 18:-2.727272727272727 19:-5.961538461538462 20:-6.229508196721312 21:-7.613636363636363 22:-4.227642276422764 23:-1.346153846153846 24:-4.166666666666667 25:-3.114754098360656 26:-7.142857142857143 27:3.4615384615384617 28:-0.5 29:1.4814814814814814 30:0.0 
-0.0 0.0 0.0 0.0 0.0 0.0 0.0 4.715454435838193E-4 7.567278036326215E-4 1:-6.382978723404255 2:0.3076923076923077 3:0.22988505747126436 4:0.948905109489051 5:0.4 6:-4.0 7:4.583333333333333 8:-5.576923076923077 9:-2.653061224489796 10:-4.387096774193548 11:-0.38834951456310673 12:-3.0 13:-14.166666666666668 14:-5.32258064516129 15:-3.5869565217391304 16:-4.1891891891891895 17:-4.320987654320987 18:-2.727272727272727 19:-5.961538461538462 20:-6.065573770491803 21:-7.613636363636363 22:-3.983739837398374 23:-1.346153846153846 24:-4.166666666666667 25:-4.590163934426229 26:-4.285714285714286 27:6.153846153846154 28:0.8 29:2.2222222222222223 30:3.333333333333333 
-0.0 0.0 6.155170435217542E-4 0.0 0.0 0.0 0.0 0.0025340100691985026 0.0 1:-4.042553191489361 2:1.6923076923076925 3:0.8045977011494253 4:1.2408759124087592 5:0.4 6:-4.0 7:3.333333333333333 8:-4.8076923076923075 9:-2.8571428571428568 10:-4.258064516129032 11:-0.38834951456310673 12:-4.0 13:-22.916666666666664 14:-5.806451612903226 15:-4.021739130434783 16:-3.378378378378378 17:-4.197530864197531 18:-1.8181818181818183 19:-4.038461538461538 20:-6.721311475409836 21:-7.954545454545454 22:-3.5772357723577235 23:-1.5384615384615385 24:-4.166666666666667 25:-5.245901639344263 26:-0.14285714285714285 27:5.865384615384616 28:0.2 29:1.91358024691358 30:3.333333333333333 
-0.0 0.0 0.0 0.0 0.002536556575560962 0.0 0.0 0.0 0.0 1:-5.319148936170213 2:0.9230769230769231 3:-0.5747126436781609 4:0.291970802919708 5:0.0 6:-4.0 7:4.583333333333333 8:-5.384615384615384 9:-2.8571428571428568 10:-4.580645161290323 11:-0.4854368932038835 12:-3.0 13:-10.416666666666668 14:-5.967741935483871 15:-3.1521739130434785 16:-5.27027027027027 17:-4.444444444444445 18:-2.727272727272727 19:-5.384615384615384 20:-7.213114754098361 21:-7.5 22:-4.796747967479675 23:-1.153846153846154 24:-5.0 25:-4.918032786885246 26:-2.4285714285714284 27:4.903846153846153 28:0.0 29:1.7901234567901234 30:2.5 
-0.0 0.0 0.0 0.0 0.0 0.001406898917786973 0.0 0.0 0.0 1:-5.957446808510638 2:0.15384615384615385 3:-0.8045977011494253 4:-0.5109489051094891 5:-1.2 6:-6.0 7:4.166666666666667 8:-4.615384615384616 9:-3.333333333333333 10:-6.129032258064516 11:-0.970873786407767 12:-3.0 13:-12.5 14:-6.612903225806451 15:-3.4782608695652173 16:-6.081081081081081 17:-4.938271604938271 18:-3.6363636363636367 19:-6.538461538461538 20:-7.3770491803278695 21:-7.727272727272727 22:-5.691056910569106 23:-1.25 24:-5.0 25:-4.918032786885246 26:-3.857142857142857 27:4.423076923076923 28:-0.1 29:1.6049382716049383 30:1.6666666666666665 
-0.0 0.003216188095544978 0.0 0.0 0.0 0.0 0.0 0.0 0.0 1:-6.170212765957447 2:0.0 3:-0.8045977011494253 4:-0.36496350364963503 5:-1.0 6:-4.0 7:4.583333333333333 8:-5.0 9:-4.625850340136054 10:-8.580645161290322 11:-2.0388349514563107 12:-4.0 13:-20.0 14:-7.258064516129032 15:-4.130434782608695 16:-5.135135135135135 17:-5.925925925925926 18:-4.545454545454545 19:-7.3076923076923075 20:-7.5409836065573765 21:-8.295454545454547 22:-6.504065040650406 23:-1.5384615384615385 24:-5.0 25:-3.7704918032786883 26:-7.285714285714286 27:1.8269230769230769 28:-2.3000000000000003 29:0.6172839506172839 30:0.0 
-0.0 9.701554042832775E-4 0.0 0.0 0.0 0.0 0.0 0.0 0.0 1:-6.382978723404255 2:0.0 3:-0.8045977011494253 4:-0.36496350364963503 5:-1.0 6:-4.0 7:3.75 8:-4.8076923076923075 9:-4.6938775510204085 10:-9.032258064516128 11:-2.1359223300970873 12:-4.0 13:-29.583333333333336 14:-7.741935483870968 15:-4.3478260869565215 16:-5.0 17:-6.049382716049383 18:-4.545454545454545 19:-7.884615384615384 20:-7.5409836065573765 21:-8.40909090909091 22:-6.666666666666666 23:-1.6346153846153846 24:-5.833333333333334 25:-3.7704918032786883 26:-6.285714285714286 27:1.7307692307692308 28:-2.2 29:0.8024691358024691 30:0.0 
-0.0018486674546751751 0.0 0.0 0.0 0.0 0.0 0.0012902612349109744 0.0 0.0 1:-6.808510638297872 2:-0.7692307692307693 3:-0.5747126436781609 4:0.21897810218978103 5:-0.2 6:-4.0 7:4.166666666666667 8:-4.230769230769231 9:-3.4693877551020407 10:-7.096774193548388 11:-0.970873786407767 12:-3.0 13:-67.5 14:-5.967741935483871 15:-3.5869565217391304 16:-6.081081081081081 17:-5.185185185185185 18:-3.6363636363636367 19:-7.115384615384616 20:-7.3770491803278695 21:-7.613636363636363 22:-5.609756097560976 23:-1.25 24:-5.0 25:-4.0983606557377055 26:-4.714285714285714 27:4.326923076923077 28:0.1 29:1.6666666666666665 30:1.6666666666666665 
-0.0 0.0 0.0 0.0 0.0 0.0 7.771822922532231E-5 0.0 0.0 1:-6.808510638297872 2:-0.6153846153846154 3:-0.5747126436781609 4:0.36496350364963503 5:-0.2 6:-4.0 7:4.583333333333333 8:-4.038461538461538 9:-3.5374149659863945 10:-7.096774193548388 11:-0.970873786407767 12:-3.0 13:-67.5 14:-5.806451612903226 15:-3.5869565217391304 16:-5.9459459459459465 17:-5.185185185185185 18:-3.6363636363636367 19:-7.115384615384616 20:-7.3770491803278695 21:-7.613636363636363 22:-5.609756097560976 23:-1.346153846153846 24:-5.0 25:-4.0983606557377055 26:-4.571428571428571 27:4.230769230769231 28:0.1 29:1.6666666666666665 30:1.6666666666666665 
-0.0 0.0 0.0 0.0 0.0 0.0 0.0 0.0 3.6985968250385475E-4 1:-7.23404255319149 2:0.0 3:-0.9195402298850575 4:0.36496350364963503 5:0.0 6:-2.0 7:3.75 8:-4.8076923076923075 9:-2.9931972789115644 10:-6.516129032258064 11:-0.7766990291262135 12:-2.0 13:-35.833333333333336 14:-5.967741935483871 15:-3.369565217391304 16:-5.675675675675675 17:-4.814814814814815 18:-3.6363636363636367 19:-7.115384615384616 20:-7.213114754098361 21:-7.5 22:-5.284552845528455 23:-1.153846153846154 24:-5.0 25:-4.0983606557377055 26:-3.7142857142857144 27:4.615384615384616 28:0.3 29:1.91358024691358 30:1.6666666666666665 
-0.0 0.0 0.0 0.005273055364288544 0.0 0.0 0.0 0.0 0.0 1:-5.957446808510638 2:-1.2307692307692308 3:0.3448275862068966 4:1.0218978102189782 5:1.0 6:-4.0 7:3.75 8:-5.0 9:-2.9931972789115644 10:-4.967741935483871 11:-0.5825242718446602 12:-3.0 13:-67.5 14:-5.483870967741935 15:-3.4782608695652173 16:-4.45945945945946 17:-4.444444444444445 18:-2.727272727272727 19:-6.730769230769232 20:-6.557377049180327 21:-7.272727272727273 22:-4.146341463414634 23:-1.153846153846154 24:-4.166666666666667 25:-3.442622950819672 26:-4.428571428571429 27:4.8076923076923075 28:0.8 29:2.0987654320987654 30:2.5 
-0.0 -0.0 2.570825047945369E-4 0.0 0.0 0.0 0.0 0.0 5.045825815306483E-4 1:-8.297872340425531 2:-3.076923076923077 3:-5.632183908045977 4:-3.0656934306569346 5:-2.6 6:0.0 7:0.8333333333333333 8:-4.230769230769231 9:-3.673469387755102 10:-8.580645161290322 11:-1.553398058252427 12:-1.0 13:-40.41666666666667 14:-7.741935483870968 15:-6.956521739130435 16:-4.054054054054054 17:-7.283950617283951 18:-6.363636363636363 19:-6.923076923076923 20:-8.360655737704919 21:-11.25 22:-2.926829268292683 23:-7.403846153846154 24:-10.0 25:-17.704918032786885 26:-12.857142857142858 27:-3.8461538461538463 28:-6.3 29:-5.987654320987654 30:-7.5 
-0.0 -0.0 0.0 0.0 0.0 0.0 0.0011841338212345736 0.0 0.0 1:-8.936170212765957 2:-2.9230769230769234 3:-5.402298850574713 4:-3.2116788321167884 5:-3.2 6:-2.0 7:1.25 8:-4.230769230769231 9:-3.6054421768707483 10:-8.709677419354838 11:-1.553398058252427 12:-1.0 13:-44.58333333333333 14:-7.741935483870968 15:-7.065217391304348 16:-4.054054054054054 17:-7.283950617283951 18:-6.363636363636363 19:-6.538461538461538 20:-8.360655737704919 21:-11.363636363636365 22:-2.845528455284553 23:-7.5 24:-10.0 25:-16.885245901639344 26:-12.857142857142858 27:-3.942307692307692 28:-6.2 29:-5.925925925925926 30:-7.5 
-0.0013135437168194332 -0.0 0.0 0.0 0.0 0.0 0.0 0.0 0.0 1:-9.148936170212766 2:-2.9230769230769234 3:-5.287356321839081 4:-3.2116788321167884 5:-3.4000000000000004 6:-4.0 7:1.25 8:-4.230769230769231 9:-3.673469387755102 10:-8.64516129032258 11:-1.553398058252427 12:-1.0 13:-46.66666666666667 14:-7.741935483870968 15:-7.065217391304348 16:-3.918918918918919 17:-7.283950617283951 18:-6.363636363636363 19:-6.346153846153846 20:-8.196721311475411 21:-11.477272727272727 22:-2.7642276422764227 23:-7.5 24:-10.0 25:-16.393442622950822 26:-12.857142857142858 27:-3.942307692307692 28:-6.2 29:-5.925925925925926 30:-7.5 
-7.309711123332387E-5 -0.0 0.0 0.0021238021754983348 0.0 0.0 0.0 0.0 0.0 1:-7.23404255319149 2:-1.6923076923076925 3:-2.6436781609195403 4:-0.43795620437956206 5:-0.6 6:-10.0 7:2.0833333333333335 8:-4.423076923076923 9:-3.4693877551020407 10:-7.096774193548388 11:-1.0679611650485437 12:-1.0 13:-49.16666666666667 14:-8.064516129032258 15:-5.869565217391305 16:-3.2432432432432434 17:-6.790123456790123 18:-6.363636363636363 19:-5.769230769230768 20:-7.3770491803278695 21:-10.795454545454547 22:-2.4390243902439024 23:-7.019230769230768 24:-9.166666666666666 25:-10.983606557377051 26:-12.142857142857142 27:-3.8461538461538463 28:-5.6000000000000005 29:-5.0 30:-5.833333333333334 
-0.0 -0.002698064232749195 0.0 0.0 0.0 0.0 0.0 0.0 0.0 1:-5.74468085106383 2:-2.0 3:-2.1839080459770117 4:-0.5109489051094891 5:-1.4000000000000001 6:-10.0 7:2.5 8:-4.423076923076923 9:-3.401360544217687 10:-7.032258064516129 11:-0.970873786407767 12:-1.0 13:-35.0 14:-7.580645161290322 15:-5.652173913043478 16:-3.5135135135135136 17:-6.666666666666666 18:-6.363636363636363 19:-5.0 20:-7.049180327868853 21:-10.795454545454547 22:-2.2764227642276422 23:-6.826923076923077 24:-9.166666666666666 25:-9.180327868852459 26:-12.0 27:-3.75 28:-5.5 29:-4.753086419753086 30:-5.833333333333334 
-0.0 -0.004056315936870442 0.0 0.0 0.0 0.0 0.0 0.0 0.0 1:-6.170212765957447 2:-2.0 3:-2.1839080459770117 4:-0.36496350364963503 5:-1.0 6:-10.0 7:2.916666666666667 8:-4.423076923076923 9:-3.401360544217687 10:-7.032258064516129 11:-0.970873786407767 12:-1.0 13:-30.416666666666664 14:-7.419354838709678 15:-5.652173913043478 16:-3.5135135135135136 17:-6.666666666666666 18:-6.363636363636363 19:-5.1923076923076925 20:-7.049180327868853 21:-10.795454545454547 22:-2.2764227642276422 23:-6.826923076923077 24:-9.166666666666666 25:-9.508196721311474 26:-12.0 27:-3.75 28:-5.5 29:-4.753086419753086 30:-5.833333333333334 
-0.0 -0.0 5.893520575872627E-4 0.0 0.0 0.0 0.0 0.0014299057525009656 7.693375993551787E-4 1:-6.595744680851063 2:-1.5384615384615385 3:-2.528735632183908 4:-0.43795620437956206 5:-0.8 6:-10.0 7:2.0833333333333335 8:-4.423076923076923 9:-3.401360544217687 10:-6.967741935483871 11:-0.970873786407767 12:-1.0 13:-20.0 14:-7.580645161290322 15:-5.652173913043478 16:-3.2432432432432434 17:-6.5432098765432105 18:-6.363636363636363 19:-5.384615384615384 20:-7.3770491803278695 21:-10.454545454545453 22:-2.3577235772357725 23:-6.730769230769232 24:-9.166666666666666 25:-10.491803278688526 26:-12.0 27:-3.269230769230769 28:-5.6000000000000005 29:-4.8765432098765435 30:-5.833333333333334 
-0.0 -0.0 0.0 0.0 0.0 7.669635906467169E-4 0.0 0.0 0.0 1:-7.872340425531915 2:-2.307692307692308 3:-2.528735632183908 4:-0.5109489051094891 5:-0.8 6:-12.0 7:2.5 8:-4.423076923076923 9:-3.4693877551020407 10:-7.161290322580646 11:-1.0679611650485437 12:0.0 13:-15.833333333333332 14:-7.903225806451612 15:-6.195652173913043 16:-3.5135135135135136 17:-6.91358024691358 18:-6.363636363636363 19:-6.538461538461538 20:-7.868852459016393 21:-10.795454545454547 22:-2.926829268292683 23:-7.115384615384616 24:-9.166666666666666 25:-15.737704918032787 26:-12.428571428571429 27:-3.365384615384616 28:-6.2 29:-5.925925925925926 30:-8.333333333333334 
-0.0 -0.0 0.0 0.0 0.0 0.001555968404611646 0.0 0.0 0.0 1:-7.872340425531915 2:-2.307692307692308 3:-2.528735632183908 4:-0.5109489051094891 5:-0.8 6:-12.0 7:2.5 8:-4.423076923076923 9:-3.401360544217687 10:-7.161290322580646 11:-1.0679611650485437 12:0.0 13:-15.833333333333332 14:-7.903225806451612 15:-6.086956521739131 16:-3.378378378378378 17:-6.91358024691358 18:-6.363636363636363 19:-6.346153846153846 20:-7.868852459016393 21:-10.795454545454547 22:-2.926829268292683 23:-7.115384615384616 24:-9.166666666666666 25:-16.065573770491802 26:-12.571428571428571 27:-3.365384615384616 28:-6.2 29:-5.925925925925926 30:-8.333333333333334 
-0.0 -0.0 0.0 0.0 0.0024214919432399584 0.0 0.0 0.0 0.0 1:-7.446808510638298 2:-2.153846153846154 3:-2.528735632183908 4:-0.583941605839416 5:-1.0 6:-12.0 7:2.5 8:-4.423076923076923 9:-3.4693877551020407 10:-7.032258064516129 11:-1.0679611650485437 12:-1.0 13:-14.583333333333332 14:-7.741935483870968 15:-5.978260869565217 16:-3.2432432432432434 17:-6.790123456790123 18:-6.363636363636363 19:-6.153846153846154 20:-7.704918032786885 21:-10.681818181818182 22:-2.845528455284553 23:-7.019230769230768 24:-9.166666666666666 25:-14.426229508196721 26:-12.285714285714286 27:-3.269230769230769 28:-6.1 29:-5.617283950617285 30:-7.5 
-0.0 -0.0 -0.0 0.0 8.363228711766619E-4 6.365909714755049E-4 0.0 0.0 0.0 1:2.765957446808511 2:-2.769230769230769 3:-2.0689655172413794 4:-2.408759124087591 5:-1.0 6:22.0 7:9.583333333333334 8:3.269230769230769 9:-3.1972789115646263 10:-0.06451612903225806 11:-2.0388349514563107 12:-2.0 13:-16.25 14:2.258064516129032 15:-3.9130434782608696 16:-1.2162162162162162 17:-6.049382716049383 18:14.545454545454547 19:2.692307692307692 20:-2.9508196721311473 21:-5.6818181818181825 22:0.6504065040650407 23:-2.2115384615384617 24:2.5 25:0.0 26:-7.428571428571429 27:5.288461538461538 28:0.8 29:2.0987654320987654 30:1.6666666666666665 
-0.0 -0.0 -4.906891877141462E-4 0.0 0.0 0.0 0.0 0.0 0.0 1:2.765957446808511 2:-2.769230769230769 3:-2.0689655172413794 4:-2.408759124087591 5:-1.0 6:22.0 7:9.583333333333334 8:3.269230769230769 9:-3.1972789115646263 10:0.0 11:-2.0388349514563107 12:-2.0 13:-17.5 14:2.258064516129032 15:-3.9130434782608696 16:-1.2162162162162162 17:-6.049382716049383 18:14.545454545454547 19:2.692307692307692 20:-3.114754098360656 21:-5.6818181818181825 22:0.6504065040650407 23:-2.2115384615384617 24:1.6666666666666665 25:0.0 26:-7.428571428571429 27:5.288461538461538 28:0.8 29:2.0987654320987654 30:1.6666666666666665 
-0.0 -0.001077929720207812 -0.0 0.0 0.0 0.0 0.0 0.004499052625308835 0.005330823346022899 1:2.765957446808511 2:-2.9230769230769234 3:-2.0689655172413794 4:-2.408759124087591 5:-0.8 6:22.0 7:9.583333333333334 8:3.076923076923077 9:-3.1972789115646263 10:0.0 11:-2.0388349514563107 12:-2.0 13:-17.5 14:2.258064516129032 15:-3.9130434782608696 16:-1.2162162162162162 17:-5.925925925925926 18:14.545454545454547 19:2.692307692307692 20:-3.114754098360656 21:-5.6818181818181825 22:0.6504065040650407 23:-2.2115384615384617 24:1.6666666666666665 25:0.0 26:-7.428571428571429 27:5.288461538461538 28:0.8 29:2.0370370370370368 30:2.5 
-0.0 -0.0 -0.0 0.0 0.0 0.0 0.0 7.736321071236262E-6 0.0 1:2.978723404255319 2:-3.230769230769231 3:-2.6436781609195403 4:-2.18978102189781 5:-2.0 6:18.0 7:3.333333333333333 8:2.1153846153846154 9:-2.108843537414966 10:0.0 11:-1.650485436893204 12:-3.0 13:-12.5 14:0.6451612903225806 15:-3.2608695652173916 16:-2.1621621621621623 17:-6.049382716049383 18:24.545454545454547 19:2.1153846153846154 20:-3.6065573770491803 21:-5.795454545454546 22:-0.8130081300813008 23:-2.884615384615384 24:9.166666666666666 25:0.3278688524590164 26:-8.0 27:4.423076923076923 28:0.8 29:0.9876543209876543 30:9.166666666666666 
-0.0 -0.0 -3.135774269456855E-4 0.0 0.0 0.0 0.0 0.0 0.0 1:2.127659574468085 2:-3.076923076923077 3:-3.218390804597701 4:-2.6277372262773726 5:-1.7999999999999998 6:18.0 7:1.25 8:-0.38461538461538464 9:-1.9727891156462585 10:-0.7741935483870968 11:-1.0679611650485437 12:-4.0 13:-29.166666666666664 14:-0.16129032258064516 15:-2.826086956521739 16:-3.2432432432432434 17:-5.802469135802469 18:25.454545454545453 19:-0.19230769230769232 20:-4.2622950819672125 21:-5.909090909090909 22:-1.2195121951219512 23:-3.076923076923077 24:5.833333333333334 25:-0.8196721311475409 26:-8.428571428571429 27:4.615384615384616 28:-1.6 29:0.9876543209876543 30:0.0 
-0.0 -0.0 -0.0 0.0 0.0 0.0 0.0 1.9915335735766804E-4 0.0 1:2.127659574468085 2:-3.076923076923077 3:-3.218390804597701 4:-2.6277372262773726 5:-1.7999999999999998 6:18.0 7:1.25 8:-0.38461538461538464 9:-1.9727891156462585 10:-0.7741935483870968 11:-1.0679611650485437 12:-4.0 13:-25.416666666666664 14:-0.16129032258064516 15:-2.826086956521739 16:-3.2432432432432434 17:-5.802469135802469 18:25.454545454545453 19:-0.19230769230769232 20:-4.2622950819672125 21:-5.909090909090909 22:-1.2195121951219512 23:-3.076923076923077 24:5.0 25:-0.8196721311475409 26:-8.428571428571429 27:4.615384615384616 28:-1.6 29:0.9876543209876543 30:0.0 
-0.0 -3.3802654771402133E-4 -0.0 0.0 0.0 0.0 0.0 0.0 0.0 1:2.127659574468085 2:-3.076923076923077 3:-3.218390804597701 4:-2.6277372262773726 5:-1.7999999999999998 6:18.0 7:1.25 8:-0.38461538461538464 9:-1.9727891156462585 10:-0.7741935483870968 11:-1.0679611650485437 12:-4.0 13:-26.25 14:-0.16129032258064516 15:-2.826086956521739 16:-3.2432432432432434 17:-5.802469135802469 18:25.454545454545453 19:-0.19230769230769232 20:-4.2622950819672125 21:-5.909090909090909 22:-1.3008130081300815 23:-3.076923076923077 24:5.0 25:-0.8196721311475409 26:-8.428571428571429 27:4.615384615384616 28:-1.6 29:0.9876543209876543 30:0.0 
-0.0 -0.0 -4.216794772196787E-5 0.0 0.0 0.0 0.0 0.0 0.0 1:2.127659574468085 2:-3.076923076923077 3:-3.218390804597701 4:-2.6277372262773726 5:-1.7999999999999998 6:18.0 7:1.25 8:-0.38461538461538464 9:-1.9727891156462585 10:-0.7741935483870968 11:-1.0679611650485437 12:-4.0 13:-26.25 14:-0.16129032258064516 15:-2.826086956521739 16:-3.2432432432432434 17:-5.802469135802469 18:25.454545454545453 19:-0.19230769230769232 20:-4.2622950819672125 21:-5.909090909090909 22:-1.3008130081300815 23:-3.173076923076923 24:5.0 25:-0.8196721311475409 26:-8.428571428571429 27:4.615384615384616 28:-1.6 29:0.9876543209876543 30:0.0 
-6.482173584298687E-4 -0.0 -0.0 9.636636264733001E-4 0.0 0.0 5.685112390035347E-4 0.0 0.0 1:2.127659574468085 2:-3.076923076923077 3:-3.218390804597701 4:-2.6277372262773726 5:-1.7999999999999998 6:18.0 7:1.25 8:-0.576923076923077 9:-1.9727891156462585 10:-0.8387096774193549 11:-1.0679611650485437 12:-4.0 13:-37.5 14:-0.4838709677419355 15:-2.826086956521739 16:-3.108108108108108 17:-5.802469135802469 18:28.181818181818183 19:-0.38461538461538464 20:-4.2622950819672125 21:-5.795454545454546 22:-1.3008130081300815 23:-3.076923076923077 24:5.0 25:-0.8196721311475409 26:-8.428571428571429 27:4.615384615384616 28:-1.6 29:0.9876543209876543 30:0.0 
-0.0 -0.0 -0.0 -0.0 0.0 4.186569759186328E-4 0.0 0.0 0.0 1:-5.957446808510638 2:-2.4615384615384617 3:-3.218390804597701 4:-2.9927007299270074 5:-1.0 6:4.0 7:8.75 8:2.307692307692308 9:-1.6326530612244896 10:1.870967741935484 11:0.38834951456310673 12:-2.0 13:-62.91666666666667 14:-0.4838709677419355 15:-2.0652173913043477 16:-0.8108108108108109 17:-4.444444444444445 18:-3.6363636363636367 19:-1.9230769230769231 20:-3.442622950819672 21:-5.227272727272727 22:1.056910569105691 23:-4.8076923076923075 24:-6.666666666666666 25:-1.8032786885245902 26:-7.857142857142857 27:5.769230769230768 28:1.0 29:1.4814814814814814 30:-5.0 
-0.0 -0.0 -0.0 -0.0 4.316135033366932E-4 0.0 0.0 0.0 0.0 1:-5.531914893617022 2:-2.769230769230769 3:-3.333333333333333 4:-3.0656934306569346 5:-0.8 6:4.0 7:7.083333333333334 8:1.7307692307692308 9:-1.6326530612244896 10:1.8064516129032258 11:0.19417475728155337 12:-3.0 13:-62.91666666666667 14:-0.6451612903225806 15:-2.1739130434782608 16:-1.0810810810810811 17:-4.567901234567901 18:-3.6363636363636367 19:-1.9230769230769231 20:-3.442622950819672 21:-5.113636363636363 22:0.7317073170731707 23:-5.096153846153846 24:-6.666666666666666 25:-1.8032786885245902 26:-8.0 27:5.576923076923077 28:0.6 29:1.419753086419753 30:-5.0 
-0.0 -0.0 -0.0 -9.636636264733001E-4 0.0 0.0 0.0 0.0 0.0 1:-5.106382978723404 2:-2.4615384615384617 3:-3.218390804597701 4:-2.7007299270072993 5:-0.4 6:6.0 7:7.083333333333334 8:1.7307692307692308 9:-1.564625850340136 10:1.6129032258064515 11:0.2912621359223301 12:-2.0 13:-62.91666666666667 14:-0.6451612903225806 15:-2.0652173913043477 16:-1.3513513513513513 17:-4.197530864197531 18:-3.6363636363636367 19:-1.7307692307692308 20:-3.7704918032786883 21:-5.0 22:1.056910569105691 23:-3.8461538461538463 24:-6.666666666666666 25:-1.8032786885245902 26:-8.0 27:5.673076923076923 28:1.0 29:1.6666666666666665 30:-2.5 
-0.0 -0.0 -0.0 -0.0 0.0 0.0 0.0 0.0019246508124060625 1.706181374384215E-4 1:-5.106382978723404 2:-2.153846153846154 3:-2.988505747126437 4:-2.7007299270072993 5:-0.4 6:6.0 7:7.083333333333334 8:1.7307692307692308 9:-1.564625850340136 10:1.6129032258064515 11:0.2912621359223301 12:-2.0 13:-62.91666666666667 14:-0.6451612903225806 15:-2.0652173913043477 16:-1.3513513513513513 17:-4.197530864197531 18:-3.6363636363636367 19:-1.5384615384615385 20:-3.442622950819672 21:-4.886363636363637 22:1.1382113821138211 23:-3.6538461538461537 24:-6.666666666666666 25:-1.8032786885245902 26:-7.857142857142857 27:5.769230769230768 28:1.0 29:1.6666666666666665 30:-2.5 
-0.0 -0.0 -0.0 -0.0 0.0 0.0 0.0 0.0 0.0017613116884583411 1:-5.106382978723404 2:-2.153846153846154 3:-3.103448275862069 4:-2.7007299270072993 5:-0.4 6:6.0 7:7.083333333333334 8:1.7307692307692308 9:-1.564625850340136 10:1.6129032258064515 11:0.2912621359223301 12:-2.0 13:-62.91666666666667 14:-0.6451612903225806 15:-2.0652173913043477 16:-1.3513513513513513 17:-4.197530864197531 18:-3.6363636363636367 19:-1.5384615384615385 20:-3.442622950819672 21:-4.886363636363637 22:1.1382113821138211 23:-3.6538461538461537 24:-6.666666666666666 25:-1.8032786885245902 26:-7.857142857142857 27:5.769230769230768 28:1.0 29:1.6666666666666665 30:-2.5 
-0.0 -0.0010701049814198264 -0.0 -0.0 0.0 0.0 0.0 0.0 0.0 1:-4.8936170212765955 2:-2.307692307692308 3:-2.988505747126437 4:-2.408759124087591 5:-0.2 6:4.0 7:5.416666666666666 8:1.153846153846154 9:-1.4285714285714284 10:1.4838709677419355 11:0.2912621359223301 12:-2.0 13:-63.75 14:-0.967741935483871 15:-2.1739130434782608 16:-1.891891891891892 17:-4.567901234567901 18:-3.6363636363636367 19:-1.7307692307692308 20:-3.6065573770491803 21:-5.227272727272727 22:0.1626016260162602 23:-4.038461538461538 24:-6.666666666666666 25:-1.8032786885245902 26:-8.142857142857142 27:5.384615384615384 28:0.7000000000000001 29:1.5432098765432098 30:-2.5 
-0.0 -0.0 -6.94851857606145E-4 -0.0 0.0 0.0 0.0 0.0 0.0 1:-5.319148936170213 2:-1.8461538461538463 3:-1.9540229885057472 4:-2.773722627737226 5:0.2 6:2.0 7:5.416666666666666 8:1.7307692307692308 9:-1.2244897959183674 10:1.935483870967742 11:0.38834951456310673 12:-2.0 13:-64.58333333333333 14:-0.8064516129032258 15:-2.5 16:-1.0810810810810811 17:-4.814814814814815 18:-3.6363636363636367 19:-1.153846153846154 20:-3.442622950819672 21:-5.113636363636363 22:0.975609756097561 23:-4.615384615384616 24:-7.5 25:-2.7868852459016393 26:-8.571428571428571 27:5.576923076923077 28:0.0 29:1.5432098765432098 30:-3.333333333333333 
-0.001803893055704121 -0.0 -0.0 -0.0 0.0 0.0 2.8802681396009793E-4 0.0 0.0 1:-5.106382978723404 2:-2.153846153846154 3:-1.7241379310344829 4:-2.4817518248175183 5:-0.2 6:4.0 7:6.666666666666666 8:1.346153846153846 9:-1.360544217687075 10:2.129032258064516 11:-0.38834951456310673 12:-5.0 13:-64.58333333333333 14:-1.129032258064516 15:-2.717391304347826 16:-1.7567567567567568 17:-5.925925925925926 18:-4.545454545454545 19:-0.7692307692307693 20:-3.442622950819672 21:-5.909090909090909 22:-0.975609756097561 23:-4.230769230769231 24:-8.333333333333334 25:-2.6229508196721314 26:-8.428571428571429 27:5.288461538461538 28:0.1 29:1.419753086419753 30:-5.0 
-6.400662384985718E-4 -0.0 -0.0 -0.0 0.0 0.0 0.0 0.0 0.0 1:-4.468085106382978 2:-2.307692307692308 3:-2.0689655172413794 4:-2.9197080291970803 5:-0.6 6:4.0 7:5.416666666666666 8:0.9615384615384616 9:-1.4285714285714284 10:2.193548387096774 11:-0.38834951456310673 12:-5.0 13:-65.41666666666667 14:-1.2903225806451613 15:-2.608695652173913 16:-0.945945945945946 17:-5.185185185185185 18:-4.545454545454545 19:-1.153846153846154 20:-3.6065573770491803 21:-5.6818181818181825 22:-0.6504065040650407 23:-3.4615384615384617 24:-8.333333333333334 25:-2.459016393442623 26:-8.285714285714286 27:5.096153846153846 28:0.4 29:1.3580246913580245 30:-6.666666666666666 
-0.0 -0.0 -8.846033997446308E-4 -0.0 0.0 0.0 0.0 0.0 0.0 1:-3.617021276595745 2:-2.769230769230769 3:-2.528735632183908 4:-2.2627737226277373 5:0.0 6:4.0 7:5.416666666666666 8:0.0 9:-1.2244897959183674 10:2.516129032258064 11:0.2912621359223301 12:-2.0 13:-64.16666666666667 14:-1.2903225806451613 15:-2.391304347826087 16:-2.027027027027027 17:-5.432098765432098 18:-4.545454545454545 19:-1.7307692307692308 20:-3.6065573770491803 21:-6.136363636363637 22:-2.113821138211382 23:-3.942307692307692 24:-8.333333333333334 25:-1.4754098360655736 26:-8.0 27:4.615384615384616 28:0.2 29:1.1728395061728394 30:-4.166666666666667 
-0.0 -9.889939361970578E-5 -0.0 -0.0 0.0 0.0 0.0 0.0 0.0 1:-3.617021276595745 2:-2.6153846153846154 3:-2.528735632183908 4:-2.335766423357664 5:0.0 6:4.0 7:5.0 8:0.0 9:-1.2244897959183674 10:2.5806451612903225 11:0.38834951456310673 12:-2.0 13:-64.58333333333333 14:-1.4516129032258065 15:-2.282608695652174 16:-1.6216216216216217 17:-4.938271604938271 18:-4.545454545454545 19:-1.5384615384615385 20:-3.6065573770491803 21:-5.795454545454546 22:-1.1382113821138211 23:-2.980769230769231 24:-7.5 25:-1.4754098360655736 26:-8.0 27:5.1923076923076925 28:0.7000000000000001 29:1.6049382716049383 30:-2.5 
-0.0 -0.003141474563702636 -0.0 -0.0 0.0 0.0 0.0 0.0 0.0 1:-3.617021276595745 2:-2.4615384615384617 3:-2.528735632183908 4:-2.2627737226277373 5:0.0 6:4.0 7:6.25 8:0.19230769230769232 9:-1.2925170068027212 10:2.516129032258064 11:0.4854368932038835 12:-2.0 13:-64.58333333333333 14:-1.129032258064516 15:-2.0652173913043477 16:-1.6216216216216217 17:-4.6913580246913575 18:-4.545454545454545 19:-1.5384615384615385 20:-3.442622950819672 21:-5.5681818181818175 22:-0.975609756097561 23:-2.5961538461538463 24:-7.5 25:-1.3114754098360657 26:-7.857142857142857 27:5.480769230769232 28:0.8999999999999999 29:1.728395061728395 30:-0.8333333333333333 
-0.0 -0.0 -5.443469181475588E-4 -0.0 0.0 0.0 0.0 0.0 0.0 1:-6.595744680851063 2:-1.6923076923076925 3:-1.1494252873563218 4:-1.6058394160583942 5:0.6 6:2.0 7:6.666666666666666 8:1.346153846153846 9:-1.1564625850340136 10:2.709677419354839 11:0.5825242718446602 12:-2.0 13:-64.16666666666667 14:-0.4838709677419355 15:-2.391304347826087 16:-1.2162162162162162 17:-5.802469135802469 18:-4.545454545454545 19:-0.38461538461538464 20:-3.442622950819672 21:-5.909090909090909 22:0.0 23:-3.269230769230769 24:-7.5 25:-2.2950819672131146 26:-8.571428571428571 27:5.576923076923077 28:-0.2 29:1.419753086419753 30:-5.0 
-0.0 -0.0 -0.0 -0.0 0.0 0.0 0.001417840364869516 0.0 0.0 1:-4.8936170212765955 2:-1.5384615384615385 3:-1.3793103448275863 4:-1.6058394160583942 5:0.2 6:6.0 7:5.833333333333334 8:0.19230769230769232 9:-1.2925170068027212 10:2.645161290322581 11:0.2912621359223301 12:-2.0 13:-65.41666666666667 14:-1.6129032258064515 15:-2.282608695652174 16:-0.40540540540540543 17:-4.197530864197531 18:-3.6363636363636367 19:-0.7692307692307693 20:-3.6065573770491803 21:-5.340909090909091 22:-0.3252032520325204 23:-2.5961538461538463 24:-6.666666666666666 25:-1.9672131147540983 26:-8.428571428571429 27:5.288461538461538 28:0.3 29:1.5432098765432098 30:-4.166666666666667 
-0.0 -0.0024105704263375706 -0.0 -0.0 0.0 0.0 0.0 0.0 0.0 1:-3.404255319148936 2:-1.8461538461538463 3:-1.7241379310344829 4:-1.6788321167883211 5:0.6 6:4.0 7:5.833333333333334 8:0.38461538461538464 9:-1.2925170068027212 10:2.516129032258064 11:0.38834951456310673 12:-2.0 13:-65.0 14:-1.4516129032258065 15:-2.0652173913043477 16:-0.5405405405405406 17:-4.197530864197531 18:-3.6363636363636367 19:-1.346153846153846 20:-3.442622950819672 21:-5.340909090909091 22:-1.2195121951219512 23:-2.5961538461538463 24:-6.666666666666666 25:-1.4754098360655736 26:-7.857142857142857 27:5.288461538461538 28:0.6 29:1.728395061728395 30:-2.5 
-2.4595309489547275E-5 -0.0 -0.0 -2.3908798520523453E-4 -0.0 0.0 3.185952010023096E-4 0.0 0.001384796828878051 1:-11.27659574468085 2:-4.461538461538462 3:-2.413793103448276 4:-1.9708029197080292 5:-1.4000000000000001 6:4.0 7:1.25 8:0.0 9:-2.1768707482993195 10:1.1612903225806452 11:0.38834951456310673 12:-1.0 13:-0.41666666666666663 14:2.5806451612903225 15:-2.826086956521739 16:1.4864864864864866 17:-4.0740740740740735 18:-10.909090909090908 19:-4.423076923076923 20:-9.508196721311474 21:-6.8181818181818175 22:-1.3821138211382114 23:-5.1923076923076925 24:-4.166666666666667 25:-22.950819672131146 26:2.0 27:-2.019230769230769 28:-5.6000000000000005 29:0.6790123456790123 30:-0.8333333333333333 
-0.0 -0.0 -0.0 -4.5932476363063057E-4 -0.0 0.0 0.0 3.8705264474094366E-4 0.0 1:-11.27659574468085 2:-4.307692307692308 3:-2.413793103448276 4:-1.9708029197080292 5:-1.4000000000000001 6:4.0 7:1.25 8:0.19230769230769232 9:-2.1768707482993195 10:1.1612903225806452 11:0.38834951456310673 12:-1.0 13:-0.41666666666666663 14:2.5806451612903225 15:-2.826086956521739 16:1.4864864864864866 17:-4.0740740740740735 18:-10.909090909090908 19:-4.423076923076923 20:-9.508196721311474 21:-6.8181818181818175 22:-1.3821138211382114 23:-5.1923076923076925 24:-4.166666666666667 25:-22.950819672131146 26:2.0 27:-2.1153846153846154 28:-5.6000000000000005 29:0.6790123456790123 30:-0.8333333333333333 
-0.0 -0.0 -0.0 -0.0 -0.0 1.5854210583110212E-4 0.0 0.0 0.0 1:-14.46808510638298 2:-4.769230769230769 3:-2.2988505747126435 4:-1.6788321167883211 5:-1.0 6:0.0 7:4.583333333333333 8:0.19230769230769232 9:-2.1768707482993195 10:1.2258064516129032 11:0.2912621359223301 12:0.0 13:0.8333333333333333 14:2.7419354838709675 15:-2.608695652173913 16:1.4864864864864866 17:-4.320987654320987 18:-12.727272727272727 19:-4.423076923076923 20:-9.344262295081968 21:-6.8181818181818175 22:-1.2195121951219512 23:-5.480769230769232 24:-4.166666666666667 25:-25.245901639344265 26:2.0 27:-1.8269230769230769 28:-5.5 29:0.7407407407407407 30:-1.6666666666666665 
-0.0 -0.0 -0.0 -1.379101223407967E-4 -0.0 0.0 0.0 0.0 0.0 1:-9.787234042553191 2:-4.0 3:-1.3793103448275863 4:-0.948905109489051 5:-1.4000000000000001 6:0.0 7:12.083333333333332 8:0.0 9:-2.380952380952381 10:1.096774193548387 11:0.4854368932038835 12:-2.0 13:-1.25 14:1.935483870967742 15:-3.1521739130434785 16:1.0810810810810811 17:-4.320987654320987 18:-12.727272727272727 19:-3.6538461538461537 20:-8.852459016393443 21:-6.704545454545454 22:-1.2195121951219512 23:-5.288461538461538 24:-1.6666666666666665 25:-22.62295081967213 26:2.714285714285714 27:-2.2115384615384617 28:-6.8999999999999995 29:0.6172839506172839 30:-1.6666666666666665 
-0.0 -0.0 -0.0 -0.0 -0.0 0.002406248804272565 0.0 0.0 0.0 1:-10.638297872340425 2:-4.461538461538462 3:-1.3793103448275863 4:-0.948905109489051 5:-0.6 6:-4.0 7:9.583333333333334 8:-0.576923076923077 9:-2.2448979591836733 10:1.096774193548387 11:0.09708737864077668 12:-1.0 13:-0.8333333333333333 14:1.935483870967742 15:-3.0434782608695654 16:0.8108108108108109 17:-4.6913580246913575 18:-13.636363636363635 19:-4.615384615384616 20:-9.180327868852459 21:-7.159090909090909 22:-1.3008130081300815 23:-5.480769230769232 24:-2.5 25:-23.442622950819676 26:2.571428571428571 27:-2.307692307692308 28:-7.199999999999999 29:0.6172839506172839 30:-1.6666666666666665 
-1.69696090152804E-5 -0.0 -0.0 -0.0 -2.981847235179465E-4 0.0 0.0 0.0 0.0 1:-9.787234042553191 2:-3.5384615384615388 3:-1.264367816091954 4:-0.8759124087591241 5:-1.7999999999999998 6:-4.0 7:10.416666666666668 8:0.19230769230769232 9:-2.380952380952381 10:1.032258064516129 11:0.09708737864077668 12:-3.0 13:-1.6666666666666665 14:1.935483870967742 15:-3.1521739130434785 16:0.8108108108108109 17:-4.567901234567901 18:-12.727272727272727 19:-3.6538461538461537 20:-9.01639344262295 21:-6.9318181818181825 22:-0.975609756097561 23:-5.1923076923076925 24:-2.5 25:-21.311475409836067 26:2.8571428571428568 27:-2.5 28:-7.3 29:0.5555555555555556 30:-1.6666666666666665 
-0.0 -3.6379663923533627E-4 -0.0 -0.0 -0.0 0.0 0.0 4.0128313616583734E-4 0.0 1:-12.553191489361701 2:-4.461538461538462 3:-1.6091954022988506 4:-1.0218978102189782 5:-2.0 6:-8.0 7:11.666666666666668 8:0.576923076923077 9:-2.1768707482993195 10:0.7096774193548387 11:-0.2912621359223301 12:-3.0 13:-1.6666666666666665 14:1.4516129032258065 15:-3.804347826086957 16:-0.6756756756756757 17:-5.061728395061729 18:-9.09090909090909 19:-2.692307692307692 20:-7.213114754098361 21:-6.477272727272727 22:-0.8943089430894309 23:-3.942307692307692 24:-3.333333333333333 25:-21.475409836065573 26:4.142857142857143 27:-2.980769230769231 28:-7.3 29:0.6172839506172839 30:-0.8333333333333333 
-0.0 -4.997190132819474E-4 -0.0 -0.0 -0.0 0.0 0.0 0.0 0.0 1:-8.72340425531915 2:-3.6923076923076925 3:-1.4942528735632186 4:-0.6569343065693432 5:-0.8 6:-12.0 7:9.583333333333334 8:1.153846153846154 9:-2.4489795918367347 10:0.6451612903225806 11:-0.2912621359223301 12:-3.0 13:-0.8333333333333333 14:1.774193548387097 15:-3.695652173913043 16:-0.6756756756756757 17:-4.938271604938271 18:-9.09090909090909 19:-3.8461538461538463 20:-8.852459016393443 21:-6.8181818181818175 22:-1.3821138211382114 23:-4.423076923076923 24:-2.5 25:-21.311475409836067 26:3.7142857142857144 27:-2.980769230769231 28:-7.5 29:0.5555555555555556 30:-0.8333333333333333 
-0.0 -0.0 -9.008071731945756E-4 -0.0 -0.0 0.0 0.0 0.0 0.0 1:-9.148936170212766 2:-3.5384615384615388 3:-1.3793103448275863 4:-0.43795620437956206 5:-0.6 6:-20.0 7:9.166666666666666 8:0.9615384615384616 9:-2.4489795918367347 10:0.6451612903225806 11:-0.2912621359223301 12:-3.0 13:-0.41666666666666663 14:1.935483870967742 15:-3.5869565217391304 16:-0.6756756756756757 17:-4.938271604938271 18:-8.181818181818182 19:-4.038461538461538 20:-8.360655737704919 21:-6.8181818181818175 22:-1.3821138211382114 23:-4.423076923076923 24:-2.5 25:-21.475409836065573 26:3.857142857142857 27:-2.884615384615384 28:-7.6 29:0.5555555555555556 30:-1.6666666666666665 
-2.3520094783083446E-4 -0.0010497247042530549 -0.0 -0.0 -0.0 0.0 0.0 9.596808441185093E-4 0.0 1:-7.23404255319149 2:-3.384615384615385 3:-1.4942528735632186 4:-0.8029197080291971 5:-0.8 6:-2.0 7:0.41666666666666663 8:-1.7307692307692308 9:-2.312925170068027 10:0.5806451612903226 11:-0.2912621359223301 12:-3.0 13:-1.25 14:1.4516129032258065 15:-3.804347826086957 16:-0.40540540540540543 17:-4.938271604938271 18:-11.818181818181818 19:-2.692307692307692 20:-8.852459016393443 21:-6.704545454545454 22:-1.2195121951219512 23:-4.038461538461538 24:-2.5 25:-21.639344262295083 26:3.0 27:-2.692307692307692 28:-7.5 29:0.6172839506172839 30:-1.6666666666666665 
-5.386293211642902E-5 -6.23316218790623E-4 -0.001520684770045383 -0.0 -1.3342877981874666E-4 8.764376146220898E-4 0.0 0.0 0.0 1:-7.23404255319149 2:-3.5384615384615388 3:-1.3793103448275863 4:-0.7299270072992701 5:-0.8 6:-4.0 7:-0.8333333333333333 8:-2.307692307692308 9:-2.380952380952381 10:0.5806451612903226 11:-0.19417475728155337 12:-3.0 13:-1.6666666666666665 14:1.4516129032258065 15:-3.804347826086957 16:-0.40540540540540543 17:-4.938271604938271 18:-11.818181818181818 19:-3.076923076923077 20:-8.852459016393443 21:-6.704545454545454 22:-1.2195121951219512 23:-4.134615384615384 24:-3.333333333333333 25:-22.131147540983605 26:2.8571428571428568 27:-2.5961538461538463 28:-7.199999999999999 29:0.6790123456790123 30:-1.6666666666666665 
-0.0 -0.0 -0.0 -6.365909714755049E-4 -0.0 -0.0 0.0 0.0 6.576019605409898E-4 1:-6.808510638297872 2:-3.5384615384615388 3:-3.5632183908045976 4:1.6058394160583942 5:0.2 6:4.0 7:6.666666666666666 8:3.269230769230769 9:-2.0408163265306123 10:1.1612903225806452 11:0.09708737864077668 12:16.0 13:-5.416666666666666 14:-5.806451612903226 15:-5.869565217391305 16:-7.027027027027027 17:-6.91358024691358 18:-14.545454545454547 19:-5.1923076923076925 20:-9.508196721311474 21:-8.181818181818182 22:-5.9349593495934965 23:-8.365384615384615 24:-5.833333333333334 25:-23.606557377049178 26:1.0 27:-6.0576923076923075 28:-10.0 29:-0.49382716049382713 30:-10.833333333333332 
-0.0 -4.8594644274911527E-4 -0.0 -0.0 -0.0 -0.0 0.0 9.219351260719655E-4 0.0 1:-6.382978723404255 2:-3.5384615384615388 3:-3.4482758620689657 4:1.6058394160583942 5:0.2 6:2.0 7:6.25 8:3.269230769230769 9:-1.9727891156462585 10:1.2258064516129032 11:-0.09708737864077668 12:16.0 13:-5.416666666666666 14:-5.645161290322581 15:-5.760869565217392 16:-6.486486486486487 17:-6.91358024691358 18:-14.545454545454547 19:-5.1923076923076925 20:-9.508196721311474 21:-8.181818181818182 22:-5.772357723577236 23:-8.653846153846153 24:-5.833333333333334 25:-23.442622950819676 26:0.8571428571428572 27:-6.0576923076923075 28:-10.0 29:-0.49382716049382713 30:-10.0 
-0.0 -0.0 -0.0 -0.0 -3.372338250944404E-4 -0.0 0.0 0.0 0.0 1:-7.446808510638298 2:-4.461538461538462 3:-3.4482758620689657 4:1.0218978102189782 5:-0.2 6:4.0 7:7.083333333333334 8:3.6538461538461537 9:-2.1768707482993195 10:1.032258064516129 11:0.5825242718446602 12:13.0 13:-5.833333333333334 14:-5.645161290322581 15:-5.978260869565217 16:-7.702702702702703 17:-6.790123456790123 18:-14.545454545454547 19:-5.576923076923077 20:-9.508196721311474 21:-8.295454545454547 22:-5.691056910569106 23:-7.980769230769232 24:-5.833333333333334 25:-24.91803278688525 26:1.7142857142857144 27:-5.865384615384616 28:-9.8 29:-0.49382716049382713 30:-12.5 
-3.178753823923754E-4 -0.0 -8.367522932223707E-6 -0.0 -0.0 -0.0017937737625829168 2.1552625178610622E-4 0.0 0.0 1:-7.659574468085106 2:-4.307692307692308 3:-3.793103448275862 4:1.2408759124087592 5:0.2 6:4.0 7:6.25 8:3.8461538461538463 9:-2.380952380952381 10:0.9032258064516129 11:1.3592233009708736 12:12.0 13:-5.833333333333334 14:-5.645161290322581 15:-5.978260869565217 16:-7.702702702702703 17:-6.790123456790123 18:-14.545454545454547 19:-5.576923076923077 20:-9.344262295081968 21:-8.40909090909091 22:-5.772357723577236 23:-8.75 24:-5.833333333333334 25:-25.245901639344265 26:1.5714285714285714 27:-6.0576923076923075 28:-10.1 29:-0.7407407407407407 30:-12.5 
-0.0 -0.0 -0.0 -0.0 -0.0 -0.0 1.3139273909886938E-4 0.0 2.872009204181829E-4 1:-8.085106382978722 2:-2.0 3:-0.22988505747126436 4:2.116788321167883 5:2.2 6:8.0 7:5.833333333333334 8:3.269230769230769 9:-1.9047619047619047 10:1.4193548387096775 11:1.0679611650485437 12:18.0 13:-6.25 14:-5.161290322580645 15:-5.978260869565217 16:-7.432432432432432 17:-7.037037037037037 18:-14.545454545454547 19:-5.769230769230768 20:-9.01639344262295 21:-8.295454545454547 22:-5.609756097560976 23:-8.173076923076923 24:-5.833333333333334 25:-24.754098360655735 26:2.571428571428571 27:-6.153846153846154 28:-9.8 29:-0.6790123456790123 30:-11.666666666666668 
-0.0 -0.0 -1.5475226591674468E-4 -0.0 -8.14231508241924E-5 -2.199149053575953E-4 0.0 0.0 0.0 1:-9.787234042553191 2:-3.076923076923077 3:-2.6436781609195403 4:1.2408759124087592 5:0.6 6:-2.0 7:6.666666666666666 8:3.8461538461538463 9:-1.9727891156462585 10:1.1612903225806452 11:0.7766990291262135 12:11.0 13:-5.833333333333334 14:-3.709677419354839 15:-5.869565217391305 16:-7.567567567567568 17:-6.91358024691358 18:-14.545454545454547 19:-4.8076923076923075 20:-9.01639344262295 21:-8.181818181818182 22:-5.853658536585366 23:-8.557692307692307 24:-5.833333333333334 25:-24.262295081967213 26:2.0 27:-5.865384615384616 28:-10.5 29:-0.9259259259259258 30:-16.666666666666668 
-0.0 -9.209524750378577E-4 -0.002159812206409395 -0.0 -0.0 -0.0014275398567852443 0.0 0.0 0.0 1:-8.297872340425531 2:-3.5384615384615388 3:-2.988505747126437 4:-1.8248175182481752 5:-3.2 6:-12.0 7:3.333333333333333 8:2.884615384615384 9:-2.108843537414966 10:1.1612903225806452 11:0.5825242718446602 12:13.0 13:-3.75 14:-7.096774193548388 15:-5.869565217391305 16:-8.513513513513512 17:-6.91358024691358 18:-14.545454545454547 19:-5.1923076923076925 20:-9.344262295081968 21:-7.954545454545454 22:-6.097560975609756 23:-8.942307692307693 24:-5.833333333333334 25:-22.78688524590164 26:0.5714285714285714 27:-5.865384615384616 28:-10.600000000000001 29:-0.9259259259259258 30:-11.666666666666668 
-0.0 -0.0013679794641362967 -0.0011841338212345734 -5.685112390035347E-4 -0.001705867178829614 -3.185952010023096E-4 -3.469189908849756E-4 6.450072491797395E-4 8.499054676913957E-4 1:-9.148936170212766 2:1.3846153846153846 3:-2.528735632183908 4:1.386861313868613 5:1.6 6:26.0 7:3.333333333333333 8:-4.615384615384616 9:-3.1972789115646263 10:-4.064516129032258 11:-1.0679611650485437 12:-6.0 13:-71.66666666666667 14:-8.225806451612904 15:-5.652173913043478 16:-4.054054054054054 17:-6.790123456790123 18:-7.272727272727273 19:-7.6923076923076925 20:-9.836065573770492 21:-8.75 22:-4.0650406504065035 23:-9.615384615384615 24:-10.833333333333332 25:-15.40983606557377 26:-12.428571428571429 27:-0.576923076923077 28:-8.4 29:-3.2098765432098766 30:-5.833333333333334 
-0.001570206913207295 -0.0 -0.0 -0.0 -0.0 -0.0 -0.0 0.0 0.0 1:-8.51063829787234 2:0.6153846153846154 3:-2.0689655172413794 4:1.2408759124087592 5:1.7999999999999998 6:58.0 7:3.333333333333333 8:-4.423076923076923 9:-3.1972789115646263 10:-3.870967741935484 11:-1.0679611650485437 12:-6.0 13:-71.66666666666667 14:-8.225806451612904 15:-5.543478260869565 16:-3.918918918918919 17:-6.790123456790123 18:-7.272727272727273 19:-7.6923076923076925 20:-9.836065573770492 21:-8.75 22:-4.0650406504065035 23:-9.615384615384615 24:-10.833333333333332 25:-15.245901639344261 26:-12.428571428571429 27:-0.576923076923077 28:-8.299999999999999 29:-3.2098765432098766 30:-5.833333333333334 
-0.0036331834625231347 -0.0 -0.0 -0.0 -0.0 -0.0 -0.0 0.0 0.0 1:-8.085106382978722 2:0.3076923076923077 3:-0.5747126436781609 4:2.7007299270072993 5:3.8 6:140.0 7:5.0 8:-4.038461538461538 9:-2.72108843537415 10:-2.645161290322581 11:-0.970873786407767 12:-6.0 13:-70.83333333333333 14:-7.741935483870968 15:-5.108695652173914 16:-3.783783783783784 17:-6.419753086419753 18:-7.272727272727273 19:-6.346153846153846 20:-8.688524590163935 21:-8.636363636363637 22:-3.333333333333333 23:-8.557692307692307 24:-10.833333333333332 25:-12.950819672131148 26:-11.714285714285715 27:-0.38461538461538464 28:-7.1 29:-3.0246913580246915 30:-5.0 
-0.002164457613622611 -0.0 -0.0 -0.0 -0.0 -0.0 -0.0 0.0 0.0 1:-9.148936170212766 2:0.15384615384615385 3:0.0 4:2.6277372262773726 5:5.2 6:210.0 7:1.25 8:-3.6538461538461537 9:-3.401360544217687 10:-3.6129032258064515 11:-5.145631067961165 12:-7.0 13:-72.5 14:-7.580645161290322 15:-5.760869565217392 16:-2.7027027027027026 17:-7.037037037037037 18:-7.272727272727273 19:-8.076923076923077 20:-9.344262295081968 21:-9.09090909090909 22:-2.7642276422764227 23:-9.423076923076923 24:-10.833333333333332 25:-18.524590163934427 26:-12.142857142857142 27:-0.9615384615384616 28:-6.3 29:-3.2098765432098766 30:-8.333333333333334 
-0.0 -0.0 -0.0 -0.0 -0.0 -7.668708306786117E-4 -2.0654580676454325E-4 -0.0 0.0 1:-3.829787234042553 2:0.0 3:-0.9195402298850575 4:0.43795620437956206 5:0.6 6:2.0 7:2.5 8:2.5 9:-1.6326530612244896 10:2.064516129032258 11:0.6796116504854368 12:0.0 13:-4.583333333333333 14:2.258064516129032 15:-1.5217391304347827 16:1.891891891891892 17:-2.3456790123456788 18:6.363636363636363 19:2.692307692307692 20:-0.1639344262295082 21:-2.727272727272727 22:3.252032520325203 23:0.2884615384615385 24:1.6666666666666665 25:-2.6229508196721314 26:-3.142857142857143 27:5.865384615384616 28:-1.4000000000000001 29:2.0370370370370368 30:4.166666666666667 
-0.0 -0.0 -0.0 -0.0 -0.0 -9.811457943466788E-4 -0.0 -0.0 0.0 1:-3.829787234042553 2:0.0 3:-0.9195402298850575 4:0.36496350364963503 5:0.2 6:2.0 7:2.5 8:2.5 9:-1.6326530612244896 10:2.0 11:0.6796116504854368 12:0.0 13:-4.583333333333333 14:2.258064516129032 15:-1.5217391304347827 16:1.891891891891892 17:-2.3456790123456788 18:6.363636363636363 19:2.884615384615384 20:-0.3278688524590164 21:-2.9545454545454546 22:3.333333333333333 23:0.2884615384615385 24:1.6666666666666665 25:-2.6229508196721314 26:-3.428571428571429 27:5.769230769230768 28:-1.3 29:2.0370370370370368 30:4.166666666666667 
-0.0 -7.754153053264731E-4 -4.976331979882284E-4 -0.0 -0.0 -0.0 -0.0 -0.0 0.0 1:-4.042553191489361 2:-0.15384615384615385 3:-1.0344827586206897 4:0.291970802919708 5:-0.2 6:0.0 7:3.75 8:2.692307692307692 9:-1.7006802721088434 10:2.064516129032258 11:0.6796116504854368 12:0.0 13:-4.583333333333333 14:1.935483870967742 15:-1.5217391304347827 16:2.1621621621621623 17:-2.3456790123456788 18:7.272727272727273 19:2.884615384615384 20:-0.3278688524590164 21:-2.8409090909090913 22:3.333333333333333 23:0.2884615384615385 24:1.6666666666666665 25:-2.459016393442623 26:-3.5714285714285716 27:5.769230769230768 28:-1.2 29:2.0370370370370368 30:4.166666666666667 
-0.0 -0.0 -0.0 -0.0 -0.0 -0.0 -3.3429480512008405E-4 -0.0 0.0 1:-3.617021276595745 2:0.15384615384615385 3:-1.0344827586206897 4:0.36496350364963503 5:0.2 6:4.0 7:3.333333333333333 8:2.5 9:-1.6326530612244896 10:2.064516129032258 11:0.6796116504854368 12:0.0 13:-5.416666666666666 14:2.096774193548387 15:-1.5217391304347827 16:2.027027027027027 17:-2.4691358024691357 18:6.363636363636363 19:3.076923076923077 20:-0.4918032786885246 21:-2.9545454545454546 22:3.414634146341464 23:0.2884615384615385 24:1.6666666666666665 25:-2.2950819672131146 26:-3.7142857142857144 27:5.769230769230768 28:-1.3 29:2.0370370370370368 30:3.333333333333333 
-0.0 -0.0 -0.0 -0.0 -0.0 -0.0 -3.13337377210702E-4 -0.0 0.0 1:-3.829787234042553 2:0.15384615384615385 3:-1.0344827586206897 4:0.36496350364963503 5:0.2 6:4.0 7:2.916666666666667 8:2.5 9:-1.6326530612244896 10:2.064516129032258 11:0.6796116504854368 12:0.0 13:-8.333333333333334 14:2.096774193548387 15:-1.5217391304347827 16:1.891891891891892 17:-2.4691358024691357 18:6.363636363636363 19:3.076923076923077 20:-0.4918032786885246 21:-2.9545454545454546 22:3.4959349593495936 23:0.2884615384615385 24:0.8333333333333333 25:-2.2950819672131146 26:-3.857142857142857 27:5.769230769230768 28:-1.2 29:2.0370370370370368 30:3.333333333333333 
-0.0 -0.0 -0.0 -0.0 -0.0 -0.0 -6.775713697663611E-5 -0.0 0.0 1:-3.829787234042553 2:0.15384615384615385 3:-0.9195402298850575 4:0.5109489051094891 5:0.6 6:4.0 7:2.5 8:2.5 9:-1.6326530612244896 10:2.064516129032258 11:0.6796116504854368 12:0.0 13:-11.666666666666668 14:1.935483870967742 15:-1.5217391304347827 16:1.891891891891892 17:-2.4691358024691357 18:6.363636363636363 19:2.884615384615384 20:-0.3278688524590164 21:-3.0681818181818183 22:3.414634146341464 23:0.2884615384615385 24:0.8333333333333333 25:-2.2950819672131146 26:-3.428571428571429 27:5.769230769230768 28:-1.3 29:1.9753086419753085 30:3.333333333333333 
-0.0 -0.0027064413951281316 -9.322725545127367E-4 -0.0 -0.0 -0.0 -0.0 -0.0 0.0 1:-3.829787234042553 2:0.15384615384615385 3:-1.0344827586206897 4:0.36496350364963503 5:0.2 6:4.0 7:3.75 8:2.692307692307692 9:-1.6326530612244896 10:2.064516129032258 11:0.6796116504854368 12:0.0 13:-25.416666666666664 14:2.096774193548387 15:-1.5217391304347827 16:1.891891891891892 17:-2.4691358024691357 18:7.272727272727273 19:3.076923076923077 20:-0.3278688524590164 21:-2.9545454545454546 22:3.4959349593495936 23:0.2884615384615385 24:0.8333333333333333 25:-2.1311475409836063 26:-3.7142857142857144 27:5.769230769230768 28:-1.2 29:2.0370370370370368 30:3.333333333333333 
-0.0 -0.0 -0.0 -0.0 -0.0 -0.0 -0.0 -0.0 0.002433765911726504 1:-3.829787234042553 2:0.0 3:-1.0344827586206897 4:0.36496350364963503 5:0.0 6:8.0 7:4.166666666666667 8:2.692307692307692 9:-1.6326530612244896 10:2.064516129032258 11:0.6796116504854368 12:0.0 13:-6.25 14:2.096774193548387 15:-1.5217391304347827 16:2.027027027027027 17:-2.4691358024691357 18:7.272727272727273 19:3.076923076923077 20:-0.3278688524590164 21:-2.9545454545454546 22:3.4959349593495936 23:0.38461538461538464 24:0.8333333333333333 25:-2.1311475409836063 26:-3.7142857142857144 27:5.769230769230768 28:-1.1 29:2.0370370370370368 30:3.333333333333333 
-0.0 -0.0 -0.0 -0.0027027502626565136 -0.0 -0.0 -0.0 -0.0 0.0 1:-3.829787234042553 2:0.0 3:-1.0344827586206897 4:0.36496350364963503 5:0.2 6:8.0 7:4.583333333333333 8:2.692307692307692 9:-1.6326530612244896 10:2.064516129032258 11:0.6796116504854368 12:0.0 13:-8.333333333333334 14:2.096774193548387 15:-1.5217391304347827 16:2.027027027027027 17:-2.4691358024691357 18:8.181818181818182 19:3.076923076923077 20:-0.3278688524590164 21:-2.9545454545454546 22:3.4959349593495936 23:0.38461538461538464 24:0.8333333333333333 25:-2.1311475409836063 26:-3.7142857142857144 27:5.769230769230768 28:-1.1 29:2.0370370370370368 30:3.333333333333333 
-0.0 -0.0 -0.0 -0.0 -0.0 -0.0 -0.0 -0.0 0.003979078405557017 1:-3.829787234042553 2:0.0 3:-1.0344827586206897 4:0.36496350364963503 5:0.2 6:8.0 7:4.166666666666667 8:2.692307692307692 9:-1.6326530612244896 10:2.064516129032258 11:0.6796116504854368 12:1.0 13:-30.416666666666664 14:2.096774193548387 15:-1.5217391304347827 16:2.1621621621621623 17:-2.4691358024691357 18:7.272727272727273 19:2.884615384615384 20:-0.3278688524590164 21:-2.9545454545454546 22:3.414634146341464 23:0.38461538461538464 24:0.8333333333333333 25:-2.1311475409836063 26:-3.5714285714285716 27:5.769230769230768 28:-1.2 29:2.0370370370370368 30:3.333333333333333 
-0.0 -0.0 -0.0 -0.0020031920410812274 -0.0 -0.0 -0.0 -0.0 0.0 1:-3.829787234042553 2:0.0 3:-1.0344827586206897 4:0.36496350364963503 5:0.4 6:8.0 7:4.166666666666667 8:2.692307692307692 9:-1.6326530612244896 10:2.064516129032258 11:0.6796116504854368 12:0.0 13:-30.416666666666664 14:2.4193548387096775 15:-1.5217391304347827 16:1.891891891891892 17:-2.4691358024691357 18:8.181818181818182 19:2.884615384615384 20:-0.3278688524590164 21:-2.9545454545454546 22:3.414634146341464 23:0.38461538461538464 24:0.8333333333333333 25:-2.1311475409836063 26:-3.5714285714285716 27:5.769230769230768 28:-1.2 29:2.0370370370370368 30:3.333333333333333 
-7.4185924232556E-4 -0.0 -0.0 -0.0 -0.0019246508124060625 -0.0 -0.0 -6.450072491797395E-4 0.0 1:-3.829787234042553 2:0.15384615384615385 3:-1.0344827586206897 4:0.36496350364963503 5:0.4 6:8.0 7:4.166666666666667 8:2.692307692307692 9:-1.6326530612244896 10:2.064516129032258 11:0.7766990291262135 12:0.0 13:-36.666666666666664 14:2.258064516129032 15:-1.5217391304347827 16:2.027027027027027 17:-2.4691358024691357 18:7.272727272727273 19:2.884615384615384 20:-0.1639344262295082 21:-2.9545454545454546 22:3.414634146341464 23:0.38461538461538464 24:0.8333333333333333 25:-2.1311475409836063 26:-3.5714285714285716 27:5.769230769230768 28:-1.2 29:2.0370370370370368 30:3.333333333333333 
-0.0 -0.0 -0.0 -0.0 -0.0 -0.0 -0.0 -0.0 -0.0018844567180954217 1:-0.851063829787234 2:-4.0 3:-2.7586206896551726 4:-3.0656934306569346 5:-1.7999999999999998 6:18.0 7:4.583333333333333 8:-5.576923076923077 9:-2.5170068027210886 10:-2.0 11:-1.0679611650485437 12:10.0 13:-22.083333333333336 14:1.6129032258064515 15:-1.4130434782608694 16:2.027027027027027 17:0.0 18:1.8181818181818183 19:2.5 20:0.3278688524590164 21:-0.6818181818181818 22:2.5203252032520322 23:1.6346153846153846 24:2.5 25:-1.1475409836065573 26:-2.714285714285714 27:6.4423076923076925 28:-0.2 29:2.5308641975308643 30:4.166666666666667 
-0.0 -3.6621584166967756E-4 -0.0 -0.0 -0.0 -0.0 -0.0 -0.0 -0.0 1:-3.829787234042553 2:-1.3846153846153846 3:-2.6436781609195403 4:-2.7007299270072993 5:-1.6 6:20.0 7:5.416666666666666 8:-4.038461538461538 9:-2.72108843537415 10:-1.7419354838709677 11:-0.8737864077669903 12:6.0 13:-26.25 14:-0.3225806451612903 15:-2.826086956521739 16:1.3513513513513513 17:-2.2222222222222223 18:-0.9090909090909092 19:1.5384615384615385 20:0.3278688524590164 21:-3.0681818181818183 22:2.2764227642276422 23:0.4807692307692308 24:-0.8333333333333333 25:-3.114754098360656 26:2.8571428571428568 27:5.1923076923076925 28:-1.5 29:1.8518518518518516 30:3.333333333333333 
-0.0 -0.0018650478638732404 -0.0012739201808858267 -0.0 -0.0 -0.0 -0.0 -0.0 -0.002017235318523475 1:-2.3404255319148937 2:-2.9230769230769234 3:-2.8735632183908044 4:-2.5547445255474455 5:-1.0 6:20.0 7:4.166666666666667 8:-3.6538461538461537 9:-2.653061224489796 10:-2.064516129032258 11:-0.8737864077669903 12:4.0 13:-24.583333333333336 14:-0.6451612903225806 15:-2.1739130434782608 16:2.2972972972972974 17:-2.839506172839506 18:-1.8181818181818183 19:1.9230769230769231 20:-2.9508196721311473 21:-4.318181818181818 22:3.7398373983739837 23:-0.2884615384615385 24:-0.8333333333333333 25:-1.9672131147540983 26:-5.428571428571428 27:3.75 28:-1.3 29:1.6049382716049383 30:1.6666666666666665 
-0.0 -0.0 -0.0 -0.0 -0.0 -1.9721835672243862E-4 -9.448028809591727E-4 -0.0 -0.0 1:-1.702127659574468 2:-3.076923076923077 3:-2.528735632183908 4:-2.5547445255474455 5:-1.0 6:22.0 7:4.166666666666667 8:-4.038461538461538 9:-2.4489795918367347 10:-2.258064516129032 11:-0.7766990291262135 12:5.0 13:-16.25 14:-0.16129032258064516 15:-2.1739130434782608 16:1.6216216216216217 17:-2.839506172839506 18:-1.8181818181818183 19:1.7307692307692308 20:-1.3114754098360657 21:-3.977272727272727 22:3.414634146341464 23:0.09615384615384616 24:-0.8333333333333333 25:-2.6229508196721314 26:-3.0 27:4.519230769230769 28:-1.4000000000000001 29:1.728395061728395 30:2.5 
-0.0 -0.0 -0.0 -0.0 -0.0 -4.2138751055806865E-4 -0.0 -0.0 -0.0 1:-1.9148936170212765 2:-2.4615384615384617 3:-1.839080459770115 4:-2.18978102189781 5:-1.2 6:22.0 7:4.166666666666667 8:-3.6538461538461537 9:-2.5170068027210886 10:-2.258064516129032 11:-0.7766990291262135 12:6.0 13:-11.25 14:0.16129032258064516 15:-2.1739130434782608 16:1.891891891891892 17:-1.8518518518518516 18:-0.9090909090909092 19:1.346153846153846 20:-0.3278688524590164 21:-2.6136363636363633 22:3.0894308943089435 23:0.8653846153846154 24:0.0 25:-2.9508196721311473 26:-0.2857142857142857 27:6.346153846153846 28:-0.5 29:2.1604938271604937 30:4.166666666666667 
-0.0 -0.0 -0.0 -0.0 -0.0 -8.194564814223437E-6 -0.0 -0.0 -0.0 1:-3.404255319148936 2:-3.384615384615385 3:-2.2988505747126435 4:-2.5547445255474455 5:-1.7999999999999998 6:22.0 7:7.083333333333334 8:-5.0 9:-2.312925170068027 10:-2.5806451612903225 11:-0.8737864077669903 12:3.0 13:-12.083333333333332 14:0.4838709677419355 15:-1.9565217391304348 16:2.027027027027027 17:-2.2222222222222223 18:-0.9090909090909092 19:1.9230769230769231 20:0.1639344262295082 21:-2.8409090909090913 22:3.0894308943089435 23:0.8653846153846154 24:0.0 25:-2.459016393442623 26:-2.0 27:5.673076923076923 28:0.0 29:2.0987654320987654 30:3.333333333333333 
-9.556312293502217E-4 -0.0 -0.0 -0.0 -0.0019319298258967626 -0.0 -0.0 -8.499054676913957E-4 -0.0 1:-3.404255319148936 2:-3.5384615384615388 3:-2.1839080459770117 4:-2.2627737226277373 5:-1.4000000000000001 6:22.0 7:7.5 8:-3.269230769230769 9:-2.5170068027210886 10:-3.225806451612903 11:-1.0679611650485437 12:3.0 13:-40.0 14:0.4838709677419355 15:-1.7391304347826086 16:2.8378378378378377 17:-1.2345679012345678 18:0.0 19:2.1153846153846154 20:-1.1475409836065573 21:-3.2954545454545454 22:4.471544715447155 23:0.7692307692307693 24:0.0 25:-1.8032786885245902 26:-5.285714285714286 27:5.0 28:-0.2 29:2.0370370370370368 30:2.5 
-0.0 -0.0 -0.0 -0.0 -0.0 -0.0 -0.0 -0.0 -5.403402035089259E-4 1:-4.042553191489361 2:-1.5384615384615385 3:-2.2988505747126435 4:-2.335766423357664 5:-1.7999999999999998 6:22.0 7:5.833333333333334 8:-1.9230769230769231 9:-2.7891156462585034 10:-2.903225806451613 11:-1.1650485436893203 12:3.0 13:-37.083333333333336 14:0.6451612903225806 15:-2.282608695652174 16:1.4864864864864866 17:-1.2345679012345678 18:0.0 19:1.346153846153846 20:0.8196721311475409 21:-2.3863636363636367 22:2.845528455284553 23:1.153846153846154 24:0.0 25:-1.8032786885245902 26:-3.428571428571429 27:5.0 28:-0.4 29:2.0370370370370368 30:2.5 
-0.0 -0.0 -0.0 -1.0878490236039103E-4 -0.0 -0.0 -0.0 -0.0 -0.0 1:-2.553191489361702 2:-4.0 3:-2.6436781609195403 4:-2.2627737226277373 5:-1.2 6:24.0 7:6.666666666666666 8:-3.269230769230769 9:-2.5170068027210886 10:-2.516129032258064 11:-1.0679611650485437 12:4.0 13:-17.5 14:0.3225806451612903 15:-1.8478260869565215 16:2.7027027027027026 17:-0.8641975308641975 18:0.9090909090909092 19:2.1153846153846154 20:-1.3114754098360657 21:-3.4090909090909087 22:4.5528455284552845 23:0.7692307692307693 24:0.0 25:-1.3114754098360657 26:-6.571428571428571 27:4.8076923076923075 28:-0.1 29:1.9753086419753085 30:2.5 
-0.0 -0.0 -0.0 -6.244771624223813E-4 -0.0 -0.0 -0.0 -0.0 -0.0 1:-1.702127659574468 2:-1.6923076923076925 3:-3.103448275862069 4:-2.2627737226277373 5:-0.8 6:24.0 7:5.0 8:-0.19230769230769232 9:-2.925170068027211 10:-2.129032258064516 11:-1.941747572815534 12:1.0 13:-28.75 14:0.0 15:-2.0652173913043477 16:2.5675675675675675 17:-0.8641975308641975 18:0.9090909090909092 19:1.153846153846154 20:-1.8032786885245902 21:-2.3863636363636367 22:4.634146341463415 23:1.442307692307692 24:0.8333333333333333 25:-2.7868852459016393 26:-4.428571428571429 27:5.961538461538462 28:0.6 29:2.2222222222222223 30:4.166666666666667 
-0.0 -0.0 -0.0 -0.0029370950842754857 -0.0 -0.0 -0.0 -0.0 -0.0 1:-2.553191489361702 2:-2.6153846153846154 3:-2.1839080459770117 4:-2.4817518248175183 5:-1.7999999999999998 6:22.0 7:5.833333333333334 8:-2.692307692307692 9:-2.5170068027210886 10:-2.5806451612903225 11:-1.0679611650485437 12:2.0 13:-18.333333333333332 14:0.6451612903225806 15:-1.9565217391304348 16:2.5675675675675675 17:-0.7407407407407407 18:0.9090909090909092 19:2.1153846153846154 20:-0.3278688524590164 21:-2.8409090909090913 22:3.983739837398374 23:1.0576923076923077 24:0.0 25:-0.8196721311475409 26:-5.285714285714286 27:5.673076923076923 28:0.8 29:2.2839506172839505 30:3.333333333333333 
-0.0 -0.0 -0.0 -0.0 -0.0 -0.0 -0.0 -0.0 -0.0013873650446228176 1:-4.042553191489361 2:-1.3846153846153846 3:-1.6091954022988506 4:-1.5328467153284673 5:-0.6 6:24.0 7:6.666666666666666 8:0.19230769230769232 9:-2.9931972789115644 10:-1.935483870967742 11:-1.553398058252427 12:1.0 13:-11.25 14:0.967741935483871 15:-1.7391304347826086 16:2.4324324324324325 17:-0.49382716049382713 18:0.9090909090909092 19:1.153846153846154 20:1.1475409836065573 21:-0.6818181818181818 22:2.2764227642276422 23:1.346153846153846 24:1.6666666666666665 25:-2.6229508196721314 26:-1.7142857142857144 27:7.6923076923076925 28:0.4 29:2.716049382716049 30:5.0 
-0.0 -0.0 -0.0 -0.001437836936016546 -0.0 -0.0 -0.0 -0.0 -2.5524703441286864E-5 1:-4.042553191489361 2:-1.5384615384615385 3:-1.6091954022988506 4:-1.6058394160583942 5:-0.4 6:24.0 7:5.833333333333334 8:0.38461538461538464 9:-2.9931972789115644 10:-2.258064516129032 11:-2.0388349514563107 12:2.0 13:-15.833333333333332 14:0.16129032258064516 15:-1.6304347826086958 16:2.8378378378378377 17:-0.12345679012345678 18:1.8181818181818183 19:2.1153846153846154 20:-1.6393442622950818 21:-0.11363636363636365 22:2.0325203252032518 23:1.7307692307692308 24:3.333333333333333 25:-2.9508196721311473 26:-3.428571428571429 27:7.211538461538462 28:0.1 29:2.6543209876543212 30:5.0 
-0.0 -0.0 -0.0 -2.226292609480937E-4 -0.0 -0.0 -0.0 -0.0 -0.0 1:-2.978723404255319 2:-2.769230769230769 3:-2.1839080459770117 4:-2.116788321167883 5:-1.4000000000000001 6:24.0 7:7.083333333333334 8:-2.5 9:-2.5850340136054424 10:-2.838709677419355 11:-1.3592233009708736 12:3.0 13:-4.166666666666667 14:0.4838709677419355 15:-1.9565217391304348 16:2.2972972972972974 17:-1.4814814814814814 18:0.0 19:2.307692307692308 20:-0.3278688524590164 21:-3.0681818181818183 22:4.0650406504065035 23:0.9615384615384616 24:0.0 25:-1.1475409836065573 26:-4.857142857142857 27:5.288461538461538 28:0.2 29:2.0987654320987654 30:3.333333333333333 
-0.0 -0.0 -0.0 -0.0 -0.0 -7.579963967833202E-4 -0.0 -0.0 -0.0 1:-1.276595744680851 2:-2.4615384615384617 3:-1.839080459770115 4:-1.7518248175182483 5:-0.8 6:24.0 7:1.6666666666666665 8:-1.7307692307692308 9:-2.653061224489796 10:-2.709677419354839 11:-1.262135922330097 12:3.0 13:-5.0 14:0.3225806451612903 15:-1.7391304347826086 16:2.5675675675675675 17:-1.3580246913580245 18:0.0 19:1.9230769230769231 20:-1.4754098360655736 21:-2.9545454545454546 22:4.5528455284552845 23:0.8653846153846154 24:0.0 25:-2.7868852459016393 26:-3.7142857142857144 27:6.25 28:-0.7000000000000001 29:2.1604938271604937 30:4.166666666666667 
-0.0 -0.0 -0.0 -0.0 -0.0 -0.0 -0.0 -0.0 -5.579223290915927E-4 1:-2.553191489361702 2:-1.8461538461538463 3:-0.8045977011494253 4:-0.7299270072992701 5:0.0 6:24.0 7:2.0833333333333335 8:-1.346153846153846 9:-2.5170068027210886 10:-1.2903225806451613 11:-1.650485436893204 12:2.0 13:-14.166666666666668 14:0.3225806451612903 15:-1.5217391304347827 16:2.9729729729729732 17:0.12345679012345678 18:1.8181818181818183 19:1.346153846153846 20:-0.8196721311475409 21:-1.25 22:3.1707317073170733 23:1.5384615384615385 24:2.5 25:-2.7868852459016393 26:-1.8571428571428572 27:6.538461538461538 28:-1.3 29:2.4074074074074074 30:5.0 
