svm_type c_svc
kernel_type linear
nr_class 10
total_sv 116
rho 0.007328137153409094 1.0881605997071697 -1.3408875554194124 -0.6920576343954724 -1.1443060167537598 -0.5067718296251182 -0.038746297425811954 -1.2137701599217432 -1.2818381499102682 0.13294378332521814 -2.01858724268761 -0.9606547618661875 -0.707841859722101 -1.6000410175803153 -0.5581714063648763 -2.6451828160443434 -2.294947684278521 -1.219487194069231 -0.7912870230876118 -1.344529315397653 -1.1490255839579513 -1.0371147864873966 -1.143823158821954 -1.114576806679227 0.5874899566534441 1.436225743648189 -0.44300188942300517 0.28231256931792725 1.0424672901935108 2.0312334379335297 1.261763202943543 -1.5253516673535994 -0.18750430232017287 -0.6207735549218972 -0.5364222582079701 -1.080272882882315 -0.3408777878497376 -1.5194225966262351 -1.2932115564816742 0.4637020041898462 0.6287131178954786 0.6242666850781571 -0.006316524451885551 -0.0994022229953097 -2.70808993148272
label 5 4 3 2 6 9 8 7 0 1
nr_sv 13 15 16 5 8 18 2 3 19 17
SV
0.0 0.006602695828821432 0.0 0.0 0.0 0.0 4.188389162904058E-4 0.0 0.0 1:8.656716417910447 2:8.085106382978722 3:10.757575757575758 4:8.703703703703704 5:49.0 6:6.5168539325842705 7:5.632183908045977 8:3.708609271523179 9:6.428571428571429 10:-1.2371134020618557 11:11.25 12:-1.7857142857142858 13:11.764705882352942 14:3.015873015873016 15:6.736111111111112 16:5.09433962264151 17:12.352941176470589 18:0.9803921568627451 19:3.7681159420289854 20:0.27210884353741494 21:4.193548387096774 22:0.8 23:-13.333333333333332 24:6.071428571428571 25:5.939849624060151 26:2.150537634408602 27:3.5616438356164384 28:6.283783783783784 29:0.0 
0.0 0.0 0.0 0.0 0.0 0.0 6.448221406023495E-4 0.0 0.0 1:8.507462686567164 2:8.51063829787234 3:7.272727272727273 4:4.722222222222222 5:24.0 6:6.741573033707865 7:6.551724137931034 8:4.23841059602649 9:6.558441558441559 10:2.783505154639175 11:-3.75 12:3.75 13:11.764705882352942 14:2.46031746031746 15:6.736111111111112 16:5.377358490566038 17:5.882352941176471 18:8.823529411764707 19:4.057971014492754 20:0.7482993197278911 21:4.086021505376344 22:-1.0666666666666667 23:-8.88888888888889 24:0.7142857142857142 25:3.533834586466165 26:2.258064516129032 27:1.2328767123287672 28:5.675675675675675 29:-2.5 
0.0 0.0 0.0 0.0 0.0010321189471267482 0.0 0.0 0.0 0.0 1:8.208955223880597 2:8.085106382978722 3:8.03030303030303 4:5.555555555555555 5:35.0 6:5.50561797752809 7:5.747126436781609 8:5.430463576158941 9:6.2987012987013 10:0.0 11:23.75 12:1.25 13:11.647058823529413 14:4.0476190476190474 15:6.805555555555555 16:6.320754716981131 17:25.88235294117647 18:5.098039215686274 19:3.6231884057971016 20:3.265306122448979 21:4.301075268817204 22:6.2666666666666675 23:-12.222222222222223 24:6.071428571428571 25:5.56390977443609 26:3.655913978494624 27:4.10958904109589 28:6.621621621621622 29:1.25 
0.0 0.0 0.0 0.0 1.8675003702875798E-4 0.0 0.0 0.0 0.0 1:8.059701492537313 2:8.297872340425531 3:7.878787878787879 4:5.648148148148148 5:70.0 6:5.842696629213483 7:5.977011494252874 8:4.23841059602649 9:6.688311688311687 10:2.783505154639175 11:51.25 12:3.3928571428571432 13:11.764705882352942 14:3.015873015873016 15:6.388888888888888 16:6.60377358490566 17:28.23529411764706 18:8.235294117647058 19:3.9130434782608696 20:0.5442176870748299 21:2.6881720430107525 22:3.5999999999999996 23:-10.0 24:9.732142857142858 25:4.360902255639098 26:1.3978494623655913 27:0.273972602739726 28:4.72972972972973 29:0.0 
0.0 0.0 0.0 0.0 0.0 0.0 0.0015587673330214348 0.0 0.0 1:8.208955223880597 2:8.297872340425531 3:7.878787878787879 4:5.277777777777778 5:64.0 6:6.067415730337079 7:5.862068965517241 8:2.781456953642384 9:6.623376623376624 10:0.20618556701030927 11:-38.75 12:3.0357142857142856 13:11.764705882352942 14:1.9047619047619047 15:6.25 16:5.188679245283019 17:4.705882352941177 18:7.450980392156863 19:3.4782608695652173 20:-0.34013605442176875 21:4.301075268817204 22:-2.4 23:-15.555555555555555 24:9.017857142857142 25:3.6842105263157894 26:0.860215053763441 27:-2.054794520547945 28:4.256756756756756 29:-1.25 
0.0 0.0 0.0 0.0 0.0 0.0 7.085514054705832E-4 0.0 0.0 1:6.7164179104477615 2:6.595744680851063 3:7.272727272727273 4:3.5185185185185186 5:50.0 6:1.797752808988764 7:4.942528735632184 8:3.5099337748344372 9:6.4935064935064934 10:0.20618556701030927 11:-20.0 12:-2.142857142857143 13:11.294117647058822 14:2.3015873015873014 15:6.319444444444445 16:5.660377358490566 17:8.823529411764707 18:3.7254901960784315 19:2.898550724637681 20:-0.34013605442176875 21:3.655913978494624 22:-2.0 23:-12.222222222222223 24:4.375 25:3.458646616541353 26:0.21505376344086025 27:-2.73972602739726 28:4.391891891891892 29:-1.25 
0.0 0.0 0.0 9.890551929525966E-4 0.0 0.0 0.0 0.0 0.0 1:7.462686567164179 2:7.872340425531915 3:7.727272727272727 4:5.370370370370371 5:15.0 6:7.865168539325843 7:6.781609195402298 8:4.900662251655629 9:6.883116883116883 10:4.123711340206185 11:-6.25 12:3.5714285714285716 13:12.470588235294118 14:3.6507936507936507 15:7.013888888888888 16:6.132075471698113 17:6.470588235294118 18:8.235294117647058 19:4.492753623188406 20:2.380952380952381 21:4.516129032258064 22:3.466666666666667 23:-8.88888888888889 24:6.875 25:3.9097744360902253 26:2.4731182795698925 27:1.095890410958904 28:5.608108108108109 29:0.0 
0.004567818266716699 0.007675807216825443 0.0018456661175483397 0.0 0.0037091676156595097 0.0 0.0029472293502443825 0.002372070368647802 0.0024272290383890115 1:7.611940298507463 2:7.872340425531915 3:7.878787878787879 4:5.370370370370371 5:14.0 6:7.865168539325843 7:6.781609195402298 8:5.033112582781457 9:6.948051948051948 10:4.22680412371134 11:-7.5 12:3.5714285714285716 13:12.470588235294118 14:3.7301587301587302 15:7.083333333333334 16:6.132075471698113 17:6.470588235294118 18:8.235294117647058 19:4.3478260869565215 20:2.72108843537415 21:4.516129032258064 22:3.333333333333333 23:-7.777777777777778 24:6.3392857142857135 25:3.9097744360902253 26:2.4731182795698925 27:1.095890410958904 28:5.675675675675675 29:0.0 
0.0 0.0 0.0 0.0015703965970993924 6.554032007416584E-4 3.426682899900388E-4 0.0 0.0 0.0 1:8.805970149253731 2:8.72340425531915 3:7.727272727272727 4:4.907407407407407 5:13.0 6:7.865168539325843 7:7.35632183908046 8:4.635761589403973 9:6.948051948051948 10:2.268041237113402 11:-6.25 12:3.3928571428571432 13:12.0 14:3.492063492063492 15:7.222222222222222 16:5.283018867924528 17:6.470588235294118 18:8.03921568627451 19:3.6231884057971016 20:2.653061224489796 21:3.978494623655914 22:2.8000000000000003 23:-11.11111111111111 24:2.0535714285714284 25:3.7593984962406015 26:2.258064516129032 27:1.7808219178082192 28:5.878378378378378 29:-1.25 
0.0 0.0 4.233686847405726E-4 0.0 0.0 0.0 0.0 8.488367391583669E-5 7.920363815495364E-5 1:7.462686567164179 2:7.23404255319149 3:7.424242424242424 4:6.574074074074074 5:32.0 6:6.2921348314606735 7:6.206896551724138 8:4.304635761589404 9:5.974025974025974 10:-1.7525773195876289 11:47.5 12:3.5714285714285716 13:12.117647058823529 14:3.015873015873016 15:6.180555555555555 16:5.471698113207547 17:64.11764705882354 18:9.411764705882353 19:4.202898550724638 20:0.7482993197278911 21:3.655913978494624 22:0.6666666666666666 23:-14.444444444444445 24:5.803571428571429 25:6.015037593984962 26:4.731182795698925 27:4.931506849315069 28:7.094594594594595 29:1.25 
0.0 0.0 0.0 0.0 0.0 0.0 0.0 1.0475152357158096E-4 0.0 1:8.507462686567164 2:8.297872340425531 3:7.424242424242424 4:4.0740740740740735 5:42.0 6:5.730337078651685 7:5.517241379310345 8:4.8344370860927155 9:5.3896103896103895 10:0.10309278350515463 11:70.0 12:1.7857142857142858 13:12.0 14:3.5714285714285716 15:6.180555555555555 16:5.660377358490566 17:68.82352941176471 18:6.470588235294118 19:3.9130434782608696 20:1.0204081632653061 21:3.978494623655914 22:1.6 23:-20.0 24:7.053571428571429 25:6.390977443609023 26:4.408602150537634 27:4.520547945205479 28:6.95945945945946 29:2.5 
0.0 0.0 0.0 7.002858552174337E-5 0.0 0.0 0.0 0.0 0.0 1:10.895522388059701 2:7.446808510638298 3:7.121212121212121 4:5.370370370370371 5:44.0 6:5.280898876404494 7:5.287356321839081 8:3.9072847682119205 9:5.454545454545454 10:-2.783505154639175 11:72.5 12:1.7857142857142858 13:11.647058823529413 14:2.46031746031746 15:5.972222222222222 16:4.150943396226415 17:70.58823529411765 18:5.490196078431373 19:3.1884057971014492 20:-0.27210884353741494 21:3.978494623655914 22:-2.1333333333333333 23:-31.11111111111111 24:7.946428571428571 25:3.7593984962406015 26:0.5376344086021505 27:-0.410958904109589 28:4.72972972972973 29:-3.75 
0.0 0.0 0.0 0.0 0.0 2.8000424543267384E-4 0.0 0.0 0.0 1:7.910447761194029 2:7.0212765957446805 3:7.121212121212121 4:2.962962962962963 5:53.0 6:1.348314606741573 7:4.597701149425287 8:4.304635761589404 9:5.844155844155844 10:-2.0618556701030926 11:75.0 12:-1.0714285714285714 13:11.176470588235293 14:2.142857142857143 15:6.25 16:4.811320754716981 17:60.588235294117645 18:1.3725490196078431 19:2.753623188405797 20:-0.47619047619047616 21:4.408602150537634 22:-1.7333333333333334 23:-23.333333333333336 24:3.3035714285714284 25:3.233082706766917 26:0.5376344086021505 27:-1.36986301369863 28:4.527027027027027 29:-6.25 
-0.001564438476716745 0.0 0.0 0.0 0.0 0.0 0.0 0.0 0.0 1:8.656716417910447 2:8.297872340425531 3:9.848484848484848 4:8.518518518518519 5:-2.0 6:8.089887640449438 7:6.8965517241379315 8:5.827814569536423 9:6.428571428571429 10:5.773195876288659 11:-8.75 12:3.2142857142857144 13:10.705882352941176 14:4.285714285714286 15:5.138888888888888 16:8.49056603773585 17:7.058823529411765 18:1.9607843137254901 19:3.0434782608695654 20:5.1020408163265305 21:1.5053763440860215 22:7.6 23:-4.444444444444445 24:12.857142857142858 25:2.8571428571428568 26:4.408602150537634 27:6.575342465753424 28:7.635135135135135 29:5.0 
-0.0 0.0 0.0 0.0 0.0 0.0 4.641242490045332E-4 0.0 0.0 1:8.656716417910447 2:8.297872340425531 3:9.848484848484848 4:8.61111111111111 5:-2.0 6:8.202247191011235 7:6.8965517241379315 8:5.894039735099338 9:6.428571428571429 10:5.773195876288659 11:-8.75 12:3.2142857142857144 13:10.705882352941176 14:4.285714285714286 15:5.138888888888888 16:8.49056603773585 17:7.058823529411765 18:1.7647058823529413 19:3.0434782608695654 20:5.1020408163265305 21:1.5053763440860215 22:7.466666666666667 23:-4.444444444444445 24:12.857142857142858 25:2.8571428571428568 26:4.408602150537634 27:6.438356164383562 28:7.635135135135135 29:5.0 
-0.0 0.0 5.325452294086847E-4 0.0 0.0 0.0 0.0 0.0 5.291039243144956E-4 1:8.656716417910447 2:8.72340425531915 3:10.0 4:8.703703703703704 5:-3.0 6:7.97752808988764 7:6.8965517241379315 8:5.894039735099338 9:6.558441558441559 10:5.979381443298969 11:-7.5 12:3.3928571428571432 13:10.705882352941176 14:4.444444444444445 15:5.277777777777778 16:8.679245283018869 17:7.058823529411765 18:1.1764705882352942 19:3.333333333333333 20:5.5102040816326525 21:2.043010752688172 22:7.6 23:-4.444444444444445 24:13.75 25:1.5789473684210527 26:12.580645161290322 27:12.465753424657535 28:10.54054054054054 29:8.75 
-0.0 0.0 1.5862711033180218E-4 0.0 0.0 0.0 0.0 0.0 0.0 1:7.910447761194029 2:8.297872340425531 3:10.303030303030303 4:8.796296296296296 5:-2.0 6:8.314606741573034 7:7.011494252873564 8:6.0927152317880795 9:6.558441558441559 10:5.876288659793815 11:-6.25 12:3.3928571428571432 13:10.941176470588236 14:4.444444444444445 15:5.416666666666666 16:8.584905660377359 17:7.058823529411765 18:2.1568627450980395 19:3.333333333333333 20:5.374149659863946 21:2.043010752688172 22:7.6 23:-4.444444444444445 24:12.589285714285714 25:2.481203007518797 26:7.419354838709678 27:7.123287671232877 28:8.445945945945946 29:6.25 
-0.0 0.0 0.0026814166820587635 0.0 0.0 0.0 0.0 0.006348810857865334 0.0032277442234582582 1:7.014925373134329 2:8.297872340425531 3:10.606060606060606 4:9.351851851851853 5:2.0 6:8.539325842696629 7:7.471264367816092 8:6.357615894039736 9:7.077922077922078 10:5.773195876288659 11:6.25 12:3.75 13:11.411764705882351 14:5.0 15:5.625 16:8.679245283018869 17:7.058823529411765 18:4.705882352941177 19:3.4782608695652173 20:5.7142857142857135 21:2.4731182795698925 22:7.733333333333333 23:-4.444444444444445 24:13.035714285714286 25:2.556390977443609 26:6.451612903225806 27:6.986301369863014 28:8.31081081081081 29:5.0 
-0.0 0.0032626511189212523 0.0 0.0 0.0 0.0 0.0 0.0 0.0 1:7.014925373134329 2:7.446808510638298 3:9.09090909090909 4:8.148148148148147 5:1.0 6:8.089887640449438 7:7.011494252873564 8:6.026490066225165 9:6.8181818181818175 10:5.773195876288659 11:2.5 12:1.9642857142857142 13:10.0 14:4.761904761904762 15:5.763888888888888 16:8.584905660377359 17:6.470588235294118 18:1.5686274509803921 19:3.333333333333333 20:5.986394557823129 21:2.3655913978494625 22:7.733333333333333 23:-4.444444444444445 24:11.785714285714286 25:2.556390977443609 26:6.451612903225806 27:6.301369863013698 28:8.175675675675675 29:5.0 
-0.003003379789999953 0.0021981542727931252 0.0 0.0 0.0 0.0 7.405673293694472E-4 0.0 0.0 1:7.164179104477611 2:7.446808510638298 3:9.393939393939394 4:8.425925925925926 5:1.0 6:8.089887640449438 7:7.126436781609195 8:6.026490066225165 9:6.883116883116883 10:5.773195876288659 11:0.0 12:2.3214285714285716 13:10.0 14:4.841269841269841 15:5.972222222222222 16:8.584905660377359 17:6.470588235294118 18:1.9607843137254901 19:3.333333333333333 20:5.986394557823129 21:2.4731182795698925 22:7.733333333333333 23:-4.444444444444445 24:11.875 25:2.556390977443609 26:6.451612903225806 27:6.301369863013698 28:8.175675675675675 29:5.0 
-0.0 0.0 0.0 0.0 8.00503272157878E-5 0.0 0.0 0.0 0.0014715873480641204 1:7.910447761194029 2:8.72340425531915 3:10.757575757575758 4:9.25925925925926 5:0.0 6:8.314606741573034 7:7.011494252873564 8:6.158940397350994 9:6.8181818181818175 10:5.6701030927835046 11:0.0 12:3.0357142857142856 13:9.882352941176471 14:4.92063492063492 15:6.736111111111112 16:8.584905660377359 17:6.470588235294118 18:2.7450980392156863 19:3.4782608695652173 20:6.190476190476191 21:2.903225806451613 22:7.866666666666666 23:-4.444444444444445 24:12.232142857142858 25:2.8571428571428568 26:6.451612903225806 27:6.164383561643836 28:8.108108108108109 29:5.0 
-0.0 0.0 0.0 0.0 0.006273566673945803 0.0 0.0 0.0 0.0 1:7.910447761194029 2:8.936170212765957 3:10.909090909090908 4:9.25925925925926 5:0.0 6:8.42696629213483 7:7.011494252873564 8:6.0927152317880795 9:6.688311688311687 10:5.56701030927835 11:6.25 12:3.0357142857142856 13:9.882352941176471 14:5.0 15:6.736111111111112 16:8.584905660377359 17:6.470588235294118 18:2.7450980392156863 19:3.333333333333333 20:6.190476190476191 21:2.903225806451613 22:7.866666666666666 23:-4.444444444444445 24:12.232142857142858 25:2.8571428571428568 26:6.451612903225806 27:6.301369863013698 28:8.108108108108109 29:5.0 
-0.0 0.0 0.0 0.00464721419672126 0.0 0.0 0.0 0.0 0.0 1:8.35820895522388 2:9.361702127659575 3:10.151515151515152 4:8.148148148148147 5:-4.0 6:8.314606741573034 7:7.011494252873564 8:5.894039735099338 9:6.623376623376624 10:5.463917525773195 11:22.5 12:3.0357142857142856 13:9.882352941176471 14:4.92063492063492 15:6.388888888888888 16:8.584905660377359 17:6.470588235294118 18:2.549019607843137 19:3.333333333333333 20:6.258503401360544 21:2.7956989247311825 22:7.733333333333333 23:-4.444444444444445 24:12.767857142857142 25:2.706766917293233 26:6.344086021505376 27:6.438356164383562 28:8.175675675675675 29:5.0 
-0.0 0.0 0.0 0.0 0.0 9.392271384640522E-4 0.0 0.0 0.0 1:7.014925373134329 2:8.72340425531915 3:9.545454545454547 4:6.944444444444445 5:-7.0 6:8.539325842696629 7:6.781609195402298 8:6.291390728476821 9:6.233766233766234 10:5.463917525773195 11:26.25 12:2.142857142857143 13:9.294117647058824 14:4.92063492063492 15:5.833333333333334 16:8.679245283018869 17:6.470588235294118 18:0.19607843137254902 19:3.0434782608695654 20:6.462585034013606 21:2.4731182795698925 22:7.6 23:-4.444444444444445 24:12.678571428571427 25:2.8571428571428568 26:6.451612903225806 27:6.575342465753424 28:8.175675675675675 29:5.0 
-0.0 0.0 0.0 0.0 0.0 0.0 0.0 1.2110083266457241E-4 0.0 1:8.059701492537313 2:9.148936170212766 3:9.696969696969697 4:7.4074074074074066 5:-4.0 6:7.97752808988764 7:6.781609195402298 8:6.026490066225165 9:6.4935064935064934 10:5.360824742268041 11:18.75 12:2.5 13:9.647058823529411 14:4.841269841269841 15:6.111111111111112 16:8.773584905660378 17:6.470588235294118 18:0.7843137254901961 19:3.333333333333333 20:6.326530612244898 21:2.6881720430107525 22:7.733333333333333 23:-4.444444444444445 24:12.232142857142858 25:2.781954887218045 26:11.0752688172043 27:11.095890410958905 28:9.932432432432432 29:7.5 
-0.0 0.0 0.0 2.0576165813879273E-4 0.0 0.0 0.0 0.0 0.0 1:8.208955223880597 2:9.361702127659575 3:9.696969696969697 4:7.222222222222222 5:-1.0 6:7.640449438202247 7:6.551724137931034 8:5.894039735099338 9:6.558441558441559 10:5.154639175257731 11:6.25 12:2.8571428571428568 13:8.823529411764707 14:5.0 15:6.25 16:8.773584905660378 17:6.470588235294118 18:3.5294117647058827 19:3.9130434782608696 20:6.258503401360544 21:2.903225806451613 22:7.6 23:-5.555555555555555 24:13.660714285714286 25:2.406015037593985 26:6.989247311827958 27:7.260273972602739 28:8.445945945945946 29:5.0 
-0.0 0.0 0.0 0.0 3.299167434180232E-4 0.0 0.0 0.0 0.0 1:7.313432835820896 2:9.148936170212766 3:9.848484848484848 4:7.222222222222222 5:-2.0 6:7.640449438202247 7:6.436781609195402 8:5.960264900662252 9:6.558441558441559 10:5.051546391752577 11:8.75 12:2.6785714285714284 13:8.823529411764707 14:4.92063492063492 15:6.25 16:8.773584905660378 17:6.470588235294118 18:3.1372549019607843 19:3.6231884057971016 20:6.190476190476191 21:3.118279569892473 22:7.6 23:-4.444444444444445 24:11.696428571428573 25:3.308270676691729 26:7.741935483870968 27:8.082191780821917 28:8.64864864864865 29:5.0 
-0.0 0.0 0.0 0.0 0.0 0.0 0.0 1.6728578599269688E-4 6.168847835958841E-5 1:7.313432835820896 2:8.936170212765957 3:9.848484848484848 4:7.222222222222222 5:-2.0 6:7.752808988764045 7:6.436781609195402 8:5.894039735099338 9:6.558441558441559 10:5.051546391752577 11:8.75 12:2.5 13:8.705882352941178 14:5.0 15:6.111111111111112 16:8.773584905660378 17:6.470588235294118 18:2.9411764705882355 19:3.7681159420289854 20:6.258503401360544 21:3.010752688172043 22:7.6 23:-4.444444444444445 24:12.053571428571427 25:3.233082706766917 26:9.032258064516128 27:9.178082191780822 28:9.121621621621621 29:5.0 
-0.0019354071454687441 -0.0 0.0 0.0 0.0 0.0 0.0 0.0 0.0 1:6.567164179104478 2:7.23404255319149 3:9.696969696969697 4:9.537037037037038 5:36.0 6:7.3033707865168545 7:5.977011494252874 8:4.437086092715232 9:5.7142857142857135 10:1.6494845360824741 11:-3.75 12:-0.5357142857142857 13:9.529411764705882 14:3.412698412698413 15:3.611111111111111 16:7.6415094339622645 17:7.058823529411765 18:-1.5686274509803921 19:1.1594202898550725 20:2.0408163265306123 21:1.3978494623655913 22:5.2 23:-11.11111111111111 24:6.517857142857143 25:2.0300751879699246 26:-4.301075268817204 27:-0.410958904109589 28:3.2432432432432434 29:0.0 
-0.0 -0.0 0.0 0.0 0.0 0.0 3.929798986770207E-4 0.0 0.0 1:7.164179104477611 2:7.659574468085106 3:10.303030303030303 4:9.907407407407407 5:33.0 6:6.966292134831461 7:5.977011494252874 8:5.1655629139072845 9:5.7142857142857135 10:1.7525773195876289 11:-7.5 12:-3.0357142857142856 13:9.411764705882353 14:3.7301587301587302 15:3.4027777777777777 16:7.924528301886793 17:7.058823529411765 18:-3.333333333333333 19:1.4492753623188406 20:2.2448979591836733 21:1.3978494623655913 22:5.466666666666667 23:-7.777777777777778 24:6.25 25:2.1052631578947367 26:-3.440860215053764 27:-0.273972602739726 28:3.716216216216216 29:0.0 
-0.0 -0.0 0.0 0.0 0.0 0.0 0.005394253808264348 0.0 0.0 1:7.611940298507463 2:8.085106382978722 3:10.454545454545453 4:10.0 5:29.0 6:7.640449438202247 7:6.0919540229885065 8:4.768211920529801 9:5.779220779220779 10:1.958762886597938 11:-6.25 12:0.0 13:9.647058823529411 14:3.8095238095238093 15:3.680555555555556 16:7.924528301886793 17:6.470588235294118 18:-1.5686274509803921 19:1.4492753623188406 20:2.2448979591836733 21:1.5053763440860215 22:5.466666666666667 23:-10.0 24:6.607142857142857 25:2.1052631578947367 26:-4.086021505376344 27:0.0 28:3.4459459459459456 29:-1.25 
-0.0 -0.0 0.0 0.0 0.0 1.924769178624823E-5 0.0 0.0 0.0 1:8.507462686567164 2:7.872340425531915 3:10.151515151515152 4:9.722222222222221 5:38.0 6:6.966292134831461 7:5.977011494252874 8:5.298013245033113 9:5.909090909090909 10:1.6494845360824741 11:17.5 12:-1.9642857142857142 13:10.0 14:3.8095238095238093 15:3.958333333333333 16:7.830188679245284 17:6.470588235294118 18:-0.9803921568627451 19:1.5942028985507246 20:2.312925170068027 21:1.827956989247312 22:5.466666666666667 23:-10.0 24:6.7857142857142865 25:2.406015037593985 26:-3.333333333333333 27:0.273972602739726 28:3.783783783783784 29:0.0 
-0.006712834922678926 -0.0 0.0 0.0 0.0 0.0 0.0 0.0 0.0 1:8.35820895522388 2:8.085106382978722 3:10.303030303030303 4:9.907407407407407 5:35.0 6:6.966292134831461 7:5.977011494252874 8:4.768211920529801 9:5.844155844155844 10:1.7525773195876289 11:6.25 12:-1.0714285714285714 13:9.76470588235294 14:3.888888888888889 15:3.958333333333333 16:7.830188679245284 17:6.470588235294118 18:-0.7843137254901961 19:1.5942028985507246 20:2.4489795918367347 21:1.720430107526882 22:5.466666666666667 23:-10.0 24:6.607142857142857 25:2.406015037593985 26:-3.225806451612903 27:0.273972602739726 28:3.783783783783784 29:0.0 
-0.0 -0.0 6.418733177406817E-4 0.0 0.0 0.0 0.0 0.0 0.0 1:8.507462686567164 2:8.72340425531915 3:11.212121212121211 4:10.462962962962962 5:13.0 6:7.528089887640449 7:6.551724137931034 8:4.966887417218543 9:6.038961038961039 10:2.5773195876288657 11:-2.5 12:1.0714285714285714 13:10.117647058823529 14:4.1269841269841265 15:4.791666666666667 16:7.830188679245284 17:6.470588235294118 18:-0.5882352941176471 19:2.028985507246377 20:2.5170068027210886 21:1.827956989247312 22:5.733333333333333 23:-6.666666666666666 24:7.321428571428571 25:2.631578947368421 26:-1.935483870967742 27:0.273972602739726 28:4.256756756756756 29:0.0 
-0.0031319477052147767 -0.0 0.0 0.0 0.0 0.0 0.0 0.0 0.0 1:7.910447761194029 2:8.297872340425531 3:10.757575757575758 4:10.185185185185187 5:20.0 6:7.640449438202247 7:6.32183908045977 8:4.768211920529801 9:5.974025974025974 10:2.3711340206185567 11:-3.75 12:0.5357142857142857 13:10.117647058823529 14:4.0476190476190474 15:4.513888888888889 16:7.735849056603774 17:6.470588235294118 18:-0.39215686274509803 19:2.028985507246377 20:2.380952380952381 21:1.827956989247312 22:5.733333333333333 23:-10.0 24:6.7857142857142865 25:2.556390977443609 26:-2.7956989247311825 27:0.273972602739726 28:3.8513513513513513 29:-1.25 
-0.0 -0.0 0.0 0.0 0.0 5.653194843193321E-4 0.0 0.0 0.0 1:7.014925373134329 2:8.085106382978722 3:10.606060606060606 4:9.907407407407407 5:19.0 6:7.97752808988764 7:6.206896551724138 8:4.900662251655629 9:5.974025974025974 10:2.1649484536082477 11:10.0 12:0.0 13:10.235294117647058 14:4.0476190476190474 15:4.444444444444445 16:7.830188679245284 17:6.470588235294118 18:-1.9607843137254901 19:2.1739130434782608 20:2.312925170068027 21:1.935483870967742 22:5.733333333333333 23:-10.0 24:6.875 25:2.556390977443609 26:-2.258064516129032 27:0.273972602739726 28:4.054054054054054 29:-1.25 
-0.0024983132722844296 -0.0 0.0 0.0 0.0 0.0 0.0 0.0 0.0 1:8.507462686567164 2:8.297872340425531 3:11.060606060606059 4:10.555555555555555 5:19.0 6:7.640449438202247 7:6.436781609195402 8:4.966887417218543 9:6.038961038961039 10:3.1958762886597936 11:2.5 12:0.17857142857142855 13:9.76470588235294 14:4.444444444444445 15:4.652777777777778 16:7.924528301886793 17:6.470588235294118 18:-0.19607843137254902 19:2.1739130434782608 20:2.9931972789115644 21:1.935483870967742 22:5.866666666666667 23:-7.777777777777778 24:7.321428571428571 25:2.8571428571428568 26:-1.2903225806451613 27:0.547945205479452 28:4.527027027027027 29:0.0 
-0.0 -0.0 0.0 0.0 7.296093553206008E-6 0.0 0.0 0.0 0.0 1:8.507462686567164 2:8.72340425531915 3:11.060606060606059 4:10.462962962962962 5:17.0 6:7.3033707865168545 7:6.551724137931034 8:5.1655629139072845 9:6.103896103896104 10:3.4020618556701034 11:2.5 12:0.5357142857142857 13:9.882352941176471 14:4.444444444444445 15:4.930555555555555 16:7.924528301886793 17:5.882352941176471 18:-0.7843137254901961 19:2.318840579710145 20:2.9931972789115644 21:1.935483870967742 22:6.0 23:-6.666666666666666 24:7.321428571428571 25:2.8571428571428568 26:-0.967741935483871 27:0.410958904109589 28:4.662162162162162 29:0.0 
-0.0 -0.0 0.0 0.0 0.0032166789105981604 0.0 0.0 0.0 0.0 1:8.35820895522388 2:8.72340425531915 3:11.060606060606059 4:10.462962962962962 5:17.0 6:7.528089887640449 7:6.436781609195402 8:5.231788079470199 9:6.038961038961039 10:3.2989690721649483 11:3.75 12:0.5357142857142857 13:9.882352941176471 14:4.444444444444445 15:4.791666666666667 16:7.924528301886793 17:5.882352941176471 18:-1.1764705882352942 19:2.318840579710145 20:2.925170068027211 21:2.043010752688172 22:5.866666666666667 23:-6.666666666666666 24:7.142857142857143 25:2.781954887218045 26:-0.860215053763441 27:0.410958904109589 28:4.662162162162162 29:0.0 
-0.0 -0.0 0.0 0.0 0.0016998252045253954 0.0 0.0 0.0 0.0 1:8.208955223880597 2:8.72340425531915 3:11.060606060606059 4:10.462962962962962 5:15.0 6:7.640449438202247 7:6.436781609195402 8:5.298013245033113 9:6.038961038961039 10:3.2989690721649483 11:2.5 12:0.5357142857142857 13:9.76470588235294 14:4.444444444444445 15:4.791666666666667 16:7.924528301886793 17:5.882352941176471 18:-1.5686274509803921 19:2.318840579710145 20:2.8571428571428568 21:2.043010752688172 22:5.866666666666667 23:-7.777777777777778 24:7.142857142857143 25:2.781954887218045 26:-0.860215053763441 27:0.410958904109589 28:4.662162162162162 29:0.0 
-0.0 -0.0013416090292464025 0.0 0.0 0.0 0.0 0.0 0.0 0.0 1:7.7611940298507465 2:8.72340425531915 3:11.212121212121211 4:10.555555555555555 5:14.0 6:7.528089887640449 7:6.436781609195402 8:5.562913907284768 9:5.974025974025974 10:3.2989690721649483 11:0.0 12:0.5357142857142857 13:9.882352941176471 14:4.444444444444445 15:5.0 16:8.018867924528303 17:5.882352941176471 18:-2.9411764705882355 19:2.608695652173913 20:2.925170068027211 21:1.935483870967742 22:6.0 23:-6.666666666666666 24:7.232142857142857 25:2.706766917293233 26:-0.21505376344086025 27:0.410958904109589 28:4.864864864864865 29:0.0 
-0.0 -0.0 9.334783451407692E-4 0.0 0.0 0.0 0.0 0.0022654037243738647 0.002014327530786711 1:8.35820895522388 2:8.72340425531915 3:11.060606060606059 4:10.555555555555555 5:14.0 6:7.528089887640449 7:6.551724137931034 8:5.1655629139072845 9:6.103896103896104 10:3.2989690721649483 11:1.25 12:0.7142857142857142 13:9.882352941176471 14:4.444444444444445 15:4.861111111111111 16:7.924528301886793 17:6.470588235294118 18:-1.1764705882352942 19:2.318840579710145 20:2.925170068027211 21:1.935483870967742 22:6.0 23:-6.666666666666666 24:7.321428571428571 25:2.8571428571428568 26:-0.967741935483871 27:0.410958904109589 28:4.662162162162162 29:0.0 
-0.0 -0.004119196362467974 0.0 0.0 0.0 0.0 0.0 0.0 0.0 1:8.507462686567164 2:8.51063829787234 3:11.060606060606059 4:10.555555555555555 5:14.0 6:7.528089887640449 7:6.551724137931034 8:5.099337748344372 9:6.103896103896104 10:3.2989690721649483 11:1.25 12:0.5357142857142857 13:9.882352941176471 14:4.444444444444445 15:4.791666666666667 16:7.924528301886793 17:6.470588235294118 18:-0.9803921568627451 19:2.318840579710145 20:2.9931972789115644 21:1.935483870967742 22:5.866666666666667 23:-6.666666666666666 24:7.321428571428571 25:2.932330827067669 26:-0.967741935483871 27:0.410958904109589 28:4.662162162162162 29:0.0 
-0.0 -0.0 0.0 0.0026173217904179825 0.0 0.0 0.0 0.0 0.0 1:8.35820895522388 2:8.297872340425531 3:11.212121212121211 4:10.648148148148149 5:14.0 6:7.640449438202247 7:6.436781609195402 8:5.099337748344372 9:6.103896103896104 10:3.2989690721649483 11:2.5 12:0.17857142857142855 13:9.882352941176471 14:4.523809523809524 15:4.722222222222222 16:7.924528301886793 17:6.470588235294118 18:-0.7843137254901961 19:2.318840579710145 20:3.0612244897959187 21:1.935483870967742 22:5.866666666666667 23:-7.777777777777778 24:7.321428571428571 25:2.932330827067669 26:-1.075268817204301 27:0.547945205479452 28:4.594594594594595 29:0.0 
-3.0596913821837247E-4 -0.0026210862821566304 -5.816903484770577E-4 4.6549456917751913E-4 0.0015197649838189678 0.0 0.0 0.007745985765028621 0.0 1:7.014925373134329 2:14.042553191489361 3:10.454545454545453 4:10.277777777777777 5:2.0 6:6.404494382022472 7:15.862068965517242 8:6.225165562913907 9:9.025974025974026 10:7.010309278350515 11:0.0 12:12.5 13:12.352941176470589 14:5.9523809523809526 15:8.26388888888889 16:8.49056603773585 17:16.470588235294116 18:13.529411764705884 19:7.391304347826086 20:8.027210884353742 21:7.204301075268818 22:9.200000000000001 23:6.666666666666666 24:12.142857142857142 25:7.819548872180451 26:9.56989247311828 27:9.178082191780822 28:9.45945945945946 29:3.75 
-0.0 -0.0 -0.0 0.0 0.0 0.0 0.0 9.467621956743772E-4 0.008606325396862563 1:7.014925373134329 2:15.53191489361702 3:12.575757575757576 4:11.944444444444445 5:3.0 6:7.3033707865168545 7:14.597701149425289 8:6.490066225165563 9:9.74025974025974 10:7.422680412371134 11:-2.5 12:11.428571428571427 13:13.176470588235293 14:6.349206349206349 15:8.819444444444445 16:8.773584905660378 17:15.88235294117647 18:13.92156862745098 19:7.391304347826086 20:8.843537414965986 21:8.817204301075268 22:9.866666666666667 23:6.666666666666666 24:12.142857142857142 25:7.593984962406015 26:10.43010752688172 27:9.452054794520548 28:9.797297297297296 29:3.75 
-1.4419776148822313E-4 -0.0 -4.6605244935965756E-4 0.0 0.0 0.0 7.830146802882201E-4 0.0 0.0 1:7.014925373134329 2:15.74468085106383 3:12.727272727272727 4:11.944444444444445 5:4.0 6:7.3033707865168545 7:14.367816091954023 8:6.556291390728477 9:9.74025974025974 10:7.422680412371134 11:-2.5 12:10.892857142857142 13:13.176470588235293 14:6.507936507936508 15:8.819444444444445 16:8.773584905660378 17:16.470588235294116 18:14.11764705882353 19:7.101449275362319 20:8.775510204081632 21:8.924731182795698 22:9.733333333333334 23:6.666666666666666 24:12.232142857142858 25:7.293233082706767 26:10.43010752688172 27:9.315068493150685 28:9.797297297297296 29:3.75 
-0.0 -0.0 -0.0 0.0 0.0 0.0 2.8397845308250744E-5 0.0 0.0 1:7.164179104477611 2:12.340425531914894 3:9.09090909090909 4:8.518518518518519 5:0.0 6:8.42696629213483 7:11.379310344827587 8:7.086092715231787 9:9.415584415584416 10:7.216494845360825 11:0.0 12:11.071428571428573 13:11.882352941176471 14:6.428571428571429 15:8.541666666666666 16:8.11320754716981 17:30.588235294117645 18:11.96078431372549 19:5.942028985507246 20:8.435374149659864 21:8.172043010752688 22:8.8 23:-1.1111111111111112 24:12.857142857142858 25:6.917293233082706 26:8.064516129032258 27:7.671232876712328 28:8.445945945945946 29:-1.25 
-0.0018188679025823169 -7.515027396426198E-4 -5.276088650447358E-4 0.0012536023642432626 0.001191341298638013 3.441713541413894E-4 0.0 0.0 0.0 1:7.164179104477611 2:12.553191489361701 3:9.09090909090909 4:8.518518518518519 5:0.0 6:8.651685393258427 7:10.919540229885058 8:7.152317880794702 9:9.48051948051948 10:7.319587628865979 11:1.25 12:10.892857142857142 13:11.647058823529413 14:6.587301587301587 15:8.75 16:8.11320754716981 17:28.23529411764706 18:11.96078431372549 19:5.797101449275362 20:8.639455782312925 21:8.494623655913978 22:9.066666666666666 23:0.0 24:12.857142857142858 25:6.616541353383458 26:8.279569892473118 27:7.945205479452055 28:8.445945945945946 29:0.0 
-0.0 -0.0014152435113953552 -0.0 -0.0 0.0 0.0 0.0 0.0 0.0 1:9.701492537313433 2:8.936170212765957 3:7.272727272727273 4:4.537037037037037 5:0.0 6:6.741573033707865 7:11.379310344827587 8:7.218543046357616 9:8.311688311688313 10:10.618556701030927 11:37.5 12:-2.8571428571428568 13:10.941176470588236 14:8.571428571428571 15:8.75 16:9.433962264150944 17:5.294117647058823 18:9.215686274509803 19:8.26086956521739 20:7.687074829931973 21:6.666666666666666 22:6.4 23:-11.11111111111111 24:10.446428571428573 25:3.308270676691729 26:3.655913978494624 27:2.191780821917808 28:5.54054054054054 29:-5.0 
-0.0 -0.0 -0.0 -0.0 0.0 6.996407675589121E-4 0.0 0.0 0.0 1:9.552238805970148 2:8.72340425531915 3:7.272727272727273 4:4.537037037037037 5:0.0 6:6.741573033707865 7:11.494252873563218 8:7.218543046357616 9:8.311688311688313 10:10.618556701030927 11:38.75 12:-2.8571428571428568 13:10.941176470588236 14:8.571428571428571 15:8.75 16:9.433962264150944 17:5.294117647058823 18:9.215686274509803 19:8.405797101449275 20:7.687074829931973 21:6.666666666666666 22:6.4 23:-12.222222222222223 24:10.446428571428573 25:3.308270676691729 26:3.655913978494624 27:2.191780821917808 28:5.54054054054054 29:-5.0 
-0.0 -0.0 -0.0 -0.0 0.0 6.905248180071207E-4 0.0 0.0 0.0 1:9.552238805970148 2:8.936170212765957 3:7.272727272727273 4:4.537037037037037 5:-1.0 6:6.741573033707865 7:11.379310344827587 8:7.218543046357616 9:8.376623376623376 10:10.515463917525773 11:38.75 12:-2.8571428571428568 13:10.823529411764705 14:8.571428571428571 15:8.75 16:9.433962264150944 17:5.294117647058823 18:9.215686274509803 19:8.405797101449275 20:7.687074829931973 21:6.559139784946236 22:6.4 23:-12.222222222222223 24:10.357142857142858 25:3.308270676691729 26:3.548387096774194 27:2.191780821917808 28:5.54054054054054 29:-5.0 
-0.0026294803755737327 -0.0 -0.0022449998382800397 -0.0 0.0 0.0 9.607041278100301E-4 0.0 0.0 1:9.402985074626866 2:9.148936170212766 3:7.424242424242424 4:4.351851851851852 5:-1.0 6:7.191011235955056 7:12.413793103448276 8:7.417218543046358 9:8.766233766233766 10:7.731958762886598 11:8.75 12:-1.0714285714285714 13:12.705882352941176 14:7.5396825396825395 15:8.88888888888889 16:8.773584905660378 17:-0.5882352941176471 18:9.215686274509803 19:8.840579710144928 20:7.142857142857143 21:6.236559139784946 22:6.2666666666666675 23:-13.333333333333332 24:10.714285714285714 25:3.3834586466165413 26:2.5806451612903225 27:2.054794520547945 28:5.608108108108109 29:-7.5 
-0.0 -0.0 -0.0 -0.001636740236109876 0.0 0.0 0.0 0.001421051077405938 9.228538803383513E-4 1:9.552238805970148 2:9.148936170212766 3:7.424242424242424 4:4.537037037037037 5:-1.0 6:6.853932584269663 7:11.494252873563218 8:7.483443708609272 9:8.7012987012987 10:9.79381443298969 11:17.5 12:-0.17857142857142855 13:10.0 14:8.492063492063492 15:9.097222222222221 16:9.622641509433961 17:7.647058823529411 18:9.215686274509803 19:8.55072463768116 20:7.482993197278912 21:6.559139784946236 22:6.4 23:-12.222222222222223 24:10.625 25:3.458646616541353 26:3.010752688172043 27:2.328767123287671 28:5.8108108108108105 29:-7.5 
-0.0 -0.0032742536769983835 -3.7232195213794266E-4 -0.0 0.0 0.0 0.0 0.0 0.0 1:8.507462686567164 2:10.212765957446807 3:7.121212121212121 4:4.814814814814815 5:-1.0 6:8.089887640449438 7:8.620689655172413 8:8.145695364238412 9:9.48051948051948 10:9.381443298969073 11:17.5 12:4.107142857142857 13:9.76470588235294 14:8.015873015873016 15:8.819444444444445 16:9.433962264150944 17:5.294117647058823 18:7.450980392156863 19:7.971014492753623 20:7.619047619047619 21:6.559139784946236 22:6.800000000000001 23:-14.444444444444445 24:10.446428571428573 25:3.3834586466165413 26:3.225806451612903 27:2.4657534246575343 28:6.013513513513513 29:-7.5 
-0.0 -0.0 -0.0 -8.235669731090578E-5 0.008843464070662319 0.0 0.0 0.0015092619833414014 0.0015806299955973121 1:7.910447761194029 2:11.27659574468085 3:7.878787878787879 4:4.907407407407407 5:-2.0 6:8.651685393258427 7:8.620689655172413 8:8.145695364238412 9:9.48051948051948 10:8.762886597938145 11:12.5 12:6.071428571428571 13:9.529411764705882 14:7.857142857142857 15:9.166666666666666 16:9.339622641509434 17:0.0 18:7.8431372549019605 19:7.391304347826086 20:7.687074829931973 21:6.666666666666666 22:7.199999999999999 23:-14.444444444444445 24:9.107142857142858 25:3.3834586466165413 26:4.301075268817204 27:3.013698630136986 28:6.418918918918919 29:-8.75 
-0.0 -1.6347866646631326E-4 -0.0 -0.0 0.0 0.0 0.0 0.0 0.0 1:8.35820895522388 2:11.063829787234043 3:7.727272727272727 4:5.0925925925925934 5:-2.0 6:8.42696629213483 7:8.620689655172413 8:8.013245033112582 9:9.415584415584416 10:8.659793814432991 11:12.5 12:5.7142857142857135 13:9.529411764705882 14:7.936507936507936 15:9.027777777777779 16:9.339622641509434 17:0.0 18:7.8431372549019605 19:7.246376811594203 20:7.687074829931973 21:6.666666666666666 22:7.066666666666666 23:-14.444444444444445 24:9.642857142857142 25:3.3834586466165413 26:4.193548387096774 27:2.8767123287671232 28:6.486486486486487 29:-8.75 
-0.0 -0.0 -0.0 -0.0 -0.004659280528057363 0.0 0.0 0.0 0.0 1:6.268656716417911 2:10.0 3:9.848484848484848 4:8.425925925925926 5:-9.0 6:6.067415730337079 7:8.160919540229886 8:7.880794701986755 9:8.7012987012987 10:9.278350515463918 11:7.5 12:10.357142857142858 13:5.76470588235294 14:8.015873015873016 15:9.930555555555555 16:9.245283018867925 17:4.705882352941177 18:3.7254901960784315 19:4.782608695652174 20:7.006802721088436 21:4.623655913978494 22:7.066666666666666 23:-11.11111111111111 24:4.910714285714286 25:3.007518796992481 26:10.75268817204301 27:1.2328767123287672 28:8.58108108108108 29:-5.0 
-0.0 -0.0 -0.0 -0.0 -0.0 4.1668641239209144E-4 0.0 0.0 0.0 1:3.8805970149253732 2:10.212765957446807 3:9.696969696969697 4:7.962962962962963 5:-8.0 6:6.179775280898876 7:7.931034482758621 8:7.880794701986755 9:8.636363636363637 10:9.587628865979381 11:8.75 12:10.0 13:6.235294117647059 14:7.936507936507936 15:10.0 16:9.245283018867925 17:5.294117647058823 18:3.1372549019607843 19:4.782608695652174 20:7.4149659863945585 21:4.623655913978494 22:7.199999999999999 23:-10.0 24:4.732142857142857 25:3.007518796992481 26:10.96774193548387 27:1.36986301369863 28:8.716216216216216 29:-5.0 
-0.0 -0.002294229433129331 -0.0 -0.0 -0.0 0.0 0.0 0.0 0.0 1:5.671641791044776 2:10.425531914893618 3:10.0 4:8.61111111111111 5:-8.0 6:6.2921348314606735 7:7.931034482758621 8:7.814569536423841 9:8.766233766233766 10:9.278350515463918 11:8.75 12:9.464285714285714 13:6.352941176470588 14:8.015873015873016 15:10.069444444444445 16:9.245283018867925 17:7.058823529411765 18:3.5294117647058827 19:4.782608695652174 20:7.755102040816326 21:5.053763440860215 22:7.466666666666667 23:-7.777777777777778 24:5.625 25:3.1578947368421053 26:10.64516129032258 27:1.36986301369863 28:8.58108108108108 29:-5.0 
-0.0 -0.0 -0.0 -8.196572922952178E-4 -0.0 0.0 0.0 0.0 4.586635845849732E-4 1:5.522388059701493 2:10.425531914893618 3:10.151515151515152 4:8.703703703703704 5:-8.0 6:6.404494382022472 7:8.045977011494253 8:7.880794701986755 9:8.831168831168831 10:9.278350515463918 11:7.5 12:9.464285714285714 13:6.235294117647059 14:8.095238095238095 15:10.13888888888889 16:9.433962264150944 17:7.647058823529411 18:3.5294117647058827 19:4.782608695652174 20:7.755102040816326 21:5.161290322580645 22:7.466666666666667 23:-7.777777777777778 24:5.625 25:3.1578947368421053 26:10.64516129032258 27:1.36986301369863 28:8.58108108108108 29:-5.0 
-0.0 -0.0 -0.0 -0.0 -0.0 0.0 0.0 8.793201089966829E-4 0.0 1:5.522388059701493 2:10.425531914893618 3:10.151515151515152 4:8.703703703703704 5:-8.0 6:6.404494382022472 7:8.045977011494253 8:7.880794701986755 9:8.831168831168831 10:9.278350515463918 11:7.5 12:9.464285714285714 13:6.235294117647059 14:8.174603174603174 15:10.208333333333332 16:9.433962264150944 17:7.647058823529411 18:3.5294117647058827 19:4.782608695652174 20:7.755102040816326 21:5.161290322580645 22:7.466666666666667 23:-7.777777777777778 24:5.625 25:3.1578947368421053 26:10.64516129032258 27:1.36986301369863 28:8.58108108108108 29:-5.0 
-0.0 -0.0 -0.0 -0.0 -9.257471526550902E-4 0.0 0.0 0.0 0.0 1:7.313432835820896 2:9.574468085106384 3:9.393939393939394 4:7.777777777777778 5:13.0 6:6.067415730337079 7:7.816091954022989 8:7.682119205298013 9:8.896103896103897 10:8.762886597938145 11:6.25 12:9.821428571428571 13:5.176470588235294 14:7.936507936507936 15:9.86111111111111 16:9.245283018867925 17:5.294117647058823 18:3.7254901960784315 19:4.492753623188406 20:7.074829931972789 21:4.623655913978494 22:7.199999999999999 23:-10.0 24:5.267857142857143 25:3.233082706766917 26:9.67741935483871 27:1.095890410958904 28:8.175675675675675 29:-6.25 
-0.0 -0.0 -0.0 -0.0 -0.0032584363899498684 0.0 0.0 0.0 0.0 1:7.164179104477611 2:10.425531914893618 3:10.0 4:9.074074074074074 5:4.0 6:6.5168539325842705 7:7.931034482758621 8:7.682119205298013 9:8.831168831168831 10:8.762886597938145 11:7.5 12:9.285714285714286 13:6.235294117647059 14:7.857142857142857 15:9.930555555555555 16:9.245283018867925 17:5.882352941176471 18:3.7254901960784315 19:4.9275362318840585 20:7.4149659863945585 21:4.946236559139785 22:7.333333333333333 23:-8.88888888888889 24:5.7142857142857135 25:3.3834586466165413 26:9.78494623655914 27:1.2328767123287672 28:8.243243243243244 29:-5.0 
-0.0 -0.0 -0.0 -0.0 -0.0 1.572101986969457E-4 0.0 0.0 0.0 1:8.208955223880597 2:10.425531914893618 3:10.0 4:8.88888888888889 5:10.0 6:5.955056179775281 7:7.701149425287356 8:7.6158940397351 9:8.571428571428571 10:8.8659793814433 11:7.5 12:9.464285714285714 13:6.11764705882353 14:7.936507936507936 15:9.930555555555555 16:9.245283018867925 17:5.882352941176471 18:3.9215686274509802 19:4.9275362318840585 20:7.482993197278912 21:4.946236559139785 22:7.333333333333333 23:-8.88888888888889 24:5.5357142857142865 25:3.3834586466165413 26:10.10752688172043 27:1.2328767123287672 28:8.31081081081081 29:-5.0 
-0.0 -0.0 -9.305640946802732E-4 -0.0 -0.0 0.0 0.0015333950666813914 0.0 0.0 1:7.611940298507463 2:9.361702127659575 3:9.696969696969697 4:8.61111111111111 5:18.0 6:5.842696629213483 7:7.701149425287356 8:7.682119205298013 9:8.571428571428571 10:8.8659793814433 11:6.25 12:9.464285714285714 13:5.294117647058823 14:8.015873015873016 15:9.791666666666666 16:9.339622641509434 17:5.294117647058823 18:3.9215686274509802 19:4.492753623188406 20:7.142857142857143 21:4.838709677419355 22:7.066666666666666 23:-10.0 24:5.7142857142857135 25:3.3834586466165413 26:9.354838709677418 27:1.2328767123287672 28:8.04054054054054 29:-5.0 
-0.005583439800556674 -0.0 -0.0 -0.0 -0.0 0.0 5.543778369062353E-4 0.0 0.0 1:8.208955223880597 2:10.212765957446807 3:10.0 4:8.703703703703704 5:17.0 6:6.067415730337079 7:7.586206896551724 8:7.549668874172185 9:8.636363636363637 10:8.762886597938145 11:5.0 12:9.464285714285714 13:6.11764705882353 14:7.936507936507936 15:9.930555555555555 16:9.245283018867925 17:6.470588235294118 18:4.117647058823529 19:4.782608695652174 20:7.482993197278912 21:4.731182795698925 22:7.333333333333333 23:-8.88888888888889 24:5.446428571428571 25:3.3834586466165413 26:9.89247311827957 27:1.095890410958904 28:8.243243243243244 29:-5.0 
-0.0 -0.0 -7.712695255826499E-4 -0.0 -0.0 0.0 0.0 0.0 0.0 1:7.910447761194029 2:10.212765957446807 3:10.0 4:8.703703703703704 5:16.0 6:6.2921348314606735 7:7.701149425287356 8:7.6158940397351 9:8.766233766233766 10:8.659793814432991 11:5.0 12:9.285714285714286 13:6.11764705882353 14:7.936507936507936 15:9.930555555555555 16:9.245283018867925 17:6.470588235294118 18:3.9215686274509802 19:4.782608695652174 20:7.482993197278912 21:4.731182795698925 22:7.333333333333333 23:-8.88888888888889 24:5.446428571428571 25:3.3834586466165413 26:9.78494623655914 27:1.095890410958904 28:8.175675675675675 29:-5.0 
-0.0 -0.0 -0.002835633338472196 -0.0 -0.0 0.0 0.0 0.0 0.0 1:6.865671641791044 2:10.212765957446807 3:10.0 4:8.88888888888889 5:15.0 6:6.5168539325842705 7:7.701149425287356 8:7.682119205298013 9:8.896103896103897 10:8.762886597938145 11:5.0 12:9.107142857142858 13:6.470588235294118 14:7.857142857142857 15:9.930555555555555 16:9.245283018867925 17:6.470588235294118 18:3.5294117647058827 19:4.9275362318840585 20:7.687074829931973 21:4.838709677419355 22:7.333333333333333 23:-8.88888888888889 24:5.5357142857142865 25:3.3834586466165413 26:9.89247311827957 27:1.095890410958904 28:8.175675675675675 29:-5.0 
-0.0 -0.0013670667481491573 -0.0 -0.0 -0.0 0.0 0.0 0.0 0.0 1:8.35820895522388 2:10.212765957446807 3:10.151515151515152 4:9.166666666666666 5:6.0 6:6.404494382022472 7:7.701149425287356 8:7.549668874172185 9:8.7012987012987 10:8.8659793814433 11:6.25 12:9.107142857142858 13:6.352941176470588 14:7.936507936507936 15:10.0 16:9.245283018867925 17:5.882352941176471 18:3.9215686274509802 19:4.782608695652174 20:7.551020408163264 21:4.946236559139785 22:7.466666666666667 23:-7.777777777777778 24:5.892857142857143 25:3.3834586466165413 26:9.78494623655914 27:1.2328767123287672 28:8.175675675675675 29:-5.0 
-0.0 -8.76759432055383E-4 -0.0 -0.0 -0.0 0.0 0.0 0.0 0.0 1:8.507462686567164 2:10.212765957446807 3:10.151515151515152 4:9.166666666666666 5:5.0 6:6.2921348314606735 7:7.701149425287356 8:7.549668874172185 9:8.766233766233766 10:8.8659793814433 11:5.0 12:9.107142857142858 13:6.235294117647059 14:7.936507936507936 15:10.0 16:9.245283018867925 17:6.470588235294118 18:3.9215686274509802 19:4.782608695652174 20:7.482993197278912 21:4.946236559139785 22:7.466666666666667 23:-7.777777777777778 24:5.803571428571429 25:3.3834586466165413 26:9.78494623655914 27:1.2328767123287672 28:8.243243243243244 29:-5.0 
-0.0 -0.0 -0.0 -0.0018914489901617631 -0.0 0.0 0.0 8.678652113929188E-4 0.0034207581687465843 1:8.059701492537313 2:10.212765957446807 3:10.151515151515152 4:9.166666666666666 5:5.0 6:6.404494382022472 7:7.816091954022989 8:7.6158940397351 9:8.766233766233766 10:8.8659793814433 11:5.0 12:9.107142857142858 13:6.352941176470588 14:7.936507936507936 15:10.0 16:9.245283018867925 17:6.470588235294118 18:3.9215686274509802 19:4.9275362318840585 20:7.551020408163264 21:4.946236559139785 22:7.333333333333333 23:-7.777777777777778 24:5.803571428571429 25:3.3834586466165413 26:9.89247311827957 27:1.2328767123287672 28:8.243243243243244 29:-5.0 
-0.0 -0.002145478131245744 -0.0 -0.0 -0.0 0.0 0.0 0.0 0.0 1:7.910447761194029 2:10.212765957446807 3:10.151515151515152 4:9.166666666666666 5:5.0 6:6.404494382022472 7:7.816091954022989 8:7.6158940397351 9:8.831168831168831 10:8.8659793814433 11:5.0 12:9.107142857142858 13:6.470588235294118 14:7.857142857142857 15:10.0 16:9.245283018867925 17:5.882352941176471 18:3.9215686274509802 19:4.9275362318840585 20:7.551020408163264 21:4.838709677419355 22:7.333333333333333 23:-7.777777777777778 24:5.803571428571429 25:3.3834586466165413 26:9.89247311827957 27:1.2328767123287672 28:8.243243243243244 29:-5.0 
-0.0 -0.0 -0.0 -0.0 -0.0 0.0 0.0 0.003461848829962327 0.0 1:8.955223880597016 2:10.0 3:10.151515151515152 4:9.166666666666666 5:7.0 6:6.067415730337079 7:7.586206896551724 8:7.549668874172185 9:8.636363636363637 10:8.762886597938145 11:6.25 12:9.285714285714286 13:6.235294117647059 14:7.936507936507936 15:10.0 16:9.245283018867925 17:6.470588235294118 18:4.313725490196079 19:4.782608695652174 20:7.482993197278912 21:4.946236559139785 22:7.333333333333333 23:-7.777777777777778 24:5.7142857142857135 25:3.458646616541353 26:10.0 27:1.095890410958904 28:8.31081081081081 29:-5.0 
-0.0 -0.0 -3.86333249941643E-4 -0.0 -0.0 0.0 0.0 0.0 0.0 1:7.910447761194029 2:9.787234042553191 3:10.0 4:9.166666666666666 5:11.0 6:5.955056179775281 7:7.701149425287356 8:7.549668874172185 9:8.7012987012987 10:8.762886597938145 11:5.0 12:9.285714285714286 13:6.11764705882353 14:7.936507936507936 15:9.930555555555555 16:9.245283018867925 17:5.882352941176471 18:4.117647058823529 19:4.9275362318840585 20:7.619047619047619 21:4.838709677419355 22:7.466666666666667 23:-7.777777777777778 24:5.7142857142857135 25:3.3834586466165413 26:9.46236559139785 27:0.958904109589041 28:8.175675675675675 29:-5.0 
-6.171351634867349E-4 -9.392271384640522E-4 -5.845671761055805E-4 -3.441713541413894E-4 -0.0013901655855660328 -5.738966110890372E-4 2.898317963462096E-4 4.7499720423998886E-4 4.1092799100684045E-4 1:7.313432835820896 2:8.72340425531915 3:9.848484848484848 4:9.907407407407407 5:1.0 6:6.629213483146067 7:8.735632183908047 8:8.940397350993377 9:7.337662337662337 10:10.309278350515463 11:61.25 12:2.8571428571428568 13:5.176470588235294 14:3.333333333333333 15:6.875 16:6.60377358490566 17:4.705882352941177 18:-14.509803921568627 19:2.608695652173913 20:3.673469387755102 21:0.967741935483871 22:5.733333333333333 23:-21.11111111111111 24:4.285714285714286 25:2.556390977443609 26:2.7956989247311825 27:-0.958904109589041 28:4.256756756756756 29:-5.0 
-5.537371935977678E-6 -0.0 -0.0 -0.0 -0.0 -0.0 0.0 0.0 0.0 1:7.313432835820896 2:9.148936170212766 3:10.0 4:10.185185185185187 5:1.0 6:5.730337078651685 7:8.160919540229886 8:9.470198675496688 9:6.883116883116883 10:10.515463917525773 11:67.5 12:1.9642857142857142 13:4.9411764705882355 14:3.333333333333333 15:7.083333333333334 16:6.132075471698113 17:11.176470588235293 18:-10.784313725490195 19:2.4637681159420293 20:4.013605442176871 21:0.860215053763441 22:5.6000000000000005 23:-30.0 24:5.178571428571429 25:2.706766917293233 26:3.118279569892473 27:-0.547945205479452 28:4.054054054054054 29:-6.25 
-0.0023955733130404245 -0.0 -0.0 -0.0 -0.0 -0.0 -0.0 0.0 0.0 1:10.0 2:10.212765957446807 3:11.96969696969697 4:12.12962962962963 5:35.0 6:3.9325842696629216 7:5.747126436781609 8:4.23841059602649 9:2.5324675324675323 10:2.3711340206185567 11:-20.0 12:3.3928571428571432 13:4.9411764705882355 14:3.412698412698413 15:6.25 16:6.320754716981131 17:0.0 18:0.7843137254901961 19:3.4782608695652173 20:0.34013605442176875 21:2.3655913978494625 22:-1.8666666666666667 23:-6.666666666666666 24:9.910714285714286 25:3.007518796992481 26:3.763440860215054 27:-4.2465753424657535 28:4.527027027027027 29:-6.25 
-0.0015114919187838216 -0.0 -0.005787233706941368 -8.114125255964709E-4 -0.0 -0.0020877729035876265 -2.898317963462096E-4 8.92468859128365E-4 9.04126695947553E-4 1:10.0 2:10.0 3:11.96969696969697 4:12.12962962962963 5:32.0 6:4.044943820224719 7:5.862068965517241 8:4.437086092715232 9:2.3376623376623376 10:2.4742268041237114 11:-11.25 12:3.5714285714285716 13:5.0588235294117645 14:3.492063492063492 15:6.319444444444445 16:6.320754716981131 17:3.5294117647058827 18:0.7843137254901961 19:3.4782608695652173 20:0.4081632653061224 21:2.3655913978494625 22:-1.8666666666666667 23:-7.777777777777778 24:10.0 25:2.932330827067669 26:3.548387096774194 27:-4.2465753424657535 28:4.45945945945946 29:-8.75 
-0.0023711439138049085 -0.0012046915783739804 -0.0 -0.0 -9.607041278100301E-4 -0.0 -0.0 0.0 0.0 1:10.0 2:10.0 3:11.96969696969697 4:12.12962962962963 5:31.0 6:4.044943820224719 7:5.862068965517241 8:4.503311258278146 9:2.3376623376623376 10:2.5773195876288657 11:-12.5 12:3.3928571428571432 13:5.0588235294117645 14:3.5714285714285716 15:6.319444444444445 16:6.320754716981131 17:2.3529411764705883 18:0.9803921568627451 19:3.4782608695652173 20:0.34013605442176875 21:2.3655913978494625 22:-1.8666666666666667 23:-10.0 24:10.0 25:2.8571428571428568 26:3.440860215053764 27:-4.2465753424657535 28:4.391891891891892 29:-8.75 
-0.0 -0.0 -0.0 -0.0 -0.0 -0.0 -0.0 -0.0 0.020312513826897548 1:9.552238805970148 2:9.574468085106384 3:10.151515151515152 4:10.185185185185187 5:4.0 6:8.539325842696629 7:8.620689655172413 8:8.940397350993377 9:9.675324675324676 10:8.556701030927835 11:6.25 12:9.285714285714286 13:10.705882352941176 14:8.730158730158731 15:9.652777777777779 16:9.716981132075471 17:8.235294117647058 18:9.411764705882353 19:8.695652173913043 20:9.727891156462585 21:9.56989247311828 22:10.0 23:3.333333333333333 24:9.910714285714286 25:9.774436090225564 26:9.46236559139785 27:9.452054794520548 28:9.797297297297296 29:2.5 
-0.0 -0.0 -0.0 -0.0 -0.0 -2.9833452907896687E-4 -0.0 -0.0 0.0 1:9.402985074626866 2:9.574468085106384 3:9.848484848484848 4:9.907407407407407 5:4.0 6:8.202247191011235 7:8.620689655172413 8:8.675496688741722 9:9.415584415584416 10:8.45360824742268 11:6.25 12:9.821428571428571 13:9.529411764705882 14:8.80952380952381 15:9.652777777777779 16:9.622641509433961 17:8.235294117647058 18:10.196078431372548 19:7.971014492753623 20:9.523809523809524 21:9.56989247311828 22:9.733333333333334 23:2.2222222222222223 24:9.821428571428571 25:9.172932330827066 26:9.139784946236558 27:8.767123287671232 28:9.662162162162161 29:3.75 
-0.0 -0.0 -0.0 -0.0 -0.0 -0.0 -0.0 -0.0 0.019205650699284087 1:8.507462686567164 2:9.787234042553191 3:9.696969696969697 4:10.0 5:4.0 6:7.97752808988764 7:8.160919540229886 8:8.675496688741722 9:9.48051948051948 10:8.24742268041237 11:6.25 12:9.821428571428571 13:8.941176470588236 14:8.80952380952381 15:9.652777777777779 16:9.622641509433961 17:8.235294117647058 18:4.313725490196079 19:10.0 20:9.65986394557823 21:9.247311827956988 22:9.6 23:3.333333333333333 24:9.553571428571429 25:11.203007518796992 26:9.139784946236558 27:9.315068493150685 28:9.797297297297296 29:8.75 
-8.598998870015376E-5 -0.003042525021467199 -0.0019945073821944874 -0.0 -0.0 -0.003208632918000875 -0.0 -4.502807599519893E-4 0.0 1:8.656716417910447 2:10.0 3:9.848484848484848 4:10.092592592592593 5:4.0 6:7.752808988764045 7:8.50574712643678 8:8.675496688741722 9:9.285714285714286 10:8.556701030927835 11:6.25 12:9.821428571428571 13:9.058823529411764 14:8.730158730158731 15:9.652777777777779 16:9.622641509433961 17:8.235294117647058 18:6.470588235294118 19:8.840579710144928 20:9.523809523809524 21:9.46236559139785 22:9.6 23:2.2222222222222223 24:9.464285714285714 25:10.150375939849624 26:9.032258064516128 27:8.904109589041095 28:9.662162162162161 29:5.0 
-0.0 -0.0 -0.0 -0.0031379033488112503 -0.0 -0.0 -0.0 -0.0 0.0 1:9.104477611940299 2:9.148936170212766 3:9.848484848484848 4:9.814814814814815 5:4.0 6:8.651685393258427 7:8.390804597701148 8:8.741721854304636 9:9.545454545454547 10:7.835051546391752 11:5.0 12:9.821428571428571 13:10.352941176470589 14:8.412698412698413 15:9.583333333333334 16:9.528301886792454 17:8.235294117647058 18:8.431372549019608 19:8.26086956521739 20:9.591836734693878 21:9.46236559139785 22:9.6 23:8.88888888888889 24:9.821428571428571 25:9.473684210526315 26:9.139784946236558 27:8.63013698630137 28:9.594594594594595 29:6.25 
-0.0 -0.0 -0.0 -0.0 -0.0 -0.0 -0.0 -0.0 0.016825951272822503 1:8.955223880597016 2:9.574468085106384 3:10.151515151515152 4:10.185185185185187 5:4.0 6:8.42696629213483 7:8.620689655172413 8:8.741721854304636 9:9.415584415584416 10:8.24742268041237 11:5.0 12:10.0 13:9.647058823529411 14:8.650793650793652 15:9.583333333333334 16:9.528301886792454 17:7.647058823529411 18:7.647058823529411 19:9.27536231884058 20:9.65986394557823 21:9.354838709677418 22:9.6 23:3.333333333333333 24:9.642857142857142 25:10.075187969924812 26:9.247311827956988 27:8.904109589041095 28:9.662162162162161 29:5.0 
-0.0 -0.0 -0.0 -0.0 -0.0 -0.0 -2.439132818154853E-4 -0.0 0.0 1:9.552238805970148 2:9.787234042553191 3:10.303030303030303 4:10.37037037037037 5:4.0 6:8.539325842696629 7:8.390804597701148 8:9.139072847682119 9:9.74025974025974 10:9.072164948453608 11:20.0 12:9.821428571428571 13:10.352941176470589 14:8.968253968253968 15:9.86111111111111 16:9.81132075471698 17:10.588235294117647 18:9.411764705882353 19:8.115942028985508 20:9.931972789115646 21:10.21505376344086 22:10.0 23:11.11111111111111 24:9.910714285714286 25:9.62406015037594 26:9.56989247311828 27:9.315068493150685 28:9.797297297297296 29:12.5 
-0.0 -0.0 -0.0 -0.0027237242439677313 -0.0 -0.0 -0.0 -0.0 0.0 1:9.701492537313433 2:10.0 3:10.303030303030303 4:10.37037037037037 5:4.0 6:8.651685393258427 7:8.620689655172413 8:8.80794701986755 9:9.675324675324676 10:8.24742268041237 11:6.25 12:9.642857142857142 13:10.470588235294118 14:8.492063492063492 15:9.791666666666666 16:9.622641509433961 17:8.235294117647058 18:10.980392156862745 19:7.391304347826086 20:9.523809523809524 21:10.0 22:9.733333333333334 23:3.333333333333333 24:10.089285714285714 25:8.120300751879698 26:9.56989247311828 27:9.041095890410958 28:9.72972972972973 29:3.75 
-0.0 -0.0 -0.0 -0.0 -0.0 -0.0 -0.0 -4.421880991763757E-4 0.0 1:9.701492537313433 2:9.787234042553191 3:10.151515151515152 4:10.092592592592593 5:4.0 6:8.539325842696629 7:8.390804597701148 8:8.741721854304636 9:9.61038961038961 10:8.144329896907216 11:6.25 12:9.642857142857142 13:10.588235294117647 14:8.333333333333334 15:9.583333333333334 16:9.433962264150944 17:7.647058823529411 18:10.588235294117647 19:7.971014492753623 20:9.387755102040817 21:9.46236559139785 22:9.6 23:3.333333333333333 24:10.0 25:8.87218045112782 26:9.247311827956988 27:8.767123287671232 28:9.662162162162161 29:2.5 
-0.0 -0.0 -0.0 -0.0 -0.0 -0.0 -2.3108392242450357E-4 -0.0 0.0 1:9.850746268656716 2:10.0 3:10.303030303030303 4:10.277777777777777 5:4.0 6:8.876404494382022 7:8.50574712643678 8:8.874172185430464 9:9.87012987012987 10:8.041237113402062 11:13.75 12:10.178571428571427 13:11.176470588235293 14:8.412698412698413 15:9.652777777777779 16:9.433962264150944 17:7.647058823529411 18:10.588235294117647 19:8.26086956521739 20:9.65986394557823 21:9.354838709677418 22:9.6 23:4.444444444444445 24:10.357142857142858 25:9.473684210526315 26:9.354838709677418 27:8.904109589041095 28:9.662162162162161 29:6.25 
-0.0 -0.0 -0.0 -0.0 -0.0 -0.0 -0.0 -0.0 0.0021680038364400773 1:9.850746268656716 2:10.0 3:10.454545454545453 4:10.37037037037037 5:4.0 6:9.662921348314606 7:8.96551724137931 8:9.072847682119205 9:10.12987012987013 10:8.041237113402062 11:7.5 12:9.642857142857142 13:14.23529411764706 14:9.285714285714286 15:7.222222222222222 16:9.433962264150944 17:7.647058823529411 18:9.411764705882353 19:9.420289855072463 20:9.795918367346939 21:9.139784946236558 22:9.6 23:3.333333333333333 24:10.267857142857142 25:10.150375939849624 26:9.247311827956988 27:8.904109589041095 28:9.662162162162161 29:5.0 
-0.0 -0.0 -0.0 -0.002831120367924016 -0.0 -0.0 -0.0 -0.0 0.0 1:10.0 2:10.0 3:10.454545454545453 4:10.37037037037037 5:4.0 6:9.438202247191011 7:11.839080459770114 8:9.205298013245034 9:10.194805194805195 10:7.835051546391752 11:7.5 12:17.142857142857142 13:19.764705882352942 14:7.777777777777778 15:9.722222222222221 16:9.339622641509434 17:7.647058823529411 18:11.96078431372549 19:7.391304347826086 20:9.455782312925171 21:9.56989247311828 22:9.6 23:3.333333333333333 24:10.535714285714286 25:8.646616541353383 26:9.139784946236558 27:8.493150684931507 28:9.594594594594595 29:5.0 
-0.0 -0.0 -0.0 -0.0 -0.0 -0.0017020667032720876 -0.0 -0.0 0.0 1:10.0 2:10.212765957446807 3:10.303030303030303 4:10.185185185185187 5:4.0 6:7.752808988764045 7:8.275862068965518 8:8.741721854304636 9:9.675324675324676 10:8.762886597938145 11:7.5 12:9.821428571428571 13:11.294117647058822 14:8.253968253968253 15:9.375 16:9.622641509433961 17:7.647058823529411 18:11.96078431372549 19:6.666666666666666 20:9.251700680272108 21:9.46236559139785 22:9.733333333333334 23:2.2222222222222223 24:10.446428571428573 25:7.7443609022556394 26:9.354838709677418 27:8.493150684931507 28:9.662162162162161 29:3.75 
-0.0 -0.0019426769790177724 -0.0 -0.0 -0.0 -0.0 -0.0 -0.0 0.0 1:9.850746268656716 2:10.0 3:10.303030303030303 4:10.092592592592593 5:4.0 6:8.764044943820226 7:8.275862068965518 8:8.874172185430464 9:9.87012987012987 10:7.835051546391752 11:6.25 12:10.178571428571427 13:11.764705882352942 14:8.174603174603174 15:9.305555555555555 16:9.433962264150944 17:7.647058823529411 18:11.764705882352942 19:7.101449275362319 20:9.251700680272108 21:9.46236559139785 22:9.733333333333334 23:2.2222222222222223 24:10.446428571428573 25:7.894736842105264 26:9.032258064516128 27:8.356164383561644 28:9.594594594594595 29:3.75 
-0.0024757155774350653 -0.0 -0.0 -0.0 -0.0 -0.0 -0.0 -0.0 0.0 1:9.701492537313433 2:10.0 3:10.303030303030303 4:10.092592592592593 5:4.0 6:8.764044943820226 7:8.275862068965518 8:8.874172185430464 9:9.87012987012987 10:7.9381443298969065 11:6.25 12:9.821428571428571 13:12.470588235294118 14:8.015873015873016 15:9.375 16:9.433962264150944 17:7.647058823529411 18:11.764705882352942 19:7.246376811594203 20:9.251700680272108 21:9.354838709677418 22:9.733333333333334 23:2.2222222222222223 24:10.446428571428573 25:8.120300751879698 26:8.924731182795698 27:8.493150684931507 28:9.594594594594595 29:3.75 
-0.0 -0.0 -0.0 -0.0 -0.002828982885717243 -0.0 -0.0 -0.0 0.0 1:9.701492537313433 2:9.787234042553191 3:10.303030303030303 4:10.092592592592593 5:4.0 6:8.98876404494382 7:8.390804597701148 8:8.874172185430464 9:9.87012987012987 10:7.835051546391752 11:10.0 12:10.0 13:12.23529411764706 14:8.015873015873016 15:9.305555555555555 16:9.339622641509434 17:7.647058823529411 18:11.176470588235293 19:7.971014492753623 20:9.387755102040817 21:9.139784946236558 22:9.466666666666667 23:2.2222222222222223 24:10.535714285714286 25:9.022556390977442 26:8.924731182795698 27:8.493150684931507 28:9.527027027027028 29:3.75 
-0.0 -0.0 -0.0 -0.0 -0.0 -0.0 -0.0 -0.0 4.669166138556618E-4 1:9.850746268656716 2:10.0 3:10.454545454545453 4:10.277777777777777 5:4.0 6:9.101123595505618 7:8.735632183908047 8:9.006622516556291 9:9.935064935064936 10:7.9381443298969065 11:11.25 12:2.3214285714285716 13:22.470588235294116 14:7.857142857142857 15:9.305555555555555 16:9.339622641509434 17:7.058823529411765 18:11.372549019607842 19:7.971014492753623 20:9.591836734693878 21:9.46236559139785 22:9.733333333333334 23:4.444444444444445 24:10.625 25:8.947368421052632 26:9.354838709677418 27:9.178082191780822 28:9.72972972972973 29:5.0 
-0.0 -0.001014620380930106 -0.0 -0.0 -0.0 -0.0 -0.0 -0.0 0.0 1:9.850746268656716 2:9.787234042553191 3:10.454545454545453 4:10.277777777777777 5:4.0 6:8.98876404494382 7:8.735632183908047 8:9.006622516556291 9:9.935064935064936 10:7.9381443298969065 11:11.25 12:-0.17857142857142855 13:19.058823529411764 14:7.936507936507936 15:9.375 16:9.339622641509434 17:7.058823529411765 18:11.372549019607842 19:7.971014492753623 20:9.523809523809524 21:9.46236559139785 22:9.733333333333334 23:4.444444444444445 24:10.535714285714286 25:8.87218045112782 26:9.354838709677418 27:9.178082191780822 28:9.72972972972973 29:5.0 
-0.0 -6.373750951075264E-4 -2.7089634217937746E-4 -0.0 -1.013301750300971E-4 -0.0 -0.0 -0.0 0.0 1:9.850746268656716 2:10.0 3:10.454545454545453 4:10.277777777777777 5:4.0 6:9.213483146067416 7:8.735632183908047 8:8.940397350993377 9:9.935064935064936 10:7.9381443298969065 11:11.25 12:0.0 13:18.235294117647058 14:8.015873015873016 15:9.097222222222221 16:9.433962264150944 17:7.058823529411765 18:11.372549019607842 19:8.115942028985508 20:9.591836734693878 21:9.354838709677418 22:9.733333333333334 23:4.444444444444445 24:10.535714285714286 25:9.022556390977442 26:9.247311827956988 27:9.041095890410958 28:9.72972972972973 29:5.0 
-0.0 -0.0017934280477967899 -0.0 -0.0 -0.0 -0.0 -0.0 -0.0 -0.031502940208800616 1:8.805970149253731 2:10.425531914893618 3:10.303030303030303 4:8.796296296296296 5:3.0 6:8.651685393258427 7:7.126436781609195 8:7.682119205298013 9:7.467532467532467 10:6.804123711340207 11:5.0 12:10.0 13:10.588235294117647 14:8.412698412698413 15:8.958333333333334 16:9.528301886792454 17:7.647058823529411 18:5.490196078431373 19:11.304347826086955 20:10.068027210884354 21:10.32258064516129 22:10.133333333333335 23:3.333333333333333 24:10.357142857142858 25:14.210526315789473 26:10.43010752688172 27:10.273972602739727 28:10.337837837837839 29:5.0 
-0.0 -0.0 -4.73920885558319E-4 -0.0 -0.0 -9.199261103552877E-4 -0.0 -0.0 -0.0 1:8.805970149253731 2:10.638297872340425 3:10.454545454545453 4:8.796296296296296 5:3.0 6:8.651685393258427 7:7.126436781609195 8:7.748344370860927 9:7.532467532467533 10:6.804123711340207 11:5.0 12:10.0 13:10.588235294117647 14:8.412698412698413 15:8.958333333333334 16:9.528301886792454 17:7.647058823529411 18:5.490196078431373 19:11.44927536231884 20:10.136054421768709 21:10.32258064516129 22:10.266666666666666 23:3.333333333333333 24:10.357142857142858 25:14.13533834586466 26:10.43010752688172 27:10.273972602739727 28:10.337837837837839 29:3.75 
-0.0 -0.0 -0.0 -0.0 -0.0 -0.0 -0.0 -0.0 -0.012654293991316847 1:6.865671641791044 2:12.76595744680851 3:10.303030303030303 4:8.981481481481481 5:3.0 6:8.202247191011235 7:6.666666666666666 8:7.549668874172185 9:8.311688311688313 10:8.24742268041237 11:6.25 12:8.571428571428571 13:11.647058823529413 14:9.206349206349206 15:9.097222222222221 16:9.90566037735849 17:8.235294117647058 18:9.80392156862745 19:8.840579710144928 20:10.34013605442177 21:11.612903225806452 22:10.666666666666666 23:3.333333333333333 24:10.089285714285714 25:13.308270676691729 26:9.67741935483871 27:10.684931506849315 28:10.472972972972974 29:3.75 
-0.0 -0.0 -0.0 -0.0 -0.0 -5.845072909918505E-4 -0.0 -0.0 -0.0 1:8.507462686567164 2:13.404255319148938 3:8.93939393939394 4:5.648148148148148 5:2.0 6:7.865168539325843 7:6.781609195402298 8:7.483443708609272 9:6.688311688311687 10:5.773195876288659 11:6.25 12:8.75 13:10.823529411764705 14:8.095238095238095 15:9.305555555555555 16:9.339622641509434 17:7.647058823529411 18:10.588235294117647 19:9.27536231884058 20:9.65986394557823 21:10.64516129032258 22:9.866666666666667 23:2.2222222222222223 24:10.0 25:13.759398496240603 26:9.89247311827957 27:10.0 28:10.405405405405405 29:3.75 
-0.0 -0.0 -0.0 -0.0 -8.382397048706173E-5 -0.0 -0.0 -0.0 -0.0 1:5.223880597014925 2:16.170212765957444 3:8.484848484848484 4:5.648148148148148 5:2.0 6:8.539325842696629 7:6.666666666666666 8:7.814569536423841 9:5.974025974025974 10:5.56701030927835 11:7.5 12:6.607142857142857 13:13.411764705882351 14:7.777777777777778 15:9.722222222222221 16:9.339622641509434 17:7.647058823529411 18:11.176470588235293 19:8.55072463768116 20:9.795918367346939 21:10.96774193548387 22:10.0 23:2.2222222222222223 24:10.446428571428573 25:13.157894736842106 26:10.10752688172043 27:10.410958904109588 28:10.608108108108107 29:3.75 
-0.0 -0.0 -0.0 -0.0 -0.0024196599054486017 -0.0 -4.1092799100684045E-4 -0.0 -0.0 1:8.208955223880597 2:12.97872340425532 3:9.848484848484848 4:8.148148148148147 5:2.0 6:8.089887640449438 7:6.206896551724138 8:7.417218543046358 9:7.207792207792208 10:6.391752577319587 11:7.5 12:7.857142857142857 13:11.647058823529413 14:8.095238095238095 15:9.444444444444445 16:9.433962264150944 17:7.647058823529411 18:10.392156862745098 19:9.565217391304348 20:9.795918367346939 21:10.86021505376344 22:10.0 23:2.2222222222222223 24:10.267857142857142 25:13.233082706766917 26:9.89247311827957 27:10.547945205479452 28:10.608108108108107 29:3.75 
-0.0 -0.0 -3.985737105736503E-4 -0.0 -0.0 -0.0 -0.0 -0.0 -0.013766778963178482 1:7.7611940298507465 2:11.27659574468085 3:10.303030303030303 4:10.648148148148149 5:4.0 6:7.97752808988764 7:6.206896551724138 8:7.549668874172185 9:8.311688311688313 10:7.319587628865979 11:2.5 12:8.571428571428571 13:10.705882352941176 14:8.253968253968253 15:9.375 16:9.433962264150944 17:7.647058823529411 18:9.215686274509803 19:11.44927536231884 20:10.068027210884354 21:10.96774193548387 22:10.133333333333335 23:2.2222222222222223 24:10.178571428571427 25:12.105263157894736 26:9.67741935483871 27:10.684931506849315 28:10.54054054054054 29:3.75 
-2.3028654038849907E-4 -0.0 -0.0 -0.0 -0.0 -0.0 -0.0 -7.019253431446897E-4 -0.0 1:8.35820895522388 2:12.76595744680851 3:10.151515151515152 4:9.907407407407407 5:4.0 6:8.089887640449438 7:5.632183908045977 8:7.748344370860927 9:8.571428571428571 10:8.350515463917526 11:-1.25 12:8.214285714285714 13:11.882352941176471 14:8.015873015873016 15:9.51388888888889 16:9.339622641509434 17:7.647058823529411 18:9.411764705882353 19:10.579710144927537 20:9.795918367346939 21:10.75268817204301 22:10.0 23:2.2222222222222223 24:10.446428571428573 25:13.609022556390977 26:10.0 27:10.273972602739727 28:10.54054054054054 29:3.75 
-0.0 -0.0 -0.0 -0.0 -0.0 -0.0 -0.0 -2.0220135280286334E-4 -0.0 1:8.208955223880597 2:12.97872340425532 3:10.151515151515152 4:9.907407407407407 5:4.0 6:8.202247191011235 7:5.747126436781609 8:7.814569536423841 9:8.571428571428571 10:8.144329896907216 11:-1.25 12:8.214285714285714 13:11.882352941176471 14:8.095238095238095 15:9.51388888888889 16:9.339622641509434 17:7.647058823529411 18:9.411764705882353 19:10.579710144927537 20:9.795918367346939 21:10.75268817204301 22:10.0 23:2.2222222222222223 24:10.446428571428573 25:13.533834586466165 26:10.0 27:10.273972602739727 28:10.54054054054054 29:3.75 
-0.0 -0.0 -0.0 -0.002242516026982343 -0.0 -0.0 -0.0 -0.0 -0.0 1:4.925373134328358 2:16.595744680851062 3:9.848484848484848 4:9.351851851851853 5:4.0 6:8.314606741573034 7:5.287356321839081 8:8.145695364238412 9:8.896103896103897 10:8.144329896907216 11:-1.25 12:7.5 13:13.411764705882351 14:8.968253968253968 15:9.722222222222221 16:9.90566037735849 17:8.235294117647058 18:11.176470588235293 19:8.26086956521739 20:10.476190476190476 21:12.150537634408602 22:10.8 23:3.333333333333333 24:10.892857142857142 25:10.225563909774436 26:9.78494623655914 27:10.82191780821918 28:10.54054054054054 29:3.75 
-0.0 -0.0 -0.0 -0.0 -0.0 -4.521477673617168E-4 -0.0 -0.0 -0.0 1:3.1343283582089554 2:16.382978723404257 3:9.848484848484848 4:8.981481481481481 5:3.0 6:8.42696629213483 7:5.747126436781609 8:8.344370860927153 9:8.311688311688313 10:7.9381443298969065 11:1.25 12:6.428571428571429 13:14.0 14:7.698412698412699 15:10.0 16:9.339622641509434 17:7.647058823529411 18:11.176470588235293 19:6.086956521739131 20:10.204081632653061 21:11.612903225806452 22:10.8 23:2.2222222222222223 24:11.339285714285714 25:9.24812030075188 26:9.89247311827957 27:9.452054794520548 28:10.0 29:5.0 
-0.0 -0.0 -0.0 -0.004307701188012907 -0.0 -0.0 -0.0 -0.0 -0.0010550230860039362 1:4.925373134328358 2:14.893617021276595 3:10.303030303030303 4:9.25925925925926 5:3.0 6:7.97752808988764 7:6.0919540229885065 8:8.079470198675496 9:8.246753246753247 10:8.24742268041237 11:0.0 12:6.071428571428571 13:13.764705882352942 14:7.777777777777778 15:10.0 16:9.433962264150944 17:7.647058823529411 18:11.764705882352942 19:5.942028985507246 20:10.204081632653061 21:11.612903225806452 22:10.8 23:3.333333333333333 24:11.160714285714286 25:9.849624060150376 26:9.67741935483871 27:9.58904109589041 28:10.067567567567568 29:5.0 
-0.0017163722967278527 -0.003496695926399673 -0.0011418329346547411 -0.0 -0.0 -0.0 -0.0 -0.0 -0.0 1:4.776119402985074 2:14.893617021276595 3:10.303030303030303 4:9.351851851851853 5:3.0 6:7.865168539325843 7:6.206896551724138 8:8.079470198675496 9:8.246753246753247 10:8.144329896907216 11:0.0 12:6.071428571428571 13:13.882352941176471 14:7.5396825396825395 15:9.930555555555555 16:9.245283018867925 17:7.647058823529411 18:11.568627450980394 19:5.942028985507246 20:10.0 21:11.18279569892473 22:10.533333333333331 23:2.2222222222222223 24:11.071428571428573 25:10.150375939849624 26:9.46236559139785 27:9.452054794520548 28:10.0 29:5.0 
-0.0 -0.0 -0.0 -0.0 -0.0 -0.001922840584622703 -0.0 -0.0 -0.0 1:7.313432835820896 2:11.063829787234043 3:10.0 4:9.814814814814815 5:3.0 6:7.865168539325843 7:6.436781609195402 8:7.814569536423841 9:8.441558441558442 10:7.525773195876289 11:0.0 12:8.392857142857142 13:10.588235294117647 14:8.174603174603174 15:9.51388888888889 16:9.433962264150944 17:7.647058823529411 18:9.019607843137255 19:10.434782608695652 20:10.068027210884354 21:11.290322580645162 22:10.4 23:2.2222222222222223 24:10.267857142857142 25:12.330827067669173 26:10.10752688172043 27:9.863013698630137 28:10.27027027027027 29:3.75 
-5.597738394276133E-4 -0.0 -0.0 -0.0 -0.0 -0.0 -0.0 -0.0 -0.0 1:7.164179104477611 2:11.063829787234043 3:10.0 4:9.814814814814815 5:3.0 6:7.865168539325843 7:6.436781609195402 8:7.880794701986755 9:8.441558441558442 10:7.525773195876289 11:0.0 12:8.392857142857142 13:10.823529411764705 14:8.095238095238095 15:9.51388888888889 16:9.433962264150944 17:7.647058823529411 18:9.019607843137255 19:10.289855072463768 20:10.068027210884354 21:11.290322580645162 22:10.4 23:2.2222222222222223 24:10.267857142857142 25:12.330827067669173 26:10.10752688172043 27:9.863013698630137 28:10.27027027027027 29:3.75 
-0.0 -0.0 -0.0 -0.0010437479179449156 -0.0 -0.0 -0.0 -0.0 -0.0 1:8.507462686567164 2:11.914893617021276 3:10.151515151515152 4:10.0 5:3.0 6:8.202247191011235 7:6.551724137931034 8:7.682119205298013 9:8.571428571428571 10:8.041237113402062 11:-1.25 12:8.214285714285714 13:11.882352941176471 14:8.015873015873016 15:9.51388888888889 16:9.339622641509434 17:7.647058823529411 18:9.411764705882353 19:10.434782608695652 20:10.068027210884354 21:11.0752688172043 22:10.266666666666666 23:2.2222222222222223 24:10.446428571428573 25:13.759398496240603 26:10.43010752688172 27:10.0 28:10.405405405405405 29:3.75 
-0.0 -0.0 -0.0 -0.001012360263922397 -0.0 -0.0 -0.0 -0.0 -0.0 1:7.910447761194029 2:13.404255319148938 3:10.151515151515152 4:9.814814814814815 5:3.0 6:8.42696629213483 7:6.551724137931034 8:7.748344370860927 9:8.571428571428571 10:8.041237113402062 11:-1.25 12:7.5 13:13.411764705882351 14:7.619047619047619 15:9.583333333333334 16:9.245283018867925 17:7.647058823529411 18:10.588235294117647 19:8.840579710144928 20:9.795918367346939 21:10.86021505376344 22:10.266666666666666 23:2.2222222222222223 24:10.446428571428573 25:14.06015037593985 26:10.53763440860215 27:10.0 28:10.337837837837839 29:3.75 
