svm_type c_svc
kernel_type linear
nr_class 10
total_sv 162
rho 0.45973226581529014 0.6093097211790629 -0.7934733225337629 -1.413227760920628 -1.7306518011384435 -0.77767810960004 0.4756245698300772 -1.647581668523724 -1.521778304735634 -1.3628232897651362 -1.5788563212440365 -1.9737246398824844 -2.0972165003062258 -2.373723716405424 0.29918188696477555 -2.161395762599777 -2.12517805903839 -1.484913749399669 -2.1778706837097634 -2.718030667336782 -1.3150313609844528 -0.09494555748614993 -2.4628931162416228 -1.831175442083128 -1.0552989777735864 -0.7104494756621224 0.004696167115948005 0.827919419756302 -1.4380625094428836 -1.007782822748768 1.4827015484289887 0.7851852866649082 0.8955062672202354 -7.5881818201475655 0.6601645803833935 1.0041680168539022 1.261735681739691 -2.4099765890063227 -0.6036570062613175 1.1202981947614088 -1.0209177753016827 -0.5531385896743992 -0.8603285100120733 -1.1658869428348353 2.1580618480570974
label 5 4 3 2 6 9 8 7 0 1
nr_sv 23 15 18 9 15 39 7 7 17 12
SV
0.0 0.0 0.0 0.0 2.7317435383291864E-4 5.835358662433118E-4 0.0 0.0 0.0 1:9.850746268656716 2:8.085106382978722 3:6.666666666666666 4:4.444444444444445 5:16.0 6:6.5168539325842705 7:2.6436781609195403 8:2.4503311258278146 9:3.5064935064935066 10:0.5154639175257731 11:42.5 12:7.321428571428571 13:3.6470588235294117 14:2.46031746031746 15:3.4027777777777777 16:2.641509433962264 17:20.588235294117645 18:5.686274509803921 19:0.14492753623188406 20:0.4081632653061224 21:1.6129032258064515 22:3.7333333333333334 23:-3.333333333333333 24:8.303571428571429 25:5.18796992481203 26:2.043010752688172 27:1.095890410958904 28:5.743243243243244 29:-5.0 
0.0032565839103628237 0.002085987728126594 0.0 8.394982623753897E-4 0.0 0.0 0.0 2.1223129951758454E-4 0.0 1:9.701492537313433 2:7.872340425531915 3:6.363636363636363 4:4.0740740740740735 5:11.0 6:6.404494382022472 7:2.528735632183908 8:2.3178807947019866 9:3.5714285714285716 10:0.41237113402061853 11:40.0 12:7.321428571428571 13:3.5294117647058827 14:2.46031746031746 15:3.4027777777777777 16:2.641509433962264 17:18.823529411764707 18:5.490196078431373 19:0.2898550724637681 20:0.34013605442176875 21:1.6129032258064515 22:3.8666666666666667 23:-3.333333333333333 24:8.214285714285714 25:5.037593984962406 26:1.935483870967742 27:1.095890410958904 28:5.675675675675675 29:-5.0 
0.0 0.010183642668037804 0.006383396762705439 8.61390549010928E-4 7.411557024811167E-4 0.0 0.0 0.0012983768049191424 0.004274601371070755 1:8.208955223880597 2:7.872340425531915 3:11.060606060606059 4:10.277777777777777 5:19.0 6:7.415730337078652 7:3.793103448275862 8:5.033112582781457 9:3.7662337662337664 10:4.639175257731959 11:-2.5 12:9.642857142857142 13:4.9411764705882355 14:4.444444444444445 15:4.444444444444445 16:5.0 17:7.647058823529411 18:7.450980392156863 19:2.318840579710145 20:4.761904761904762 21:3.548387096774194 22:4.133333333333333 23:-2.2222222222222223 24:8.392857142857142 25:5.338345864661655 26:4.301075268817204 27:6.8493150684931505 28:8.783783783783784 29:0.0 
0.002081282391993207 0.0 0.0 0.0 0.0 0.0 0.0 0.0 0.0 1:8.208955223880597 2:8.085106382978722 3:11.363636363636365 4:10.37037037037037 5:23.0 6:7.415730337078652 7:3.5632183908045976 8:5.1655629139072845 9:3.6363636363636367 10:4.43298969072165 11:-2.5 12:9.821428571428571 13:4.705882352941177 14:4.523809523809524 15:4.375 16:4.90566037735849 17:6.470588235294118 18:7.058823529411765 19:1.5942028985507246 20:5.238095238095238 21:3.978494623655914 22:3.333333333333333 23:-2.2222222222222223 24:8.035714285714286 25:5.263157894736842 26:4.516129032258064 27:7.123287671232877 28:8.91891891891892 29:0.0 
2.8601079594209983E-4 0.0 0.0 0.0 0.0 0.0 0.0 0.0 0.0 1:8.35820895522388 2:8.51063829787234 3:11.96969696969697 4:10.555555555555555 5:25.0 6:7.640449438202247 7:4.25287356321839 8:4.966887417218543 9:3.5714285714285716 10:3.6082474226804124 11:-1.25 12:10.178571428571427 13:5.0588235294117645 14:4.603174603174603 15:4.375 16:4.339622641509434 17:5.882352941176471 18:6.666666666666666 19:1.1594202898550725 20:5.7142857142857135 21:4.408602150537634 22:3.333333333333333 23:-2.2222222222222223 24:7.4107142857142865 25:5.18796992481203 26:4.623655913978494 27:7.260273972602739 28:8.91891891891892 29:0.0 
0.0 0.0 0.0 0.0 0.0 0.0 0.006639133138947281 0.0 0.0 1:7.164179104477611 2:6.808510638297872 3:10.0 4:7.777777777777778 5:53.0 6:5.280898876404494 7:2.1839080459770117 8:2.3841059602649004 9:3.896103896103896 10:1.6494845360824741 11:-12.5 12:6.071428571428571 13:3.2941176470588234 14:2.46031746031746 15:3.194444444444444 16:2.358490566037736 17:-1.1764705882352942 18:1.1764705882352942 19:-0.43478260869565216 20:-0.06802721088435373 21:1.2903225806451613 22:4.666666666666667 23:-3.333333333333333 24:6.696428571428571 25:3.7593984962406015 26:-0.21505376344086025 27:3.5616438356164384 28:4.9324324324324325 29:-2.5 
0.0 0.0 0.0 0.0 0.0 0.0 3.2078569070699125E-4 0.0 0.0 1:11.343283582089551 2:10.638297872340425 3:11.212121212121211 4:8.518518518518519 5:5.0 6:5.730337078651685 7:2.528735632183908 8:2.119205298013245 9:4.545454545454545 10:2.0618556701030926 11:-6.25 12:6.428571428571429 13:3.5294117647058827 14:2.380952380952381 15:3.75 16:2.452830188679245 17:-0.5882352941176471 18:3.1372549019607843 19:-0.8695652173913043 20:0.5442176870748299 21:1.5053763440860215 22:4.666666666666667 23:-3.333333333333333 24:7.678571428571429 25:5.037593984962406 26:1.3978494623655913 27:3.9726027397260273 28:4.1891891891891895 29:0.0 
0.0 0.0 0.0 0.0 0.0 6.129648048676731E-4 0.0 0.0 0.0 1:11.194029850746269 2:10.638297872340425 3:11.060606060606059 4:8.148148148148147 5:-12.0 6:5.730337078651685 7:2.6436781609195403 8:2.3178807947019866 9:4.74025974025974 10:2.5773195876288657 11:-1.25 12:6.607142857142857 13:3.6470588235294117 14:2.46031746031746 15:3.958333333333333 16:3.0188679245283017 17:0.5882352941176471 18:2.9411764705882355 19:-1.0144927536231885 20:0.47619047619047616 21:1.5053763440860215 22:4.4 23:-3.333333333333333 24:7.053571428571429 25:4.962406015037594 26:1.2903225806451613 27:3.835616438356164 28:4.054054054054054 29:0.0 
0.0 0.0 0.0 0.0 0.0 0.0 0.003786740225855214 0.0 0.0 1:11.194029850746269 2:10.638297872340425 3:11.060606060606059 4:8.148148148148147 5:-12.0 6:5.730337078651685 7:2.6436781609195403 8:2.3178807947019866 9:4.74025974025974 10:2.5773195876288657 11:-1.25 12:6.607142857142857 13:3.6470588235294117 14:2.46031746031746 15:3.958333333333333 16:3.0188679245283017 17:0.5882352941176471 18:2.9411764705882355 19:-0.8695652173913043 20:0.47619047619047616 21:1.5053763440860215 22:4.4 23:-3.333333333333333 24:7.053571428571429 25:4.962406015037594 26:1.2903225806451613 27:3.835616438356164 28:4.054054054054054 29:0.0 
0.004012484491935773 0.0 0.0 0.0 0.0 0.0 0.0 0.0 0.0 1:11.343283582089551 2:10.638297872340425 3:11.060606060606059 4:8.148148148148147 5:-13.0 6:5.730337078651685 7:2.6436781609195403 8:2.3178807947019866 9:4.74025974025974 10:2.5773195876288657 11:-1.25 12:6.607142857142857 13:3.6470588235294117 14:2.46031746031746 15:4.027777777777778 16:3.0188679245283017 17:0.5882352941176471 18:2.9411764705882355 19:-1.0144927536231885 20:0.5442176870748299 21:1.5053763440860215 22:4.4 23:-3.333333333333333 24:7.142857142857143 25:4.962406015037594 26:1.2903225806451613 27:3.835616438356164 28:4.1891891891891895 29:0.0 
0.0 0.0 0.0 0.0 0.0 0.0010421502400978719 0.0 0.0 0.0 1:11.343283582089551 2:10.638297872340425 3:11.060606060606059 4:8.148148148148147 5:-14.0 6:5.730337078651685 7:2.6436781609195403 8:2.3178807947019866 9:4.74025974025974 10:2.5773195876288657 11:-1.25 12:6.607142857142857 13:3.6470588235294117 14:2.46031746031746 15:4.027777777777778 16:3.0188679245283017 17:0.5882352941176471 18:2.9411764705882355 19:-1.0144927536231885 20:0.47619047619047616 21:1.5053763440860215 22:4.4 23:-3.333333333333333 24:7.142857142857143 25:4.962406015037594 26:1.2903225806451613 27:3.835616438356164 28:4.1891891891891895 29:0.0 
0.0 0.010526483766019194 0.0 0.0 0.0 0.0 0.0 0.0 0.0 1:11.343283582089551 2:10.638297872340425 3:11.060606060606059 4:8.148148148148147 5:-14.0 6:5.730337078651685 7:2.6436781609195403 8:2.3178807947019866 9:4.74025974025974 10:2.5773195876288657 11:-1.25 12:6.607142857142857 13:3.6470588235294117 14:2.46031746031746 15:4.027777777777778 16:3.0188679245283017 17:1.1764705882352942 18:3.1372549019607843 19:-1.0144927536231885 20:0.5442176870748299 21:1.5053763440860215 22:4.4 23:-3.333333333333333 24:7.142857142857143 25:4.962406015037594 26:1.2903225806451613 27:3.835616438356164 28:4.1891891891891895 29:0.0 
0.0 0.0 1.2635242261548857E-4 0.0 0.0 0.0 0.0 6.680524535349726E-4 0.0 1:11.791044776119403 2:11.48936170212766 3:11.363636363636365 4:8.148148148148147 5:-16.0 6:5.955056179775281 7:2.6436781609195403 8:2.3178807947019866 9:4.74025974025974 10:2.4742268041237114 11:-1.25 12:6.7857142857142865 13:3.764705882352941 14:2.46031746031746 15:4.027777777777778 16:3.0188679245283017 17:0.5882352941176471 18:3.7254901960784315 19:-0.7246376811594203 20:0.5442176870748299 21:1.6129032258064515 22:4.533333333333333 23:-3.333333333333333 24:7.4107142857142865 25:5.263157894736842 26:1.2903225806451613 27:3.835616438356164 28:4.256756756756756 29:-1.25 
0.0 0.0 0.0 2.9479835451131015E-4 0.0 0.0 0.0 0.0 0.0 1:11.492537313432836 2:11.27659574468085 3:11.515151515151516 4:8.24074074074074 5:-14.0 6:6.067415730337079 7:2.413793103448276 8:2.4503311258278146 9:4.545454545454545 10:2.6804123711340204 11:-1.25 12:7.142857142857143 13:3.764705882352941 14:2.46031746031746 15:4.027777777777778 16:3.0188679245283017 17:0.5882352941176471 18:3.9215686274509802 19:-0.7246376811594203 20:0.6122448979591837 21:1.5053763440860215 22:4.533333333333333 23:-3.333333333333333 24:7.678571428571429 25:5.413533834586466 26:1.5053763440860215 27:3.835616438356164 28:4.1891891891891895 29:0.0 
3.2316678676354224E-5 0.0 0.0 0.0 0.0 0.0 0.0 0.0 0.0 1:9.402985074626866 2:9.787234042553191 3:10.0 4:8.61111111111111 5:37.0 6:6.404494382022472 7:2.988505747126437 8:2.3178807947019866 9:4.35064935064935 10:2.5773195876288657 11:-1.25 12:7.321428571428571 13:3.764705882352941 14:2.46031746031746 15:3.680555555555556 16:2.547169811320755 17:0.0 18:4.313725490196079 19:-0.43478260869565216 20:1.2244897959183674 21:1.6129032258064515 22:5.2 23:-3.333333333333333 24:8.125 25:5.639097744360902 26:2.150537634408602 27:4.10958904109589 28:4.256756756756756 29:0.0 
0.002501672725309504 0.0 0.0 0.0 0.0 0.0 0.0 0.0 0.0 1:10.149253731343284 2:9.361702127659575 3:9.545454545454547 4:7.314814814814815 5:58.0 6:6.179775280898876 7:2.988505747126437 8:2.119205298013245 9:4.415584415584416 10:2.5773195876288657 11:-2.5 12:7.142857142857143 13:3.8823529411764706 14:2.3015873015873014 15:3.680555555555556 16:2.547169811320755 17:0.0 18:3.9215686274509802 19:-0.8695652173913043 20:1.0884353741496597 21:1.6129032258064515 22:5.466666666666667 23:-2.2222222222222223 24:8.125 25:5.488721804511279 26:1.6129032258064515 27:3.835616438356164 28:4.121621621621622 29:0.0 
0.0029012368863704815 0.0 0.0 0.0 0.0010745544590475462 3.222187189256482E-4 0.0 0.0 0.0 1:10.895522388059701 2:11.063829787234043 3:12.575757575757576 4:11.11111111111111 5:19.0 6:7.191011235955056 7:3.218390804597701 8:4.635761589403973 9:4.675324675324675 10:4.020618556701031 11:1.25 12:8.928571428571429 13:4.588235294117647 14:3.888888888888889 15:4.652777777777778 16:3.9622641509433967 17:5.294117647058823 18:4.705882352941177 19:0.43478260869565216 20:2.1768707482993195 21:2.043010752688172 22:4.666666666666667 23:-3.333333333333333 24:6.875 25:5.56390977443609 26:4.193548387096774 27:5.7534246575342465 28:7.094594594594595 29:2.5 
0.0 0.0 0.0 3.791177892040516E-4 2.1806489631972668E-4 0.0 0.0 3.6127564032627897E-5 0.0015231808114678582 1:10.0 2:10.212765957446807 3:13.787878787878789 4:12.407407407407407 5:15.0 6:7.0786516853932575 7:3.793103448275862 8:4.966887417218543 9:4.74025974025974 10:3.6082474226804124 11:2.5 12:9.821428571428571 13:5.411764705882352 14:4.285714285714286 15:4.930555555555555 16:4.150943396226415 17:5.882352941176471 18:6.862745098039216 19:1.5942028985507246 20:2.925170068027211 21:2.7956989247311825 22:3.2 23:-3.333333333333333 24:7.5892857142857135 25:5.7894736842105265 26:5.483870967741935 27:7.260273972602739 28:8.108108108108109 29:1.25 
0.0 0.0 0.0 5.765024610034365E-4 0.0 0.0 0.0 0.0 0.0 1:9.253731343283583 2:9.574468085106384 3:14.090909090909092 4:12.12962962962963 5:11.0 6:6.853932584269663 7:4.137931034482759 8:5.099337748344372 9:4.74025974025974 10:3.917525773195876 11:1.25 12:10.357142857142858 13:6.0 14:4.2063492063492065 15:5.208333333333334 16:3.3962264150943393 17:8.823529411764707 18:8.823529411764707 19:2.753623188405797 20:2.5850340136054424 21:2.903225806451613 22:2.4 23:-3.333333333333333 24:8.660714285714286 25:6.7669172932330826 26:4.301075268817204 27:6.575342465753424 28:7.5 29:1.25 
6.166727762176876E-5 0.007296369491244481 0.0 0.0011238051323722259 0.008719055912705009 0.004305155753685759 0.0 0.0013883160239119214 0.0 1:7.462686567164179 2:9.361702127659575 3:18.18181818181818 4:11.851851851851851 5:15.0 6:6.067415730337079 7:7.35632183908046 8:5.894039735099338 9:4.87012987012987 10:5.360824742268041 11:7.5 12:11.25 13:6.8235294117647065 14:5.476190476190476 15:4.861111111111111 16:4.056603773584905 17:8.823529411764707 18:6.078431372549019 19:1.7391304347826086 20:6.190476190476191 21:4.731182795698925 22:6.4 23:-2.2222222222222223 24:5.357142857142857 25:5.413533834586466 26:3.440860215053764 27:4.2465753424657535 28:5.54054054054054 29:-1.25 
0.0 0.001419549002812566 0.0 0.0 0.0 0.0 0.0 0.0 0.0 1:7.462686567164179 2:8.085106382978722 3:16.06060606060606 4:11.759259259259258 5:12.0 6:7.0786516853932575 7:4.022988505747127 8:3.8410596026490067 9:4.48051948051948 10:4.22680412371134 11:-1.25 12:10.535714285714286 13:6.352941176470588 14:3.7301587301587302 15:2.916666666666667 16:4.245283018867925 17:12.941176470588236 18:7.254901960784314 19:1.4492753623188406 20:4.353741496598639 21:1.935483870967742 22:8.266666666666666 23:1.1111111111111112 24:7.053571428571429 25:5.263157894736842 26:0.5376344086021505 27:1.36986301369863 28:4.121621621621622 29:-2.5 
0.0 0.0 0.001401355567947778 0.0 0.0 0.0 0.0 0.0 0.0 1:9.104477611940299 2:10.638297872340425 3:18.333333333333332 4:11.666666666666668 5:11.0 6:8.314606741573034 7:7.126436781609195 8:3.377483443708609 9:4.805194805194805 10:2.5773195876288657 11:1.25 12:12.142857142857142 13:7.764705882352941 14:4.0476190476190474 15:3.888888888888889 16:3.490566037735849 17:20.588235294117645 18:8.431372549019608 19:4.492753623188406 20:5.918367346938775 21:3.548387096774194 22:8.666666666666668 23:3.333333333333333 24:5.803571428571429 25:6.2406015037593985 26:4.946236559139785 27:4.383561643835616 28:6.148648648648649 29:0.0 
0.0 0.0 5.09081141375958E-4 0.0 0.0 0.0 0.0 3.7889971956587453E-4 5.337580272943367E-6 1:9.552238805970148 2:10.638297872340425 3:17.424242424242426 4:11.666666666666668 5:13.0 6:8.42696629213483 7:6.781609195402298 8:3.1125827814569536 9:4.935064935064935 10:2.6804123711340204 11:0.0 12:12.142857142857142 13:7.529411764705882 14:3.968253968253968 15:3.819444444444444 16:3.9622641509433967 17:19.41176470588235 18:8.431372549019608 19:4.202898550724638 20:4.081632653061225 21:2.258064516129032 22:4.933333333333334 23:-1.1111111111111112 24:8.571428571428571 25:5.939849624060151 26:8.602150537634408 27:17.123287671232877 28:10.0 29:1.25 
-0.009448800840683804 0.0 0.0 0.0 9.866771558904312E-4 0.0 0.0 0.0 0.0 1:8.507462686567164 2:8.085106382978722 3:8.787878787878787 4:9.351851851851853 5:20.0 6:4.831460674157303 7:4.712643678160919 8:4.370860927152318 9:4.87012987012987 10:4.639175257731959 11:10.0 12:0.5357142857142857 13:3.4117647058823533 14:3.1746031746031744 15:2.4305555555555554 16:3.490566037735849 17:4.705882352941177 18:1.3725490196078431 19:-0.5797101449275363 20:5.1020408163265305 21:2.258064516129032 22:5.6000000000000005 23:0.0 24:7.5892857142857135 25:5.037593984962406 26:4.408602150537634 27:4.520547945205479 28:7.905405405405405 29:2.5 
-0.0 0.0 0.0 0.0 0.0021136973351251285 0.0 0.0 0.0 0.0 1:8.507462686567164 2:8.297872340425531 3:8.93939393939394 4:9.351851851851853 5:16.0 6:4.606741573033708 7:4.597701149425287 8:4.370860927152318 9:4.805194805194805 10:4.639175257731959 11:10.0 12:0.7142857142857142 13:3.2941176470588234 14:3.1746031746031744 15:2.5 16:3.490566037735849 17:4.705882352941177 18:1.3725490196078431 19:-0.7246376811594203 20:5.170068027210885 21:2.3655913978494625 22:5.733333333333333 23:0.0 24:7.5892857142857135 25:5.037593984962406 26:4.623655913978494 27:4.657534246575342 28:8.04054054054054 29:3.75 
-0.0 0.0 0.0 3.4463890409430574E-4 0.0 0.0 0.0 3.0976272244579605E-4 0.0 1:8.35820895522388 2:8.085106382978722 3:8.93939393939394 4:9.351851851851853 5:16.0 6:4.49438202247191 7:4.597701149425287 8:4.370860927152318 9:4.805194805194805 10:4.742268041237113 11:10.0 12:0.7142857142857142 13:3.2941176470588234 14:3.0952380952380953 15:2.5 16:3.490566037735849 17:4.705882352941177 18:1.3725490196078431 19:-0.5797101449275363 20:5.170068027210885 21:2.4731182795698925 22:5.733333333333333 23:0.0 24:7.767857142857143 25:5.112781954887218 26:4.623655913978494 27:4.657534246575342 28:8.04054054054054 29:3.75 
-0.0 0.01022175070624544 0.0 0.0 0.0 0.0 0.0 0.0 0.0 1:3.8805970149253732 2:9.148936170212766 3:8.636363636363637 4:9.537037037037038 5:9.0 6:5.50561797752809 7:5.172413793103448 8:4.23841059602649 9:5.064935064935065 10:4.742268041237113 11:8.75 12:0.3571428571428571 13:3.4117647058823533 14:3.015873015873016 15:2.7777777777777777 16:3.490566037735849 17:4.705882352941177 18:2.1568627450980395 19:-0.2898550724637681 20:5.238095238095238 21:2.258064516129032 22:5.733333333333333 23:0.0 24:7.232142857142857 25:5.112781954887218 26:3.548387096774194 27:3.835616438356164 28:7.635135135135135 29:2.5 
-0.0 0.0 0.0 0.0 0.0 0.0076365293956530324 0.0 0.0 0.0 1:4.6268656716417915 2:8.936170212765957 3:8.787878787878787 4:9.537037037037038 5:12.0 6:5.393258426966292 7:5.172413793103448 8:4.304635761589404 9:5.0 10:4.742268041237113 11:8.75 12:0.3571428571428571 13:3.2941176470588234 14:3.0952380952380953 15:2.708333333333333 16:3.490566037735849 17:4.705882352941177 18:1.9607843137254901 19:-0.43478260869565216 20:5.170068027210885 21:2.258064516129032 22:5.733333333333333 23:0.0 24:7.4107142857142865 25:5.18796992481203 26:3.655913978494624 27:3.9726027397260273 28:7.635135135135135 29:3.75 
-0.0 0.0 0.0 0.0 0.0 0.0 0.0 0.0010823969403105894 0.0 1:7.164179104477611 2:8.297872340425531 3:9.09090909090909 4:9.537037037037038 5:8.0 6:4.606741573033708 7:4.597701149425287 8:4.569536423841059 9:4.87012987012987 10:4.948453608247423 11:7.5 12:-0.17857142857142855 13:3.176470588235294 14:2.9365079365079367 15:2.916666666666667 16:3.6792452830188678 17:4.705882352941177 18:2.3529411764705883 19:-0.43478260869565216 20:5.238095238095238 21:2.258064516129032 22:5.733333333333333 23:0.0 24:7.5892857142857135 25:5.263157894736842 26:4.086021505376344 27:3.5616438356164384 28:7.567567567567568 29:3.75 
-0.0 0.0 0.0 0.002514246479108688 0.00379886735688974 2.4667043614992645E-4 0.0 0.0 0.0 1:7.7611940298507465 2:7.872340425531915 3:8.93939393939394 4:9.444444444444445 5:9.0 6:4.719101123595506 7:4.597701149425287 8:4.569536423841059 9:4.935064935064935 10:4.948453608247423 11:7.5 12:0.0 13:3.176470588235294 14:3.0952380952380953 15:2.916666666666667 16:3.584905660377358 17:4.705882352941177 18:2.3529411764705883 19:-0.43478260869565216 20:5.374149659863946 21:2.150537634408602 22:5.733333333333333 23:0.0 24:7.5 25:5.18796992481203 26:3.870967741935484 27:3.4246575342465753 28:7.5 29:3.75 
-0.0056844543175282175 0.00745999283818259 0.0 0.0 0.0 0.0 0.0 0.0 0.0 1:7.313432835820896 2:8.085106382978722 3:8.93939393939394 4:9.444444444444445 5:9.0 6:4.719101123595506 7:4.597701149425287 8:4.437086092715232 9:5.0 10:4.948453608247423 11:7.5 12:0.0 13:3.176470588235294 14:3.015873015873016 15:2.986111111111111 16:3.584905660377358 17:4.705882352941177 18:2.3529411764705883 19:-0.5797101449275363 20:5.238095238095238 21:2.258064516129032 22:5.733333333333333 23:0.0 24:7.678571428571429 25:5.18796992481203 26:3.763440860215054 27:3.4246575342465753 28:7.432432432432432 29:2.5 
-0.0 0.0 0.0 0.0 2.5579742942151998E-6 0.0 0.0 0.0 0.0 1:7.611940298507463 2:7.659574468085106 3:9.242424242424242 4:9.351851851851853 5:12.0 6:4.382022471910113 7:4.367816091954023 8:4.569536423841059 9:4.87012987012987 10:4.845360824742268 11:7.5 12:0.7142857142857142 13:3.4117647058823533 14:3.1746031746031744 15:2.8472222222222223 16:3.490566037735849 17:4.705882352941177 18:1.7647058823529413 19:-0.5797101449275363 20:5.374149659863946 21:2.150537634408602 22:5.733333333333333 23:1.1111111111111112 24:6.607142857142857 25:5.037593984962406 26:3.978494623655914 27:3.4246575342465753 28:7.567567567567568 29:3.75 
-0.0 0.0027401687293346338 5.358440972465549E-4 0.0 0.0 0.0 0.0 0.0013670668860182233 0.0015774105577748404 1:5.970149253731343 2:7.872340425531915 3:8.636363636363637 4:9.351851851851853 5:7.0 6:3.2584269662921352 7:4.367816091954023 8:4.503311258278146 9:4.74025974025974 10:5.051546391752577 11:5.0 12:-0.17857142857142855 13:2.8235294117647056 14:2.9365079365079367 15:2.638888888888889 16:3.7735849056603774 17:4.705882352941177 18:2.549019607843137 19:0.0 20:5.578231292517007 21:2.043010752688172 22:6.0 23:0.0 24:7.857142857142857 25:5.263157894736842 26:4.946236559139785 27:4.10958904109589 28:7.702702702702703 29:3.75 
-0.0 0.0 0.0 0.0 0.0 0.0 0.00660144482398694 0.0 0.0 1:6.7164179104477615 2:6.808510638297872 3:6.8181818181818175 4:7.129629629629629 5:30.0 6:3.0337078651685396 7:4.137931034482759 8:4.039735099337748 9:4.675324675324675 10:4.845360824742268 11:2.5 12:-1.25 13:2.9411764705882355 14:2.698412698412698 15:3.125 16:3.3962264150943393 17:4.705882352941177 18:1.5686274509803921 19:-0.43478260869565216 20:5.578231292517007 21:2.043010752688172 22:6.0 23:0.0 24:7.678571428571429 25:5.18796992481203 26:4.731182795698925 27:4.10958904109589 28:7.77027027027027 29:2.5 
-0.0 0.0 0.0 0.0 0.0 0.0 0.0 0.0 0.0018817316714764666 1:6.7164179104477615 2:7.23404255319149 3:7.272727272727273 4:7.777777777777778 5:21.0 6:3.3707865168539324 7:4.137931034482759 8:4.304635761589404 9:4.675324675324675 10:4.948453608247423 11:3.75 12:-0.3571428571428571 13:2.8235294117647056 14:2.8571428571428568 15:2.916666666666667 16:3.584905660377358 17:4.705882352941177 18:2.3529411764705883 19:-0.14492753623188406 20:5.64625850340136 21:1.935483870967742 22:6.0 23:0.0 24:7.767857142857143 25:5.263157894736842 26:4.838709677419355 27:4.10958904109589 28:7.77027027027027 29:3.75 
-0.0 0.0 0.003961121025625792 0.0 0.0 0.0 0.0011789410131197472 0.0 0.0 1:6.119402985074627 2:7.0212765957446805 3:7.575757575757576 4:8.61111111111111 5:17.0 6:3.1460674157303368 7:4.367816091954023 8:4.304635761589404 9:4.805194805194805 10:4.948453608247423 11:3.75 12:-0.17857142857142855 13:2.8235294117647056 14:2.7777777777777777 15:2.7777777777777777 16:3.7735849056603774 17:4.705882352941177 18:2.3529411764705883 19:-0.14492753623188406 20:5.578231292517007 21:1.935483870967742 22:6.0 23:0.0 24:7.857142857142857 25:5.338345864661655 26:4.838709677419355 27:4.10958904109589 28:7.77027027027027 29:3.75 
-0.0 0.0 0.0 0.0 0.0 0.0 0.0 0.0 7.663391781462683E-4 1:5.970149253731343 2:7.0212765957446805 3:7.878787878787879 4:9.074074074074074 5:17.0 6:3.1460674157303368 7:4.597701149425287 8:4.304635761589404 9:4.87012987012987 10:4.948453608247423 11:5.0 12:0.17857142857142855 13:2.9411764705882355 14:2.7777777777777777 15:2.7777777777777777 16:3.7735849056603774 17:4.705882352941177 18:2.549019607843137 19:0.0 20:5.578231292517007 21:1.935483870967742 22:6.0 23:0.0 24:7.857142857142857 25:5.413533834586466 26:4.838709677419355 27:4.10958904109589 28:7.77027027027027 29:3.75 
-0.0 0.0 0.0 8.57504600410808E-4 0.0 0.0 0.0 9.509211659160113E-4 0.0 1:5.223880597014925 2:8.72340425531915 3:8.03030303030303 4:9.166666666666666 5:8.0 6:3.1460674157303368 7:4.482758620689655 8:4.23841059602649 9:4.805194805194805 10:4.742268041237113 11:8.75 12:0.0 13:2.9411764705882355 14:2.7777777777777777 15:2.8472222222222223 16:3.6792452830188678 17:4.705882352941177 18:2.549019607843137 19:0.0 20:5.578231292517007 21:2.043010752688172 22:6.0 23:0.0 24:7.857142857142857 25:5.413533834586466 26:4.838709677419355 27:4.10958904109589 28:7.77027027027027 29:3.75 
-0.0 -0.0 0.0 0.0 0.0 0.0 0.002712782918786879 0.0 0.0 1:4.17910447761194 2:9.361702127659575 3:8.787878787878787 4:8.61111111111111 5:5.0 6:5.280898876404494 7:4.942528735632184 8:4.900662251655629 9:4.285714285714286 10:6.494845360824742 11:1.25 12:6.607142857142857 13:5.294117647058823 14:4.444444444444445 15:1.1805555555555556 16:5.471698113207547 17:6.470588235294118 18:4.313725490196079 19:0.43478260869565216 20:5.4421768707483 21:2.150537634408602 22:6.800000000000001 23:-2.2222222222222223 24:5.892857142857143 25:3.1578947368421053 26:0.860215053763441 27:1.36986301369863 28:6.891891891891891 29:-1.25 
-0.0 -0.002299650863768775 0.0 0.0 0.0 0.0 0.0 0.0 0.0 1:5.074626865671642 2:9.574468085106384 3:8.787878787878787 4:9.166666666666666 5:5.0 6:5.50561797752809 7:5.402298850574713 8:5.231788079470199 9:4.415584415584416 10:6.494845360824742 11:2.5 12:6.9642857142857135 13:5.411764705882352 14:4.682539682539683 15:1.6666666666666665 16:5.754716981132075 17:6.470588235294118 18:4.901960784313725 19:0.5797101449275363 20:5.782312925170068 21:2.5806451612903225 22:6.666666666666666 23:-2.2222222222222223 24:6.3392857142857135 25:3.6842105263157894 26:1.720430107526882 27:2.054794520547945 28:7.297297297297297 29:0.0 
-0.0 -0.0 0.0 0.0 0.0 2.586889332877307E-4 0.0 0.0 0.0 1:5.074626865671642 2:10.0 3:9.393939393939394 4:9.25925925925926 5:4.0 6:5.730337078651685 7:5.747126436781609 8:5.430463576158941 9:4.74025974025974 10:6.701030927835051 11:2.5 12:7.142857142857143 13:5.294117647058823 14:4.841269841269841 15:2.0833333333333335 16:6.037735849056603 17:6.470588235294118 18:5.294117647058823 19:0.8695652173913043 20:6.054421768707483 21:2.6881720430107525 22:6.533333333333333 23:-2.2222222222222223 24:6.607142857142857 25:3.9849624060150375 26:2.3655913978494625 27:2.4657534246575343 28:7.432432432432432 29:0.0 
-0.0 -0.00821802744798565 0.0 0.0 0.0 0.0 0.0 0.0 0.0 1:3.432835820895522 2:9.361702127659575 3:8.484848484848484 4:9.166666666666666 5:4.0 6:5.617977528089888 7:5.517241379310345 8:5.364238410596026 9:4.48051948051948 10:6.597938144329897 11:2.5 12:6.7857142857142865 13:5.294117647058823 14:4.761904761904762 15:1.9444444444444444 16:5.943396226415095 17:6.470588235294118 18:5.098039215686274 19:0.5797101449275363 20:6.054421768707483 21:2.5806451612903225 22:6.666666666666666 23:-2.2222222222222223 24:6.517857142857143 25:3.7593984962406015 26:2.258064516129032 27:2.4657534246575343 28:7.432432432432432 29:0.0 
-0.026041376109830427 -0.0 0.0 0.0 0.0 0.0 0.0 0.0 0.0 1:7.014925373134329 2:9.361702127659575 3:9.393939393939394 4:8.703703703703704 5:5.0 6:5.393258426966292 7:5.402298850574713 8:5.629139072847682 9:4.675324675324675 10:6.701030927835051 11:2.5 12:7.321428571428571 13:5.0588235294117645 14:5.0 15:1.875 16:5.943396226415095 17:6.470588235294118 18:5.490196078431373 19:0.2898550724637681 20:6.122448979591837 21:3.010752688172043 22:6.933333333333334 23:-2.2222222222222223 24:6.696428571428571 25:3.9849624060150375 26:2.3655913978494625 27:2.602739726027397 28:7.432432432432432 29:0.0 
-0.0 -0.0 0.004347460615703632 0.0 0.0 0.0 0.0 0.0 0.0 1:7.313432835820896 2:8.51063829787234 3:9.696969696969697 4:8.24074074074074 5:5.0 6:4.831460674157303 7:5.517241379310345 8:6.4238410596026485 9:4.935064935064935 10:7.216494845360825 11:3.75 12:8.035714285714286 13:4.9411764705882355 14:5.476190476190476 15:2.4305555555555554 16:6.226415094339623 17:6.470588235294118 18:5.882352941176471 19:0.7246376811594203 20:6.938775510204081 21:3.118279569892473 22:8.533333333333333 23:0.0 24:5.7142857142857135 25:4.887218045112782 26:3.225806451612903 27:3.150684931506849 28:7.5 29:1.25 
-0.0 -0.0 0.0 0.0 0.0 0.0 5.342151402510059E-4 0.0 0.0 1:7.611940298507463 2:8.72340425531915 3:10.606060606060606 4:9.351851851851853 5:8.0 6:4.719101123595506 7:4.712643678160919 8:6.357615894039736 9:4.805194805194805 10:7.216494845360825 11:5.0 12:7.678571428571429 13:3.8823529411764706 14:5.634920634920634 15:2.361111111111111 16:6.320754716981131 17:6.470588235294118 18:5.490196078431373 19:0.2898550724637681 20:6.938775510204081 21:3.333333333333333 22:8.8 23:0.0 24:5.5357142857142865 25:4.661654135338345 26:3.333333333333333 27:3.4246575342465753 28:7.702702702702703 29:1.25 
-0.0 -2.807196444197077E-4 0.0 0.0 0.0 0.0 0.0 0.0 0.0 1:7.313432835820896 2:7.446808510638298 3:9.393939393939394 4:9.074074074074074 5:9.0 6:3.8202247191011236 7:4.022988505747127 8:6.225165562913907 9:4.155844155844156 10:7.216494845360825 11:8.75 12:6.7857142857142865 13:2.705882352941176 14:5.8730158730158735 15:2.2916666666666665 16:6.509433962264151 17:7.058823529411765 18:4.901960784313725 19:0.14492753623188406 20:6.938775510204081 21:3.333333333333333 22:9.200000000000001 23:0.0 24:5.0 25:4.661654135338345 26:3.010752688172043 27:3.287671232876712 28:7.635135135135135 29:1.25 
-0.0 -0.0 0.0014391888310166833 0.005707058823734248 0.0 0.0 0.0 0.005719563339403078 0.003875997119799895 1:7.014925373134329 2:8.936170212765957 3:11.060606060606059 4:8.61111111111111 5:7.0 6:5.393258426966292 7:6.436781609195402 8:6.4238410596026485 9:4.74025974025974 10:7.319587628865979 11:6.25 12:9.285714285714286 13:7.058823529411765 14:5.8730158730158735 15:2.569444444444444 16:6.415094339622641 17:6.470588235294118 18:6.078431372549019 19:1.0144927536231885 20:7.142857142857143 21:3.333333333333333 22:8.933333333333334 23:0.0 24:6.25 25:5.18796992481203 26:3.655913978494624 27:3.4246575342465753 28:7.702702702702703 29:1.25 
-0.0 -0.0 0.0 0.0 0.0021254476313303473 0.0 0.0 0.0 0.0 1:7.164179104477611 2:8.51063829787234 3:10.454545454545453 4:8.88888888888889 5:7.0 6:5.955056179775281 7:6.206896551724138 8:6.490066225165563 9:5.194805194805195 10:7.525773195876289 11:6.25 12:9.464285714285714 13:6.470588235294118 14:6.031746031746032 15:3.125 16:6.509433962264151 17:6.470588235294118 18:6.078431372549019 19:0.7246376811594203 20:6.802721088435374 21:3.010752688172043 22:8.4 23:0.0 24:6.607142857142857 25:4.7368421052631575 26:2.903225806451613 27:2.8767123287671232 28:7.5 29:0.0 
-0.0 -0.0 0.0 0.0 0.011616683590982045 0.004182281254025554 0.0 0.0 0.0 1:7.313432835820896 2:8.297872340425531 3:10.151515151515152 4:8.88888888888889 5:7.0 6:5.617977528089888 7:5.747126436781609 8:6.556291390728477 9:5.0 10:7.422680412371134 11:7.5 12:8.928571428571429 13:5.882352941176471 14:5.9523809523809526 15:3.055555555555556 16:6.509433962264151 17:6.470588235294118 18:5.882352941176471 19:0.5797101449275363 20:6.802721088435374 21:3.118279569892473 22:8.4 23:0.0 24:6.3392857142857135 25:4.661654135338345 26:2.903225806451613 27:2.8767123287671232 28:7.5 29:1.25 
-0.0 -0.0 0.0 0.0 0.0 2.282011729798916E-4 0.0 0.0 0.0 1:7.611940298507463 2:9.361702127659575 3:9.545454545454547 4:9.25925925925926 5:10.0 6:3.4831460674157304 7:2.413793103448276 8:6.556291390728477 9:5.064935064935065 10:7.525773195876289 11:11.25 12:6.607142857142857 13:2.9411764705882355 14:6.111111111111112 15:3.263888888888889 16:7.075471698113207 17:7.058823529411765 18:5.490196078431373 19:-0.14492753623188406 20:6.802721088435374 21:3.978494623655914 22:9.200000000000001 23:0.0 24:6.071428571428571 25:4.586466165413533 26:3.118279569892473 27:3.150684931506849 28:7.567567567567568 29:1.25 
-0.0 -0.0022298325807496447 0.0 0.0 0.0 0.0 0.0 0.0 0.0 1:7.7611940298507465 2:8.51063829787234 3:9.09090909090909 4:8.981481481481481 5:10.0 6:4.157303370786517 7:2.1839080459770117 8:6.357615894039736 9:4.220779220779221 10:7.422680412371134 11:11.25 12:6.428571428571429 13:2.8235294117647056 14:5.9523809523809526 15:2.361111111111111 16:6.69811320754717 17:7.058823529411765 18:5.686274509803921 19:-0.2898550724637681 20:7.006802721088436 21:3.118279569892473 22:9.333333333333334 23:0.0 24:5.7142857142857135 25:4.661654135338345 26:3.333333333333333 27:3.287671232876712 28:7.702702702702703 29:1.25 
-0.0 -0.007393681736838885 0.0 0.0 0.0 0.0 0.0 0.0 0.0 1:7.014925373134329 2:8.085106382978722 3:8.636363636363637 4:8.88888888888889 5:12.0 6:3.3707865168539324 7:1.3793103448275863 8:6.357615894039736 9:4.6103896103896105 10:7.422680412371134 11:12.5 12:5.5357142857142865 13:2.9411764705882355 14:5.8730158730158735 15:2.7777777777777777 16:6.886792452830188 17:7.647058823529411 18:5.294117647058823 19:-0.43478260869565216 20:6.870748299319728 21:3.548387096774194 22:10.4 23:0.0 24:5.5357142857142865 25:4.7368421052631575 26:3.010752688172043 27:3.013698630136986 28:7.567567567567568 29:0.0 
-0.005470656546410215 -0.0 0.0 0.0 0.0 0.0 0.0 0.0 0.0 1:8.35820895522388 2:9.574468085106384 3:10.757575757575758 4:9.537037037037038 5:8.0 6:5.280898876404494 7:4.367816091954023 8:6.225165562913907 9:4.025974025974026 10:7.113402061855671 11:7.5 12:7.678571428571429 13:4.588235294117647 14:5.793650793650794 15:2.0833333333333335 16:6.320754716981131 17:6.470588235294118 18:6.078431372549019 19:0.43478260869565216 20:7.006802721088436 21:3.010752688172043 22:8.133333333333333 23:0.0 24:6.1607142857142865 25:4.81203007518797 26:3.655913978494624 27:3.4246575342465753 28:7.837837837837838 29:1.25 
-0.0 -0.0 0.0 0.0 0.0 0.0011169180842510668 0.0 0.0 0.0 1:8.059701492537313 2:8.72340425531915 3:10.606060606060606 4:9.62962962962963 5:8.0 6:4.719101123595506 7:3.9080459770114944 8:6.490066225165563 9:4.285714285714286 10:7.216494845360825 11:7.5 12:7.678571428571429 13:3.4117647058823533 14:5.8730158730158735 15:2.4305555555555554 16:6.509433962264151 17:7.058823529411765 18:5.490196078431373 19:0.14492753623188406 20:7.006802721088436 21:3.440860215053764 22:8.533333333333333 23:0.0 24:5.357142857142857 25:4.7368421052631575 26:3.440860215053764 27:3.698630136986301 28:7.837837837837838 29:2.5 
-0.0 -0.0 0.0 3.572203728247778E-4 0.0 1.6354881018635888E-4 0.0 0.0 0.0019280000115945652 1:7.7611940298507465 2:8.51063829787234 3:10.303030303030303 4:9.444444444444445 5:9.0 6:4.157303370786517 7:2.6436781609195403 8:6.754966887417218 9:5.0 10:7.422680412371134 11:8.75 12:7.321428571428571 13:3.058823529411765 14:6.111111111111112 15:2.7777777777777777 16:6.69811320754717 17:7.058823529411765 18:5.294117647058823 19:0.2898550724637681 20:7.074829931972789 21:3.870967741935484 22:8.8 23:0.0 24:5.178571428571429 25:4.887218045112782 26:3.655913978494624 27:3.9726027397260273 28:7.837837837837838 29:2.5 
-0.0 -0.0 0.0 0.0 0.0 0.002062518948925433 0.0 0.0 0.0 1:7.611940298507463 2:8.085106382978722 3:10.151515151515152 4:9.351851851851853 5:9.0 6:4.044943820224719 7:2.413793103448276 8:6.688741721854305 9:4.805194805194805 10:7.422680412371134 11:10.0 12:7.321428571428571 13:3.058823529411765 14:6.031746031746032 15:2.638888888888889 16:6.69811320754717 17:7.058823529411765 18:5.098039215686274 19:0.2898550724637681 20:7.074829931972789 21:3.870967741935484 22:9.066666666666666 23:0.0 24:5.178571428571429 25:4.887218045112782 26:3.548387096774194 27:3.835616438356164 28:7.77027027027027 29:2.5 
-0.008420185894644664 -0.0017088695629062353 -0.003640880695380027 0.0 0.002896290765497937 0.0 1.3417537358635645E-4 0.0 0.0 1:8.955223880597016 2:8.297872340425531 3:5.909090909090909 4:5.7407407407407405 5:15.0 6:7.865168539325843 7:9.655172413793103 8:8.079470198675496 9:7.272727272727273 10:8.041237113402062 11:-3.75 12:8.392857142857142 13:8.0 14:6.26984126984127 15:4.930555555555555 16:5.0 17:10.0 18:7.647058823529411 19:6.811594202898551 20:7.006802721088436 21:5.483870967741935 22:5.2 23:4.444444444444445 24:7.232142857142857 25:8.270676691729323 26:8.494623655913978 27:8.493150684931507 28:8.513513513513512 29:0.0 
-0.0 -0.0 -0.0 0.001576916568736015 0.0 0.0 0.0 0.0049054761677795105 0.00735907633727252 1:8.955223880597016 2:8.297872340425531 3:5.757575757575758 4:5.648148148148148 5:14.0 6:7.865168539325843 7:9.655172413793103 8:8.145695364238412 9:7.272727272727273 10:8.041237113402062 11:-3.75 12:8.214285714285714 13:8.0 14:6.349206349206349 15:4.861111111111111 16:5.09433962264151 17:10.0 18:7.647058823529411 19:6.811594202898551 20:7.210884353741497 21:5.591397849462365 22:5.466666666666667 23:4.444444444444445 24:7.4107142857142865 25:8.345864661654135 26:8.709677419354838 27:8.904109589041095 28:8.783783783783784 29:1.25 
-0.0 -0.0 -0.0 0.0012204518172722393 0.0 0.0 0.0 0.0017986646844768024 0.0 1:8.805970149253731 2:8.297872340425531 3:5.909090909090909 4:5.925925925925926 5:3.0 6:7.752808988764045 7:9.540229885057471 8:8.145695364238412 9:7.142857142857143 10:7.731958762886598 11:-2.5 12:8.035714285714286 13:7.764705882352941 14:6.111111111111112 15:4.791666666666667 16:4.716981132075472 17:8.235294117647058 18:7.450980392156863 19:6.666666666666666 20:6.258503401360544 21:4.838709677419355 22:5.2 23:14.444444444444445 24:6.517857142857143 25:7.819548872180451 26:7.634408602150538 27:7.260273972602739 28:6.6891891891891895 29:7.5 
-0.0 -0.0 -0.0021457687513402896 0.0 0.0 0.0 0.0 0.0 0.0 1:8.805970149253731 2:8.297872340425531 3:5.909090909090909 4:5.833333333333334 5:3.0 6:7.640449438202247 7:9.540229885057471 8:8.145695364238412 9:7.142857142857143 10:7.731958762886598 11:-2.5 12:8.035714285714286 13:7.764705882352941 14:6.111111111111112 15:4.791666666666667 16:4.716981132075472 17:8.235294117647058 18:7.450980392156863 19:6.666666666666666 20:6.258503401360544 21:4.838709677419355 22:5.2 23:14.444444444444445 24:6.517857142857143 25:7.819548872180451 26:7.634408602150538 27:7.260273972602739 28:6.6891891891891895 29:7.5 
-0.0 -0.0 -0.0 0.0 0.003392577132460534 5.686232020991239E-5 0.0 0.0 0.0 1:8.35820895522388 2:8.085106382978722 3:6.0606060606060606 4:6.018518518518519 5:15.0 6:7.97752808988764 7:9.655172413793103 8:8.145695364238412 9:7.272727272727273 10:7.731958762886598 11:-1.25 12:8.035714285714286 13:7.764705882352941 14:6.111111111111112 15:4.791666666666667 16:4.622641509433962 17:8.823529411764707 18:7.647058823529411 19:6.666666666666666 20:6.326530612244898 21:4.946236559139785 22:5.333333333333333 23:11.11111111111111 24:6.696428571428571 25:7.969924812030075 26:7.741935483870968 27:7.260273972602739 28:6.824324324324325 29:7.5 
-0.0 -0.0 -0.0 0.0 0.0 0.0 0.002216116432267229 0.0 0.0 1:8.208955223880597 2:7.872340425531915 3:6.0606060606060606 4:6.018518518518519 5:15.0 6:7.865168539325843 7:9.540229885057471 8:8.145695364238412 9:7.272727272727273 10:7.731958762886598 11:-2.5 12:7.857142857142857 13:7.764705882352941 14:6.111111111111112 15:4.791666666666667 16:4.622641509433962 17:8.235294117647058 18:7.647058823529411 19:6.666666666666666 20:6.326530612244898 21:4.946236559139785 22:5.333333333333333 23:10.0 24:6.696428571428571 25:7.969924812030075 26:7.741935483870968 27:7.260273972602739 28:6.891891891891891 29:6.25 
-0.0 -0.0 -0.0 0.0 0.0 0.00283942747594098 2.412289862262104E-4 0.0 0.0 1:6.567164179104478 2:6.382978723404255 3:6.515151515151515 4:6.111111111111112 5:15.0 6:8.314606741573034 7:9.655172413793103 8:8.211920529801324 9:7.337662337662337 10:7.835051546391752 11:-2.5 12:7.678571428571429 13:7.764705882352941 14:6.190476190476191 15:4.791666666666667 16:4.622641509433962 17:8.823529411764707 18:7.647058823529411 19:6.811594202898551 20:6.394557823129253 21:4.946236559139785 22:5.333333333333333 23:8.88888888888889 24:6.875 25:8.120300751879698 26:7.956989247311828 27:7.534246575342466 28:7.094594594594595 29:6.25 
-0.0 -0.002788095559966111 -0.0 0.0 0.0 0.0 0.0 0.0 0.0 1:6.567164179104478 2:6.382978723404255 3:6.515151515151515 4:6.111111111111112 5:15.0 6:8.314606741573034 7:9.655172413793103 8:8.211920529801324 9:7.272727272727273 10:7.835051546391752 11:-2.5 12:7.678571428571429 13:7.764705882352941 14:6.190476190476191 15:4.791666666666667 16:4.622641509433962 17:8.823529411764707 18:7.647058823529411 19:6.811594202898551 20:6.394557823129253 21:4.946236559139785 22:5.333333333333333 23:8.88888888888889 24:6.9642857142857135 25:8.120300751879698 26:7.956989247311828 27:7.534246575342466 28:7.094594594594595 29:6.25 
-0.0 -0.0 -0.0 0.003670343651039559 0.0 0.0 0.0 0.0 0.0015024451937698854 1:6.567164179104478 2:6.595744680851063 3:6.515151515151515 4:6.111111111111112 5:15.0 6:8.42696629213483 7:9.770114942528735 8:8.145695364238412 9:7.337662337662337 10:7.835051546391752 11:-2.5 12:8.214285714285714 13:7.764705882352941 14:6.111111111111112 15:4.861111111111111 16:4.622641509433962 17:7.647058823529411 18:8.03921568627451 19:6.811594202898551 20:6.326530612244898 21:4.946236559139785 22:5.333333333333333 23:11.11111111111111 24:6.7857142857142865 25:8.045112781954888 26:7.741935483870968 27:7.534246575342466 28:7.027027027027027 29:10.0 
-0.0 -0.0 -0.0 -0.0 0.0 0.002441766261137363 0.0 0.0 0.0 1:9.552238805970148 2:10.0 3:5.6060606060606055 4:5.0 5:10.0 6:9.101123595505618 7:8.045977011494253 8:9.271523178807946 9:9.805194805194805 10:10.103092783505154 11:15.0 12:8.571428571428571 13:8.235294117647058 14:8.174603174603174 15:8.472222222222221 16:8.49056603773585 17:5.882352941176471 18:10.392156862745098 19:7.391304347826086 20:7.551020408163264 21:6.236559139784946 22:8.0 23:0.0 24:7.4107142857142865 25:7.7443609022556394 26:6.774193548387096 27:6.712328767123288 28:6.351351351351351 29:10.0 
-0.0 -4.173918573892938E-4 -0.0 -0.0 0.0011696109972473205 0.0 0.0 0.0 0.0 1:9.552238805970148 2:10.0 3:5.6060606060606055 4:5.0925925925925934 5:10.0 6:9.101123595505618 7:8.045977011494253 8:9.271523178807946 9:9.805194805194805 10:10.103092783505154 11:13.75 12:8.571428571428571 13:8.235294117647058 14:8.174603174603174 15:8.472222222222221 16:8.49056603773585 17:5.882352941176471 18:10.392156862745098 19:7.536231884057971 20:7.619047619047619 21:6.344086021505376 22:8.0 23:0.0 24:7.5 25:7.894736842105264 26:6.881720430107528 27:6.712328767123288 28:6.486486486486487 29:8.75 
-0.004075112548477343 -0.0 -0.0 -0.0 0.0 0.0 0.0 0.0 0.0 1:9.552238805970148 2:10.0 3:5.454545454545454 4:5.0925925925925934 5:10.0 6:9.213483146067416 7:8.275862068965518 8:9.205298013245034 9:9.805194805194805 10:10.0 11:13.75 12:8.571428571428571 13:8.235294117647058 14:8.253968253968253 15:8.472222222222221 16:8.39622641509434 17:5.294117647058823 18:10.980392156862745 19:7.826086956521739 20:7.619047619047619 21:6.344086021505376 22:7.733333333333333 23:-1.1111111111111112 24:7.321428571428571 25:7.819548872180451 26:6.989247311827958 27:7.123287671232877 28:6.824324324324325 29:7.5 
-0.0 -0.0 -0.0 -0.0 0.0 2.8742114198342697E-4 0.0 0.0 0.0 1:9.701492537313433 2:10.212765957446807 3:5.6060606060606055 4:4.722222222222222 5:10.0 6:8.764044943820226 7:7.471264367816092 8:9.139072847682119 9:9.805194805194805 10:10.0 11:12.5 12:8.214285714285714 13:7.764705882352941 14:8.015873015873016 15:8.680555555555555 16:8.39622641509434 17:5.294117647058823 18:9.80392156862745 19:6.086956521739131 20:7.482993197278912 21:6.129032258064516 22:7.199999999999999 23:2.2222222222222223 24:6.696428571428571 25:7.293233082706767 26:6.236559139784946 27:6.575342465753424 28:5.743243243243244 29:18.75 
-0.0 -0.0 -0.0 -0.0011011418273358304 0.0 0.0 0.0 0.0 0.0 1:9.402985074626866 2:10.0 3:5.454545454545454 4:5.185185185185185 5:10.0 6:9.775280898876403 7:9.080459770114942 8:8.874172185430464 9:9.61038961038961 10:9.175257731958762 11:6.25 12:9.642857142857142 13:9.058823529411764 14:8.095238095238095 15:7.708333333333334 16:8.11320754716981 17:4.705882352941177 18:10.196078431372548 19:6.231884057971015 20:7.687074829931973 21:6.666666666666666 22:7.066666666666666 23:2.2222222222222223 24:7.053571428571429 25:7.2180451127819545 26:6.666666666666666 27:6.986301369863014 28:6.283783783783784 29:17.5 
-0.0 -0.0 -0.0 -0.0 0.0 0.0 0.0014044326743394215 0.0 0.0 1:9.552238805970148 2:10.212765957446807 3:5.454545454545454 4:5.185185185185185 5:10.0 6:9.438202247191011 7:8.390804597701148 8:8.874172185430464 9:9.74025974025974 10:9.587628865979381 11:6.25 12:9.107142857142858 13:8.470588235294118 14:8.174603174603174 15:8.680555555555555 16:8.39622641509434 17:4.117647058823529 18:9.80392156862745 19:6.3768115942028984 20:7.82312925170068 21:7.096774193548388 22:7.466666666666667 23:2.2222222222222223 24:7.053571428571429 25:7.06766917293233 26:6.774193548387096 27:6.986301369863014 28:6.418918918918919 29:16.25 
-0.0 -0.0 -0.0 -0.00278178173727477 0.0 0.0 0.0 0.0 0.0 1:9.552238805970148 2:10.212765957446807 3:5.454545454545454 4:5.185185185185185 5:10.0 6:9.325842696629213 7:8.275862068965518 8:8.940397350993377 9:9.74025974025974 10:9.690721649484535 11:6.25 12:9.107142857142858 13:8.352941176470589 14:8.253968253968253 15:8.680555555555555 16:8.39622641509434 17:4.705882352941177 18:9.607843137254902 19:6.3768115942028984 20:7.891156462585034 21:7.096774193548388 22:7.466666666666667 23:2.2222222222222223 24:7.053571428571429 25:7.06766917293233 26:6.774193548387096 27:6.986301369863014 28:6.418918918918919 29:16.25 
-0.0 -0.0 -0.0 -0.0 0.0 8.390467368080592E-4 0.0 0.0 0.0 1:10.0 2:11.063829787234043 3:5.909090909090909 4:5.833333333333334 5:9.0 6:8.876404494382022 7:7.931034482758621 8:8.940397350993377 9:9.74025974025974 10:9.690721649484535 11:11.25 12:8.392857142857142 13:8.235294117647058 14:8.174603174603174 15:8.61111111111111 16:8.49056603773585 17:4.117647058823529 18:9.80392156862745 19:6.666666666666666 20:7.82312925170068 21:6.881720430107528 22:8.133333333333333 23:0.0 24:7.053571428571429 25:7.2180451127819545 26:6.989247311827958 27:7.123287671232877 28:6.824324324324325 29:12.5 
-0.0 -0.0 -0.0 -0.0 0.003883782483821851 0.0 0.0 0.0 0.0 1:10.0 2:11.063829787234043 3:6.0606060606060606 4:6.018518518518519 5:9.0 6:8.876404494382022 7:8.160919540229886 8:8.940397350993377 9:9.805194805194805 10:9.690721649484535 11:10.0 12:8.571428571428571 13:8.352941176470589 14:8.174603174603174 15:8.61111111111111 16:8.49056603773585 17:4.117647058823529 18:9.80392156862745 19:6.811594202898551 20:7.891156462585034 21:6.989247311827958 22:8.266666666666666 23:0.0 24:7.142857142857143 25:7.2180451127819545 26:7.096774193548388 27:7.260273972602739 28:7.027027027027027 29:11.25 
-0.0 -0.001033931600489057 -0.0 -0.0 0.013383051330911735 0.0 0.0 0.0 0.0 1:10.0 2:10.851063829787233 3:5.909090909090909 4:5.925925925925926 5:9.0 6:8.98876404494382 7:8.275862068965518 8:8.940397350993377 9:9.805194805194805 10:9.79381443298969 11:10.0 12:8.571428571428571 13:8.470588235294118 14:8.174603174603174 15:8.61111111111111 16:8.49056603773585 17:4.117647058823529 18:9.607843137254902 19:6.956521739130435 20:7.959183673469388 21:7.204301075268818 22:8.4 23:0.0 24:7.232142857142857 25:7.293233082706767 26:7.204301075268818 27:7.397260273972602 28:7.22972972972973 29:10.0 
-0.0 -0.002265066525735451 -0.0060642791965590265 -0.0 0.0 0.0 0.0 0.0 0.0 1:9.850746268656716 2:10.638297872340425 3:5.6060606060606055 4:5.833333333333334 5:8.0 6:8.98876404494382 7:8.275862068965518 8:9.006622516556291 9:9.805194805194805 10:9.690721649484535 11:8.75 12:8.75 13:8.588235294117647 14:8.253968253968253 15:8.61111111111111 16:8.49056603773585 17:3.5294117647058827 18:9.607843137254902 19:7.101449275362319 20:8.027210884353742 21:7.311827956989248 22:8.533333333333333 23:0.0 24:7.321428571428571 25:7.368421052631579 26:7.311827956989248 27:7.945205479452055 28:7.635135135135135 29:8.75 
-0.0 -0.0 -0.0 -0.002584788472437213 0.0 0.0 3.205129445061798E-4 0.0 0.014501968708108371 1:9.552238805970148 2:10.212765957446807 3:5.303030303030303 4:5.648148148148148 5:8.0 6:9.101123595505618 7:8.275862068965518 8:9.006622516556291 9:9.805194805194805 10:9.690721649484535 11:7.5 12:8.75 13:8.823529411764707 14:8.333333333333334 15:8.680555555555555 16:8.49056603773585 17:3.5294117647058827 18:9.607843137254902 19:7.246376811594203 20:8.16326530612245 21:7.526881720430108 22:8.533333333333333 23:0.0 24:7.5892857142857135 25:7.443609022556391 26:7.311827956989248 27:8.493150684931507 28:7.905405405405405 29:8.75 
-0.0 -0.0 -0.0 -0.0 0.0 0.0 0.0 0.09790558542629382 0.0031870056620005712 1:9.552238805970148 2:10.425531914893618 3:5.454545454545454 4:5.833333333333334 5:8.0 6:9.325842696629213 7:8.620689655172413 8:9.139072847682119 9:9.935064935064936 10:9.896907216494846 11:7.5 12:8.928571428571429 13:9.294117647058824 14:8.492063492063492 15:8.958333333333334 16:8.679245283018869 17:3.5294117647058827 18:9.80392156862745 19:7.391304347826086 20:8.435374149659864 21:7.849462365591398 22:8.8 23:0.0 24:7.857142857142857 25:7.443609022556391 26:7.634408602150538 27:9.58904109589041 28:8.513513513513512 29:8.75 
-0.0 -0.0 -0.0 -0.0 0.0 0.0 0.0 0.0038564625881173957 0.0 1:9.552238805970148 2:10.425531914893618 3:5.454545454545454 4:6.018518518518519 5:8.0 6:9.55056179775281 7:8.735632183908047 8:9.205298013245034 9:9.935064935064936 10:9.896907216494846 11:7.5 12:9.107142857142858 13:9.294117647058824 14:8.650793650793652 15:9.027777777777779 16:8.773584905660378 17:3.5294117647058827 18:9.607843137254902 19:7.391304347826086 20:8.435374149659864 21:7.849462365591398 22:8.666666666666668 23:0.0 24:7.767857142857143 25:7.443609022556391 26:7.526881720430108 27:9.178082191780822 28:8.378378378378379 29:8.75 
-0.0 -0.0 -0.0 -0.0 0.0 0.001005467942038317 0.0 0.0 0.0 1:8.656716417910447 2:8.72340425531915 3:4.090909090909091 4:3.1481481481481484 5:6.0 6:8.202247191011235 7:6.551724137931034 8:8.675496688741722 9:9.545454545454547 10:9.381443298969073 11:40.0 12:8.035714285714286 13:6.9411764705882355 14:7.936507936507936 15:8.333333333333334 16:8.11320754716981 17:6.470588235294118 18:10.196078431372548 19:5.507246376811594 20:7.755102040816326 21:6.881720430107528 22:7.733333333333333 23:2.2222222222222223 24:7.321428571428571 25:6.842105263157895 26:6.881720430107528 27:5.616438356164384 28:4.121621621621622 29:22.5 
-0.0 -0.0 -0.0 -0.0 -0.0 0.002056909821241549 0.0 0.0 0.0 1:9.552238805970148 2:10.0 3:12.272727272727273 4:10.462962962962962 5:3.0 6:8.202247191011235 7:5.862068965517241 8:9.205298013245034 9:9.74025974025974 10:9.896907216494846 11:10.0 12:10.535714285714286 13:9.411764705882353 14:9.603174603174603 15:9.86111111111111 16:10.471698113207548 17:9.411764705882353 18:3.9215686274509802 19:0.7246376811594203 20:7.346938775510204 21:5.376344086021505 22:7.199999999999999 23:0.0 24:3.3035714285714284 25:4.285714285714286 26:4.516129032258064 27:5.47945205479452 28:5.472972972972973 29:11.25 
-0.0 -0.0 -0.0 -0.0 -0.0 0.0 6.565642923168251E-5 0.0 0.0 1:8.35820895522388 2:7.23404255319149 3:12.575757575757576 4:10.277777777777777 5:3.0 6:8.089887640449438 7:5.977011494252874 8:9.271523178807946 9:9.74025974025974 10:9.896907216494846 11:8.75 12:10.535714285714286 13:9.529411764705882 14:9.603174603174603 15:9.652777777777779 16:10.471698113207548 17:9.411764705882353 18:4.117647058823529 19:1.0144927536231885 20:7.482993197278912 21:5.376344086021505 22:7.333333333333333 23:0.0 24:3.0357142857142856 25:4.511278195488721 26:4.408602150537634 27:5.47945205479452 28:5.27027027027027 29:11.25 
-0.0 -5.406698067546327E-4 -0.0 -0.0 -0.0 0.0 0.0 0.0 0.0 1:6.567164179104478 2:6.595744680851063 3:12.878787878787879 4:10.092592592592593 5:3.0 6:7.97752808988764 7:6.206896551724138 8:9.33774834437086 9:9.545454545454547 10:9.896907216494846 11:10.0 12:10.535714285714286 13:9.647058823529411 14:9.682539682539682 15:9.51388888888889 16:10.566037735849056 17:9.411764705882353 18:3.9215686274509802 19:1.3043478260869565 20:7.551020408163264 21:5.376344086021505 22:7.333333333333333 23:0.0 24:2.9464285714285716 25:4.511278195488721 26:4.516129032258064 27:5.616438356164384 28:5.27027027027027 29:11.25 
-0.0 -0.0 -7.839983929133871E-4 -0.0 -0.0 0.0 0.0 0.0 0.0 1:8.35820895522388 2:7.0212765957446805 3:13.03030303030303 4:10.092592592592593 5:4.0 6:8.202247191011235 7:6.32183908045977 8:9.33774834437086 9:9.61038961038961 10:10.0 11:8.75 12:10.714285714285714 13:9.76470588235294 14:9.761904761904761 15:9.51388888888889 16:10.566037735849056 17:9.411764705882353 18:4.117647058823529 19:1.3043478260869565 20:7.482993197278912 21:5.376344086021505 22:7.333333333333333 23:0.0 24:3.2142857142857144 25:4.586466165413533 26:4.623655913978494 27:5.616438356164384 28:5.337837837837838 29:7.5 
-0.0 -0.0 -5.235237383379081E-4 -0.0 -0.0 0.0 0.0 0.0 0.0 1:7.7611940298507465 2:7.659574468085106 3:13.03030303030303 4:10.092592592592593 5:5.0 6:8.314606741573034 7:6.551724137931034 8:9.403973509933776 9:9.545454545454547 10:10.0 11:8.75 12:10.714285714285714 13:9.882352941176471 14:9.84126984126984 15:9.51388888888889 16:10.566037735849056 17:9.411764705882353 18:4.117647058823529 19:1.3043478260869565 20:7.482993197278912 21:5.376344086021505 22:7.199999999999999 23:0.0 24:3.125 25:4.586466165413533 26:4.623655913978494 27:5.47945205479452 28:5.472972972972973 29:7.5 
-0.0 -0.0 -0.0 -0.0 -0.0 0.0016090979732074732 0.0 0.0 0.0 1:10.0 2:11.702127659574469 3:15.0 4:10.0 5:6.0 6:8.764044943820226 7:7.586206896551724 8:9.271523178807946 9:10.064935064935066 10:9.690721649484535 11:12.5 12:11.785714285714286 13:12.23529411764706 14:9.84126984126984 15:9.583333333333334 16:10.0 17:8.235294117647058 18:6.078431372549019 19:2.898550724637681 20:5.986394557823129 21:3.440860215053764 22:4.533333333333333 23:-2.2222222222222223 24:5.892857142857143 25:5.112781954887218 26:4.516129032258064 27:5.342465753424658 28:4.45945945945946 29:16.25 
-0.0 -0.0 -0.0 -0.0 -0.004123067702526445 0.0 0.0 0.0 0.0 1:11.791044776119403 2:10.851063829787233 3:9.848484848484848 4:9.62962962962963 5:7.0 6:8.314606741573034 7:5.402298850574713 8:9.205298013245034 9:10.0 10:9.690721649484535 11:15.0 12:10.892857142857142 13:10.352941176470589 14:9.761904761904761 15:9.51388888888889 16:10.09433962264151 17:7.647058823529411 18:5.294117647058823 19:1.5942028985507246 20:6.326530612244898 21:3.655913978494624 22:5.066666666666667 23:2.2222222222222223 24:5.178571428571429 25:4.661654135338345 26:5.053763440860215 27:5.89041095890411 28:3.716216216216216 29:12.5 
-0.0 -3.143769006378867E-4 -0.0 -9.522103533092542E-6 -0.0 0.0 0.0 0.0 0.0 1:9.402985074626866 2:7.872340425531915 3:10.909090909090908 4:10.0 5:22.0 6:8.202247191011235 7:6.32183908045977 8:9.271523178807946 9:10.064935064935066 10:9.587628865979381 11:10.0 12:-56.42857142857143 13:-34.470588235294116 14:-20.238095238095237 15:-16.25 16:-25.37735849056604 17:-210.58823529411765 18:5.294117647058823 19:3.0434782608695654 20:5.374149659863946 21:3.333333333333333 22:5.333333333333333 23:2.2222222222222223 24:5.267857142857143 25:4.7368421052631575 26:4.301075268817204 27:5.342465753424658 28:3.4459459459459456 29:2.5 
-0.0 -0.0 -5.918974958072801E-4 -0.0 -0.0 0.0 0.0 0.0 0.0 1:9.850746268656716 2:9.361702127659575 3:11.060606060606059 4:10.0 5:17.0 6:8.314606741573034 7:6.666666666666666 8:9.403973509933776 9:9.805194805194805 10:9.484536082474227 11:7.5 12:10.178571428571427 13:9.294117647058824 14:9.285714285714286 15:9.791666666666666 16:9.716981132075471 17:8.235294117647058 18:5.098039215686274 19:3.1884057971014492 20:5.374149659863946 21:3.440860215053764 22:5.333333333333333 23:1.1111111111111112 24:5.5357142857142865 25:4.7368421052631575 26:4.193548387096774 27:5.47945205479452 28:3.918918918918919 29:1.25 
-0.0 -0.0 -0.0011040361707115175 -0.0 -0.0 0.0 0.0 0.0 0.0 1:9.850746268656716 2:9.148936170212766 3:11.060606060606059 4:10.0 5:17.0 6:8.314606741573034 7:6.666666666666666 8:9.403973509933776 9:9.805194805194805 10:9.484536082474227 11:7.5 12:10.178571428571427 13:9.294117647058824 14:9.285714285714286 15:9.791666666666666 16:9.716981132075471 17:8.235294117647058 18:5.098039215686274 19:3.1884057971014492 20:5.4421768707483 21:3.440860215053764 22:5.333333333333333 23:1.1111111111111112 24:5.5357142857142865 25:4.7368421052631575 26:4.193548387096774 27:5.47945205479452 28:3.918918918918919 29:1.25 
-0.0 -0.0 -0.0 -0.0 -0.0 0.0 0.0014707781911241207 0.0 0.0 1:7.462686567164179 2:8.297872340425531 3:11.818181818181818 4:10.185185185185187 5:25.0 6:8.202247191011235 7:6.781609195402298 8:9.33774834437086 9:9.935064935064936 10:9.484536082474227 11:7.5 12:10.357142857142858 13:9.411764705882353 14:9.444444444444445 15:9.722222222222221 16:9.81132075471698 17:8.235294117647058 18:4.901960784313725 19:3.1884057971014492 20:5.5102040816326525 21:3.440860215053764 22:5.333333333333333 23:1.1111111111111112 24:5.0892857142857135 25:4.7368421052631575 26:3.978494623655914 27:5.47945205479452 28:3.716216216216216 29:2.5 
-0.0 -0.0 -0.0 -0.0 -0.0 0.0 0.0016282994073021184 0.0 0.0 1:6.7164179104477615 2:8.297872340425531 3:11.96969696969697 4:10.092592592592593 5:24.0 6:8.202247191011235 7:6.8965517241379315 8:9.403973509933776 9:9.87012987012987 10:9.484536082474227 11:7.5 12:10.357142857142858 13:9.411764705882353 14:9.444444444444445 15:9.722222222222221 16:9.81132075471698 17:8.235294117647058 18:5.294117647058823 19:3.333333333333333 20:5.578231292517007 21:3.333333333333333 22:5.333333333333333 23:1.1111111111111112 24:5.0 25:4.7368421052631575 26:3.978494623655914 27:5.616438356164384 28:3.6486486486486487 29:3.75 
-0.0 -0.001922850566552947 -0.0 -0.0 -0.0 4.912928922709153E-4 0.0 0.0 0.0 1:10.746268656716417 2:11.063829787234043 3:12.575757575757576 4:10.277777777777777 5:34.0 6:7.752808988764045 7:7.701149425287356 8:9.33774834437086 9:10.324675324675326 10:9.690721649484535 11:10.0 12:9.464285714285714 13:9.882352941176471 14:9.365079365079366 15:10.0 16:9.90566037735849 17:12.352941176470589 18:4.705882352941177 19:2.898550724637681 20:5.5102040816326525 21:3.870967741935484 22:4.133333333333333 23:4.444444444444445 24:6.1607142857142865 25:4.962406015037594 26:4.086021505376344 27:5.616438356164384 28:3.716216216216216 29:2.5 
-0.0 -0.0 -0.0 -0.0 -0.0 0.0 6.577026179248914E-5 0.0 0.0 1:8.507462686567164 2:7.659574468085106 3:13.333333333333332 4:10.277777777777777 5:31.0 6:8.314606741573034 7:7.241379310344827 8:9.403973509933776 9:10.064935064935066 10:9.690721649484535 11:7.5 12:9.464285714285714 13:8.941176470588236 14:9.365079365079366 15:9.791666666666666 16:9.81132075471698 17:7.058823529411765 18:4.705882352941177 19:2.753623188405797 20:6.054421768707483 21:3.978494623655914 22:4.666666666666667 23:0.0 24:5.357142857142857 25:5.037593984962406 26:4.516129032258064 27:5.89041095890411 28:4.256756756756756 29:2.5 
-0.0 -0.0 -0.0 -0.0023291440233514046 -0.0 0.0 0.0 0.0 0.0 1:6.7164179104477615 2:7.446808510638298 3:12.272727272727273 4:10.185185185185187 5:31.0 6:8.314606741573034 7:7.586206896551724 8:9.470198675496688 9:9.935064935064936 10:9.587628865979381 11:8.75 12:9.821428571428571 13:9.647058823529411 14:9.444444444444445 15:9.51388888888889 16:9.81132075471698 17:7.058823529411765 18:4.901960784313725 19:3.0434782608695654 20:6.054421768707483 21:4.086021505376344 22:4.933333333333334 23:5.555555555555555 24:5.982142857142857 25:5.112781954887218 26:4.516129032258064 27:5.7534246575342465 28:4.121621621621622 29:2.5 
-0.0 -0.0 -2.664909967118537E-4 -0.0 -0.0 4.206724163948365E-4 0.0 0.0 0.0 1:6.119402985074627 2:7.872340425531915 3:12.727272727272727 4:10.092592592592593 5:8.0 6:8.651685393258427 7:8.390804597701148 8:9.801324503311259 9:9.415584415584416 10:9.896907216494846 11:10.0 12:-56.42857142857143 13:-34.470588235294116 14:-20.238095238095237 15:-16.25 16:-25.37735849056604 17:-210.58823529411765 18:4.901960784313725 19:2.898550724637681 20:5.918367346938775 21:3.978494623655914 22:4.8 23:2.2222222222222223 24:6.1607142857142865 25:4.962406015037594 26:4.193548387096774 27:5.47945205479452 28:4.594594594594595 29:1.25 
-1.1628870457036819E-4 -0.0 -0.0 -0.0 -0.0 0.0 0.0 0.0 0.0 1:10.44776119402985 2:10.638297872340425 3:12.727272727272727 4:10.277777777777777 5:24.0 6:8.539325842696629 7:8.045977011494253 8:9.536423841059602 9:9.675324675324676 10:10.0 11:8.75 12:-56.42857142857143 13:-34.470588235294116 14:-20.238095238095237 15:-16.25 16:-25.37735849056604 17:-210.58823529411765 18:5.098039215686274 19:2.898550724637681 20:5.986394557823129 21:3.978494623655914 22:4.8 23:0.0 24:6.25 25:5.112781954887218 26:4.516129032258064 27:5.616438356164384 28:4.594594594594595 29:1.25 
-0.0035332890244079537 -0.0 -0.0 -0.0 -0.0 0.0 0.0 0.0 0.0 1:8.955223880597016 2:10.0 3:13.181818181818182 4:10.0 5:19.0 6:8.539325842696629 7:7.701149425287356 8:9.668874172185431 9:9.74025974025974 10:9.896907216494846 11:8.75 12:10.0 13:9.294117647058824 14:9.444444444444445 15:9.583333333333334 16:9.81132075471698 17:8.823529411764707 18:5.098039215686274 19:2.753623188405797 20:6.054421768707483 21:3.870967741935484 22:4.8 23:-1.1111111111111112 24:6.3392857142857135 25:4.962406015037594 26:4.408602150537634 27:5.616438356164384 28:4.797297297297297 29:1.25 
-0.002104946341339154 -0.0 -0.0 -0.0 -0.0 0.0 0.0 0.0 0.0 1:8.35820895522388 2:8.297872340425531 3:13.03030303030303 4:10.0 5:21.0 6:8.42696629213483 7:7.701149425287356 8:9.602649006622517 9:9.74025974025974 10:9.896907216494846 11:8.75 12:9.821428571428571 13:9.176470588235293 14:9.444444444444445 15:9.51388888888889 16:9.81132075471698 17:8.235294117647058 18:5.098039215686274 19:2.898550724637681 20:6.122448979591837 21:3.870967741935484 22:4.8 23:-2.2222222222222223 24:6.1607142857142865 25:5.037593984962406 26:4.623655913978494 27:5.7534246575342465 28:4.72972972972973 29:1.25 
-0.0 -0.0 -0.004851255020515079 -0.0 -0.0 0.0 0.0 0.0 0.0 1:4.925373134328358 2:7.446808510638298 3:13.181818181818182 4:10.092592592592593 5:9.0 6:8.42696629213483 7:8.275862068965518 8:9.801324503311259 9:9.61038961038961 10:10.0 11:8.75 12:10.0 13:9.411764705882353 14:9.523809523809524 15:9.444444444444445 16:9.81132075471698 17:8.823529411764707 18:4.901960784313725 19:3.0434782608695654 20:6.122448979591837 21:3.870967741935484 22:4.933333333333334 23:1.1111111111111112 24:6.25 25:4.962406015037594 26:4.301075268817204 27:5.616438356164384 28:4.797297297297297 29:1.25 
-0.005271481254068842 -0.0 -0.0 -0.0 -0.0 0.0 0.0 0.0 0.0 1:8.059701492537313 2:9.148936170212766 3:13.333333333333332 4:10.0 5:11.0 6:8.539325842696629 7:8.275862068965518 8:9.668874172185431 9:9.675324675324676 10:10.0 11:8.75 12:10.0 13:9.529411764705882 14:9.444444444444445 15:9.583333333333334 16:9.716981132075471 17:9.411764705882353 18:5.098039215686274 19:3.0434782608695654 20:6.054421768707483 21:3.870967741935484 22:4.933333333333334 23:-1.1111111111111112 24:6.25 25:5.037593984962406 26:4.516129032258064 27:5.616438356164384 28:4.797297297297297 29:1.25 
-0.0 -0.0 -0.0 -0.0 -0.0 0.005034945540988371 0.0 0.0 0.0 1:4.477611940298508 2:7.446808510638298 3:13.333333333333332 4:9.907407407407407 5:8.0 6:8.764044943820226 7:8.85057471264368 8:10.0 9:9.675324675324676 10:10.206185567010309 11:10.0 12:10.357142857142858 13:9.529411764705882 14:9.365079365079366 15:9.444444444444445 16:9.716981132075471 17:8.823529411764707 18:5.098039215686274 19:3.1884057971014492 20:6.326530612244898 21:4.086021505376344 22:5.2 23:-1.1111111111111112 24:6.3392857142857135 25:5.18796992481203 26:4.731182795698925 27:5.7534246575342465 28:5.0 29:2.5 
-0.0 -0.0 -0.0 -0.0 -0.0 7.568715796321437E-4 0.0 0.0 0.0 1:11.194029850746269 2:10.212765957446807 3:10.151515151515152 4:8.425925925925926 5:7.0 6:8.764044943820226 7:7.816091954022989 8:9.867549668874172 9:9.545454545454547 10:9.896907216494846 11:10.0 12:9.285714285714286 13:8.0 14:9.126984126984127 15:9.51388888888889 16:9.716981132075471 17:9.411764705882353 18:5.098039215686274 19:2.753623188405797 20:6.530612244897958 21:4.301075268817204 22:5.6000000000000005 23:-1.1111111111111112 24:6.607142857142857 25:5.263157894736842 26:5.053763440860215 27:6.027397260273972 28:4.45945945945946 29:3.75 
-0.0 -0.0 -0.0 -0.0 -0.007491786189676078 0.0 0.0 0.0 0.0010250020752410416 1:11.194029850746269 2:8.936170212765957 3:7.727272727272727 4:7.5925925925925934 5:3.0 6:8.764044943820226 7:7.126436781609195 8:9.867549668874172 9:9.415584415584416 10:9.896907216494846 11:10.0 12:9.107142857142858 13:7.411764705882353 14:9.126984126984127 15:9.305555555555555 16:9.81132075471698 17:8.823529411764707 18:4.901960784313725 19:2.1739130434782608 20:6.666666666666666 21:4.301075268817204 22:5.6000000000000005 23:-2.2222222222222223 24:6.428571428571429 25:5.037593984962406 26:5.161290322580645 27:6.027397260273972 28:4.391891891891892 29:3.75 
-0.0 -0.004123902548254048 -0.005620929407315367 -0.0 -0.0 0.0 0.0 0.0 0.0 1:11.044776119402986 2:8.51063829787234 3:8.03030303030303 4:7.962962962962963 5:3.0 6:8.876404494382022 7:7.241379310344827 8:9.867549668874172 9:9.35064935064935 10:9.896907216494846 11:10.0 12:9.107142857142858 13:7.529411764705882 14:9.126984126984127 15:9.375 16:9.716981132075471 17:9.411764705882353 18:4.901960784313725 19:2.318840579710145 20:6.530612244897958 21:4.301075268817204 22:5.466666666666667 23:-2.2222222222222223 24:6.517857142857143 25:5.112781954887218 26:5.053763440860215 27:5.89041095890411 28:4.45945945945946 29:2.5 
-0.0 -0.0 -0.0 -0.0 -0.0 0.0 0.0 0.004515169598130108 9.161219897764726E-4 1:12.08955223880597 2:13.191489361702127 3:13.03030303030303 4:10.555555555555555 5:17.0 6:9.438202247191011 7:8.390804597701148 8:9.933774834437086 9:10.714285714285714 10:9.896907216494846 11:8.75 12:10.178571428571427 13:8.823529411764707 14:9.285714285714286 15:10.694444444444445 16:9.245283018867925 17:8.235294117647058 18:6.2745098039215685 19:3.4782608695652173 20:7.142857142857143 21:5.161290322580645 22:5.6000000000000005 23:-3.333333333333333 24:7.142857142857143 25:5.037593984962406 26:6.881720430107528 27:7.123287671232877 28:6.621621621621622 29:2.5 
-0.0 -0.0 -0.0 -0.0 -0.0062203770378779066 0.0 0.0 0.0 0.0 1:11.64179104477612 2:12.553191489361701 3:13.03030303030303 4:10.37037037037037 5:19.0 6:9.438202247191011 7:9.540229885057471 8:9.801324503311259 9:10.25974025974026 10:10.206185567010309 11:7.5 12:10.892857142857142 13:10.235294117647058 14:8.88888888888889 15:10.277777777777777 16:9.339622641509434 17:8.235294117647058 18:6.666666666666666 19:4.492753623188406 20:6.122448979591837 21:4.408602150537634 22:5.333333333333333 23:-3.333333333333333 24:7.321428571428571 25:6.090225563909774 26:5.376344086021505 27:6.164383561643836 28:5.743243243243244 29:10.0 
-0.0 -0.0 -0.0 -7.481481315077064E-4 -0.0 0.0 0.0 0.0 0.0 1:11.791044776119403 2:11.914893617021276 3:11.666666666666668 4:10.185185185185187 5:21.0 6:9.438202247191011 7:9.425287356321839 8:9.801324503311259 9:10.25974025974026 10:10.103092783505154 11:6.25 12:10.892857142857142 13:10.0 14:8.88888888888889 15:10.208333333333332 16:9.433962264150944 17:8.823529411764707 18:6.2745098039215685 19:4.202898550724638 20:5.986394557823129 21:4.301075268817204 22:5.2 23:-2.2222222222222223 24:7.053571428571429 25:6.090225563909774 26:5.161290322580645 27:6.027397260273972 28:5.337837837837838 29:8.75 
-0.0 -0.0 -0.0 -0.0 -0.0 0.0 0.0 0.0 0.002397012379117404 1:11.64179104477612 2:11.702127659574469 3:11.515151515151516 4:10.185185185185187 5:23.0 6:9.438202247191011 7:9.080459770114942 8:9.801324503311259 9:10.194805194805195 10:10.103092783505154 11:6.25 12:10.714285714285714 13:9.882352941176471 14:8.968253968253968 15:10.069444444444445 16:9.433962264150944 17:8.823529411764707 18:6.078431372549019 19:4.057971014492754 20:5.986394557823129 21:4.301075268817204 22:5.2 23:-2.2222222222222223 24:6.9642857142857135 25:6.015037593984962 26:5.161290322580645 27:6.027397260273972 28:5.135135135135135 29:8.75 
-0.0 -0.0 -0.0 -0.0 -0.0 0.0 0.0 0.0 7.411534925817973E-4 1:11.940298507462686 2:11.702127659574469 3:10.454545454545453 4:10.0 5:26.0 6:9.438202247191011 7:8.275862068965518 8:9.735099337748345 9:10.584415584415584 10:10.103092783505154 11:7.5 12:10.178571428571427 13:8.941176470588236 14:9.126984126984127 15:10.0 16:9.716981132075471 17:8.235294117647058 18:5.686274509803921 19:3.333333333333333 20:6.122448979591837 21:4.301075268817204 22:5.2 23:0.0 24:6.7857142857142865 25:5.56390977443609 26:5.268817204301075 27:6.164383561643836 28:4.72972972972973 29:8.75 
-0.0 -0.0 -0.0 -0.0 -0.0 0.0 0.0 0.0017410996102406007 0.0 1:10.895522388059701 2:9.787234042553191 3:8.484848484848484 4:9.907407407407407 5:11.0 6:9.55056179775281 7:10.0 8:9.801324503311259 9:8.441558441558442 10:11.546391752577318 11:12.5 12:10.892857142857142 13:9.76470588235294 14:9.206349206349206 15:9.51388888888889 16:9.81132075471698 17:8.823529411764707 18:6.2745098039215685 19:3.7681159420289854 20:6.122448979591837 21:4.193548387096774 22:4.933333333333334 23:-2.2222222222222223 24:7.857142857142857 25:5.56390977443609 26:5.268817204301075 27:6.027397260273972 28:5.743243243243244 29:2.5 
-0.0 -0.0 -0.0 -0.0 -2.3566001687516278E-4 0.0 0.0 0.0 0.0 1:11.044776119402986 2:9.787234042553191 3:8.03030303030303 4:9.537037037037038 5:8.0 6:9.662921348314606 7:9.770114942528735 8:9.801324503311259 9:8.506493506493506 10:11.75257731958763 11:13.75 12:10.892857142857142 13:9.647058823529411 14:9.285714285714286 15:9.444444444444445 16:9.81132075471698 17:8.823529411764707 18:6.2745098039215685 19:3.9130434782608696 20:6.122448979591837 21:4.193548387096774 22:4.933333333333334 23:-2.2222222222222223 24:7.857142857142857 25:5.864661654135338 26:5.053763440860215 27:5.616438356164384 28:5.405405405405405 29:1.25 
-0.0 -0.0 -0.0 -0.0 -0.0 0.0 2.276995526451736E-4 0.0 1.8956660026246412E-4 1:8.805970149253731 2:8.085106382978722 3:10.454545454545453 4:9.814814814814815 5:22.0 6:8.876404494382022 7:8.160919540229886 8:10.0 9:9.805194805194805 10:10.412371134020619 11:8.75 12:-56.42857142857143 13:-34.470588235294116 14:-20.238095238095237 15:-16.25 16:-25.37735849056604 17:-210.58823529411765 18:5.490196078431373 19:3.0434782608695654 20:6.73469387755102 21:4.408602150537634 22:5.333333333333333 23:-3.333333333333333 24:6.696428571428571 25:5.639097744360902 26:5.268817204301075 27:6.164383561643836 28:4.864864864864865 29:3.75 
-0.0 -0.0 -0.0 -0.0 -0.0 0.0 0.0 0.0 0.0010110454726980364 1:6.268656716417911 2:5.74468085106383 3:11.060606060606059 4:9.722222222222221 5:24.0 6:8.539325842696629 7:8.275862068965518 8:10.0 9:9.545454545454547 10:10.515463917525773 11:7.5 12:10.0 13:9.294117647058824 14:9.285714285714286 15:9.444444444444445 16:9.716981132075471 17:8.235294117647058 18:5.294117647058823 19:3.1884057971014492 20:6.666666666666666 21:4.301075268817204 22:5.333333333333333 23:-3.333333333333333 24:6.1607142857142865 25:5.56390977443609 26:5.376344086021505 27:6.027397260273972 28:4.72972972972973 29:3.75 
-0.0 -0.0 -0.0 -0.0 -0.0 0.0 0.0 0.0 3.843735948463551E-4 1:6.865671641791044 2:7.659574468085106 3:10.909090909090908 4:9.722222222222221 5:23.0 6:8.651685393258427 7:8.275862068965518 8:10.0 9:9.61038961038961 10:10.412371134020619 11:7.5 12:10.178571428571427 13:9.411764705882353 14:9.285714285714286 15:9.583333333333334 16:9.716981132075471 17:8.235294117647058 18:5.490196078431373 19:3.1884057971014492 20:6.666666666666666 21:4.301075268817204 22:5.466666666666667 23:-3.333333333333333 24:6.25 25:5.56390977443609 26:5.268817204301075 27:6.164383561643836 28:4.864864864864865 29:3.75 
-0.0 -0.0 -0.0 -0.0 -3.655538650253171E-4 0.0 0.0 2.6783903985167087E-4 0.0 1:9.104477611940299 2:10.0 3:12.575757575757576 4:10.185185185185187 5:7.0 6:9.213483146067416 7:9.655172413793103 8:10.331125827814569 9:9.74025974025974 10:10.618556701030927 11:11.25 12:-56.42857142857143 13:-34.470588235294116 14:-20.238095238095237 15:-16.25 16:-25.37735849056604 17:-210.58823529411765 18:5.686274509803921 19:3.0434782608695654 20:6.530612244897958 21:4.301075268817204 22:5.466666666666667 23:3.333333333333333 24:7.053571428571429 25:5.864661654135338 26:4.731182795698925 27:6.027397260273972 28:4.662162162162162 29:5.0 
-0.0 -0.0 -0.0 -0.0 -0.0 0.0 0.0 0.0035889624583165876 0.0 1:10.597014925373134 2:9.574468085106384 3:10.454545454545453 4:8.24074074074074 5:3.0 6:8.764044943820226 7:8.620689655172413 8:10.066225165562914 9:9.48051948051948 10:10.309278350515463 11:8.75 12:9.285714285714286 13:8.352941176470589 14:9.126984126984127 15:9.51388888888889 16:9.716981132075471 17:8.235294117647058 18:5.294117647058823 19:3.1884057971014492 20:6.530612244897958 21:4.301075268817204 22:5.6000000000000005 23:-1.1111111111111112 24:6.517857142857143 25:5.56390977443609 26:5.053763440860215 27:6.027397260273972 28:4.864864864864865 29:3.75 
-0.0 -0.0 -0.0 -0.003202053639566267 -0.0 0.0 0.0 0.003650719610555036 0.002276809707733104 1:10.44776119402985 2:9.361702127659575 3:10.909090909090908 4:8.61111111111111 5:2.0 6:8.764044943820226 7:8.045977011494253 8:10.0 9:9.61038961038961 10:10.103092783505154 11:8.75 12:9.107142857142858 13:8.0 14:9.047619047619047 15:9.444444444444445 16:9.245283018867925 17:7.647058823529411 18:5.294117647058823 19:3.333333333333333 20:6.530612244897958 21:4.193548387096774 22:5.466666666666667 23:1.1111111111111112 24:6.517857142857143 25:5.56390977443609 26:4.946236559139785 27:6.027397260273972 28:4.864864864864865 29:3.75 
-0.0 -0.0 -0.0 -0.0 -0.0 4.8686076647194997E-4 0.0 0.0 0.0 1:8.805970149253731 2:8.51063829787234 3:10.757575757575758 4:9.351851851851853 5:14.0 6:8.651685393258427 7:7.816091954022989 8:10.066225165562914 9:9.805194805194805 10:10.206185567010309 11:10.0 12:9.107142857142858 13:7.764705882352941 14:9.206349206349206 15:9.375 16:9.716981132075471 17:8.235294117647058 18:5.294117647058823 19:3.0434782608695654 20:6.73469387755102 21:4.301075268817204 22:5.466666666666667 23:-2.2222222222222223 24:6.428571428571429 25:5.488721804511279 26:5.053763440860215 27:6.027397260273972 28:4.864864864864865 29:3.75 
-0.0 -0.0 -0.0 -0.0 -0.0 -0.0 1.5999406058740472E-5 0.0 0.0 1:4.6268656716417915 2:8.72340425531915 3:16.06060606060606 4:9.537037037037038 5:40.0 6:9.887640449438202 7:6.206896551724138 8:10.794701986754966 9:9.415584415584416 10:11.1340206185567 11:12.5 12:1.25 13:2.3529411764705883 14:1.746031746031746 15:3.75 16:2.169811320754717 17:11.176470588235293 18:2.549019607843137 19:0.0 20:4.8979591836734695 21:0.21505376344086025 22:5.466666666666667 23:-2.2222222222222223 24:3.0357142857142856 25:3.9849624060150375 26:1.720430107526882 27:1.2328767123287672 28:0.5405405405405406 29:12.5 
-0.0 -0.0 -0.0 -1.54037385320787E-4 -0.0 -0.0 0.0 0.0 0.0 1:4.029850746268656 2:8.936170212765957 3:14.696969696969697 4:10.0 5:49.0 6:9.55056179775281 7:8.045977011494253 8:10.662251655629138 9:8.831168831168831 10:11.75257731958763 11:12.5 12:1.4285714285714284 13:2.8235294117647056 14:2.0634920634920633 15:3.333333333333333 16:2.641509433962264 17:25.88235294117647 18:2.1568627450980395 19:-0.14492753623188406 20:4.8979591836734695 21:-0.860215053763441 22:5.466666666666667 23:-2.2222222222222223 24:2.7678571428571432 25:3.6090225563909772 26:1.075268817204301 27:1.2328767123287672 28:0.7432432432432433 29:17.5 
-0.0 -6.506553450946837E-4 -0.0 -3.0513941901419563E-4 -0.0 -0.0 0.0011028363682026381 0.0 4.8406677295900367E-4 1:5.223880597014925 2:11.48936170212766 3:16.21212121212121 4:10.092592592592593 5:46.0 6:8.764044943820226 7:8.620689655172413 8:9.933774834437086 9:9.025974025974026 10:10.824742268041236 11:12.5 12:3.3928571428571432 13:1.5294117647058825 14:3.412698412698413 15:6.111111111111112 16:5.754716981132075 17:7.647058823529411 18:3.7254901960784315 19:-0.8695652173913043 20:6.258503401360544 21:2.5806451612903225 22:6.0 23:-1.1111111111111112 24:3.9285714285714284 25:3.9097744360902253 26:2.3655913978494625 27:2.328767123287671 28:2.027027027027027 29:12.5 
-0.0 -0.0 -0.0 -0.0 -1.2875057782480017E-4 -0.0 0.0 0.0 0.0 1:5.223880597014925 2:11.48936170212766 3:16.21212121212121 4:10.185185185185187 5:46.0 6:8.651685393258427 7:8.620689655172413 8:9.867549668874172 9:9.025974025974026 10:10.721649484536082 11:13.75 12:3.3928571428571432 13:1.6470588235294117 14:3.412698412698413 15:6.111111111111112 16:5.849056603773585 17:7.647058823529411 18:3.7254901960784315 19:-0.7246376811594203 20:6.258503401360544 21:2.4731182795698925 22:6.0 23:-1.1111111111111112 24:4.017857142857143 25:3.9849624060150375 26:2.3655913978494625 27:2.328767123287671 28:2.0945945945945947 29:12.5 
-0.0 -0.0 -0.0 -0.0 -0.0028827107551075647 -0.0 0.0 0.0 0.0 1:5.3731343283582085 2:11.48936170212766 3:15.454545454545453 4:10.648148148148149 5:8.0 6:9.213483146067416 7:8.620689655172413 8:10.198675496688743 9:9.48051948051948 10:11.030927835051546 11:23.75 12:4.285714285714286 13:4.0 14:3.253968253968254 15:3.888888888888889 16:3.7735849056603774 17:5.294117647058823 18:5.294117647058823 19:1.8840579710144927 20:5.374149659863946 21:0.4301075268817205 22:5.6000000000000005 23:-1.1111111111111112 24:5.267857142857143 25:4.43609022556391 26:1.6129032258064515 27:1.917808219178082 28:1.8243243243243243 29:13.75 
-0.006866025383820264 -0.007232544486708277 -0.008012157203656034 -0.0024371129918159097 -0.0 -0.010856650990207236 0.0016496887676041953 0.003529381944738487 0.0024546573725981653 1:5.3731343283582085 2:10.851063829787233 3:15.303030303030303 4:10.648148148148149 5:8.0 6:9.101123595505618 7:8.275862068965518 8:10.198675496688743 9:9.48051948051948 10:10.824742268041236 11:11.25 12:3.3928571428571432 13:2.9411764705882355 14:3.5714285714285716 15:4.097222222222222 16:4.339622641509434 17:4.705882352941177 18:4.705882352941177 19:0.8695652173913043 20:5.782312925170068 21:0.7526881720430108 22:6.0 23:-2.2222222222222223 24:5.178571428571429 25:4.43609022556391 26:2.043010752688172 27:1.917808219178082 28:2.77027027027027 29:7.5 
-0.0 -0.0 -0.0 -0.0 -0.0015622407490348015 -0.0 0.0 0.0 0.0 1:5.671641791044776 2:11.48936170212766 3:15.303030303030303 4:10.648148148148149 5:8.0 6:9.325842696629213 7:7.931034482758621 8:10.198675496688743 9:9.545454545454547 10:10.824742268041236 11:15.0 12:3.9285714285714284 13:3.4117647058823533 14:3.333333333333333 15:4.027777777777778 16:4.150943396226415 17:4.705882352941177 18:4.901960784313725 19:1.1594202898550725 20:5.64625850340136 21:0.6451612903225806 22:5.866666666666667 23:-2.2222222222222223 24:5.357142857142857 25:4.360902255639098 26:1.935483870967742 27:1.917808219178082 28:2.77027027027027 29:8.75 
-0.0016174602031367741 -0.0 -0.0 -0.0 -0.0 -0.0 -0.0 0.0 0.0 1:8.208955223880597 2:8.72340425531915 3:11.96969696969697 4:8.425925925925926 5:36.0 6:2.696629213483146 7:2.7586206896551726 8:4.635761589403973 9:3.8311688311688314 10:3.4020618556701034 11:-12.5 12:-1.0714285714285714 13:1.7647058823529413 14:2.8571428571428568 15:2.4305555555555554 16:2.7358490566037736 17:-4.117647058823529 18:-0.7843137254901961 19:0.2898550724637681 20:4.489795918367347 21:2.5806451612903225 22:5.066666666666667 23:2.2222222222222223 24:1.6964285714285716 25:3.007518796992481 26:1.3978494623655913 27:1.506849315068493 28:3.5135135135135136 29:3.75 
-0.0 -0.0 -0.0018928279578346837 -7.285880270869425E-4 -7.593429979665897E-4 -0.0 -0.0 7.650066987185766E-4 0.0 1:8.955223880597016 2:9.361702127659575 3:10.0 4:8.981481481481481 5:8.0 6:2.9213483146067416 7:2.7586206896551726 8:4.370860927152318 9:3.7662337662337664 10:3.8144329896907214 11:-12.5 12:-0.3571428571428571 13:1.8823529411764706 14:2.5396825396825395 15:3.125 16:2.2641509433962264 17:-5.882352941176471 18:-1.1764705882352942 19:0.43478260869565216 20:3.129251700680272 21:2.5806451612903225 22:4.0 23:2.2222222222222223 24:1.875 25:3.082706766917293 26:0.3225806451612903 27:2.4657534246575343 28:2.0945945945945947 29:8.75 
-0.006483480249254977 -0.0 -0.0 -0.0 -0.0 -0.0 -0.0 0.0 0.0 1:6.268656716417911 2:6.170212765957447 3:9.696969696969697 4:8.61111111111111 5:27.0 6:3.1460674157303368 7:3.333333333333333 8:4.768211920529801 9:3.961038961038961 10:4.43298969072165 11:-10.0 12:0.7142857142857142 13:2.235294117647059 14:3.0952380952380953 15:3.055555555555556 16:2.9245283018867925 17:-2.3529411764705883 18:-0.19607843137254902 19:1.1594202898550725 20:4.013605442176871 21:2.5806451612903225 22:4.933333333333334 23:-1.1111111111111112 24:2.142857142857143 25:3.308270676691729 26:1.3978494623655913 27:2.4657534246575343 28:2.77027027027027 29:6.25 
-0.0 -0.0010921820503406099 -0.0013541701012032017 -0.0018629327649928539 -0.0 -0.0 -0.0 0.0 0.0 1:6.4179104477611935 2:6.170212765957447 3:9.696969696969697 4:8.61111111111111 5:25.0 6:3.1460674157303368 7:2.6436781609195403 8:5.1655629139072845 9:3.6363636363636367 10:4.536082474226804 11:-7.5 12:0.17857142857142855 13:2.0 14:3.253968253968254 15:3.194444444444444 16:2.7358490566037736 17:-1.7647058823529413 18:-0.39215686274509803 19:1.1594202898550725 20:4.217687074829932 21:2.6881720430107525 22:4.933333333333334 23:-1.1111111111111112 24:2.0535714285714284 25:3.3834586466165413 26:1.720430107526882 27:2.602739726027397 28:3.0405405405405403 29:6.25 
-0.0 -0.0 -0.0 -0.0 -9.656026208790118E-4 -0.003458203842095584 -0.0027685245418655746 8.620701326615596E-4 0.0024331597215082818 1:6.7164179104477615 2:6.595744680851063 3:10.0 4:8.703703703703704 5:25.0 6:3.1460674157303368 7:2.413793103448276 8:5.231788079470199 9:3.5064935064935066 10:4.536082474226804 11:-7.5 12:0.17857142857142855 13:1.8823529411764706 14:3.333333333333333 15:3.194444444444444 16:2.7358490566037736 17:-1.7647058823529413 18:-0.39215686274509803 19:1.1594202898550725 20:4.353741496598639 21:2.7956989247311825 22:5.066666666666667 23:-1.1111111111111112 24:2.0535714285714284 25:3.308270676691729 26:1.935483870967742 27:2.73972602739726 28:3.1756756756756754 29:6.25 
-0.002645718603117732 -0.0 -0.0 -0.0 -0.0 -0.0 -0.0 0.0 0.0 1:6.865671641791044 2:6.808510638297872 3:10.303030303030303 4:8.703703703703704 5:27.0 6:3.1460674157303368 7:2.2988505747126435 8:5.298013245033113 9:3.4415584415584415 10:4.43298969072165 11:-7.5 12:0.17857142857142855 13:1.8823529411764706 14:3.333333333333333 15:3.194444444444444 16:2.641509433962264 17:-1.7647058823529413 18:-0.39215686274509803 19:1.1594202898550725 20:4.421768707482993 21:2.7956989247311825 22:5.066666666666667 23:-1.1111111111111112 24:2.0535714285714284 25:3.308270676691729 26:1.935483870967742 27:2.73972602739726 28:3.2432432432432434 29:6.25 
-0.0 -0.006688203786766078 -0.0 -0.0 -0.0 -0.0 -0.0 0.0 0.0 1:6.567164179104478 2:6.808510638297872 3:10.606060606060606 4:8.796296296296296 5:28.0 6:3.0337078651685396 7:2.0689655172413794 8:5.298013245033113 9:3.311688311688312 10:4.22680412371134 11:-7.5 12:0.0 13:1.8823529411764706 14:3.333333333333333 15:3.194444444444444 16:2.641509433962264 17:-1.1764705882352942 18:-0.5882352941176471 19:1.1594202898550725 20:4.421768707482993 21:2.6881720430107525 22:5.066666666666667 23:-1.1111111111111112 24:1.875 25:3.233082706766917 26:1.935483870967742 27:2.73972602739726 28:3.310810810810811 29:6.25 
-0.0 -0.0 -0.0 -0.0 -0.0 -0.0 -0.0 -0.0 0.011361496026620196 1:10.149253731343284 2:11.063829787234043 3:6.8181818181818175 4:6.666666666666666 5:8.0 6:8.764044943820226 7:7.471264367816092 8:9.205298013245034 9:10.0 10:10.206185567010309 11:7.5 12:7.678571428571429 13:8.0 14:8.571428571428571 15:9.027777777777779 16:9.150943396226415 17:3.5294117647058827 18:7.8431372549019605 19:8.26086956521739 20:9.047619047619047 21:8.602150537634408 22:9.466666666666667 23:1.1111111111111112 24:8.571428571428571 25:9.022556390977442 26:9.139784946236558 27:10.410958904109588 28:9.662162162162161 29:5.0 
-0.002698203481764165 -0.0 -0.0 -0.002400550259658421 -0.0 -0.0 -0.0 -0.0 0.0 1:10.0 2:11.063829787234043 3:6.8181818181818175 4:6.666666666666666 5:8.0 6:8.764044943820226 7:7.816091954022989 8:9.33774834437086 9:10.064935064935066 10:10.309278350515463 11:7.5 12:7.678571428571429 13:8.235294117647058 14:8.730158730158731 15:9.166666666666666 16:9.150943396226415 17:4.117647058823529 18:7.450980392156863 19:8.26086956521739 20:9.115646258503402 21:8.709677419354838 22:9.466666666666667 23:1.1111111111111112 24:8.482142857142858 25:9.022556390977442 26:9.354838709677418 27:10.136986301369863 28:9.594594594594595 29:2.5 
-0.0 -0.0 -0.003648121072684818 -0.0 -0.0 -0.0 -0.0 -0.0 0.0 1:10.298507462686569 2:11.063829787234043 3:7.272727272727273 4:6.666666666666666 5:7.0 6:8.651685393258427 7:7.816091954022989 8:9.271523178807946 9:10.0 10:10.206185567010309 11:7.5 12:8.035714285714286 13:8.352941176470589 14:8.80952380952381 15:9.23611111111111 16:9.245283018867925 17:4.117647058823529 18:7.647058823529411 19:7.826086956521739 20:9.115646258503402 21:8.602150537634408 22:9.866666666666667 23:1.1111111111111112 24:8.482142857142858 25:9.548872180451127 26:9.139784946236558 27:10.0 28:9.72972972972973 29:3.75 
-0.0 -0.0 -0.0 -0.0 -3.6082258984047015E-4 -0.0 -0.0 -0.0 0.0 1:12.08955223880597 2:11.914893617021276 3:7.121212121212121 4:6.944444444444445 5:8.0 6:8.539325842696629 7:8.160919540229886 8:9.403973509933776 9:10.064935064935066 10:10.206185567010309 11:11.25 12:8.214285714285714 13:8.352941176470589 14:8.730158730158731 15:9.166666666666666 16:9.150943396226415 17:4.117647058823529 18:8.03921568627451 19:8.26086956521739 20:9.047619047619047 21:8.494623655913978 22:9.333333333333334 23:1.1111111111111112 24:7.5892857142857135 25:8.721804511278195 26:9.56989247311828 27:10.0 28:9.594594594594595 29:8.75 
-0.0 -0.0 -0.0 -0.0 -0.0 -6.505217763439205E-4 -3.478154633039826E-4 -0.0 0.0 1:11.940298507462686 2:12.127659574468087 3:7.272727272727273 4:6.944444444444445 5:8.0 6:8.651685393258427 7:8.275862068965518 8:9.403973509933776 9:10.064935064935066 10:10.206185567010309 11:11.25 12:8.214285714285714 13:8.352941176470589 14:8.730158730158731 15:9.166666666666666 16:9.150943396226415 17:4.117647058823529 18:8.235294117647058 19:8.26086956521739 20:9.047619047619047 21:8.494623655913978 22:9.333333333333334 23:1.1111111111111112 24:7.5892857142857135 25:8.721804511278195 26:9.46236559139785 27:10.0 28:9.594594594594595 29:7.5 
-0.0 -0.0 -0.0 -7.203448425929717E-4 -0.0 -0.0 -0.0 -0.0 0.0 1:13.28358208955224 2:9.574468085106384 3:6.212121212121212 4:6.481481481481481 5:8.0 6:8.202247191011235 7:8.045977011494253 8:9.403973509933776 9:10.064935064935066 10:10.206185567010309 11:7.5 12:8.214285714285714 13:8.235294117647058 14:8.730158730158731 15:9.097222222222221 16:9.245283018867925 17:4.117647058823529 18:8.03921568627451 19:8.26086956521739 20:9.047619047619047 21:8.602150537634408 22:9.6 23:1.1111111111111112 24:7.767857142857143 25:8.796992481203008 26:9.354838709677418 27:9.863013698630137 28:9.594594594594595 29:3.75 
-0.0 -0.0 -0.0 -0.0 -0.0 -0.0 -0.0 -0.0 6.689286266972109E-4 1:11.492537313432836 2:10.425531914893618 3:6.363636363636363 4:6.481481481481481 5:8.0 6:8.314606741573034 7:7.816091954022989 8:9.403973509933776 9:10.064935064935066 10:10.206185567010309 11:7.5 12:8.214285714285714 13:8.235294117647058 14:8.80952380952381 15:9.166666666666666 16:9.245283018867925 17:3.5294117647058827 18:8.235294117647058 19:8.26086956521739 20:9.115646258503402 21:8.709677419354838 22:9.733333333333334 23:1.1111111111111112 24:8.035714285714286 25:9.022556390977442 26:9.354838709677418 27:9.863013698630137 28:9.662162162162161 29:2.5 
-0.001283800383717958 -0.0 -0.0 -0.0 -0.0 -0.012684765456395554 -0.0 -0.0 0.0 1:11.64179104477612 2:11.063829787234043 3:7.121212121212121 4:6.944444444444445 5:8.0 6:8.876404494382022 7:8.160919540229886 8:9.536423841059602 9:10.064935064935066 10:10.309278350515463 11:7.5 12:8.392857142857142 13:8.705882352941178 14:8.968253968253968 15:9.23611111111111 16:9.339622641509434 17:3.5294117647058827 18:8.431372549019608 19:8.115942028985508 20:8.979591836734693 21:8.494623655913978 22:9.066666666666666 23:0.0 24:8.482142857142858 25:9.097744360902256 26:8.817204301075268 27:9.58904109589041 28:9.45945945945946 29:3.75 
-0.0 -0.0 -0.0 -0.0 -0.07959190861251982 -0.0 -0.0 -0.0 0.0 1:10.746268656716417 2:11.063829787234043 3:5.757575757575758 4:6.388888888888888 5:7.0 6:9.887640449438202 7:8.735632183908047 8:9.470198675496688 9:10.064935064935066 10:10.309278350515463 11:7.5 12:8.571428571428571 13:8.941176470588236 14:8.968253968253968 15:9.305555555555555 16:9.339622641509434 17:4.117647058823529 18:8.03921568627451 19:8.695652173913043 20:9.115646258503402 21:8.709677419354838 22:9.333333333333334 23:1.1111111111111112 24:7.946428571428571 25:8.796992481203008 26:9.247311827956988 27:10.0 28:9.45945945945946 29:7.5 
-0.0 -0.0 -6.339128094197552E-4 -0.0 -0.0 -4.2850308435452965E-4 -0.0 -0.0 0.0 1:7.910447761194029 2:9.148936170212766 3:8.03030303030303 4:6.944444444444445 5:7.0 6:9.325842696629213 7:8.390804597701148 8:9.470198675496688 9:10.12987012987013 10:10.206185567010309 11:7.5 12:6.25 13:8.235294117647058 14:8.968253968253968 15:9.305555555555555 16:9.433962264150944 17:4.117647058823529 18:6.2745098039215685 19:7.971014492753623 20:9.115646258503402 21:8.817204301075268 22:9.866666666666667 23:1.1111111111111112 24:7.946428571428571 25:9.32330827067669 26:9.78494623655914 27:10.0 28:9.932432432432432 29:3.75 
-0.0 -0.0 -0.0 -0.0014710582814361603 -0.0 -0.0 -0.0 -0.0 0.0 1:9.402985074626866 2:10.0 3:6.363636363636363 4:6.388888888888888 5:7.0 6:8.539325842696629 7:7.701149425287356 8:9.271523178807946 9:10.0 10:10.103092783505154 11:6.25 12:6.7857142857142865 13:8.117647058823529 14:8.730158730158731 15:9.097222222222221 16:9.245283018867925 17:4.117647058823529 18:6.470588235294118 19:7.971014492753623 20:8.979591836734693 21:8.602150537634408 22:9.733333333333334 23:1.1111111111111112 24:7.946428571428571 25:9.097744360902256 26:9.56989247311828 27:9.863013698630137 28:9.662162162162161 29:7.5 
-0.0 -0.0 -0.0 -0.0021121874685687617 -0.0 -0.0 -0.0 -0.0016270768313801363 0.01028446017475572 1:9.253731343283583 2:9.574468085106384 3:6.515151515151515 4:6.481481481481481 5:7.0 6:8.651685393258427 7:7.701149425287356 8:9.271523178807946 9:10.0 10:10.103092783505154 11:6.25 12:6.607142857142857 13:8.117647058823529 14:8.80952380952381 15:9.097222222222221 16:9.245283018867925 17:4.117647058823529 18:6.2745098039215685 19:7.971014492753623 20:8.979591836734693 21:8.602150537634408 22:9.733333333333334 23:1.1111111111111112 24:8.035714285714286 25:9.172932330827066 26:9.56989247311828 27:9.863013698630137 28:9.662162162162161 29:7.5 
-0.0 -0.0 -0.0 -0.0 -0.0 -0.0 -6.587775847288787E-4 -0.0 0.0 1:8.35820895522388 2:9.361702127659575 3:7.424242424242424 4:6.7592592592592595 5:7.0 6:8.876404494382022 7:7.701149425287356 8:9.271523178807946 9:10.0 10:10.103092783505154 11:7.5 12:6.071428571428571 13:8.0 14:8.80952380952381 15:9.166666666666666 16:9.339622641509434 17:4.117647058823529 18:6.078431372549019 19:7.826086956521739 20:8.979591836734693 21:8.602150537634408 22:9.733333333333334 23:1.1111111111111112 24:8.125 25:9.32330827067669 26:9.67741935483871 27:9.863013698630137 28:9.797297297297296 29:7.5 
-0.0 -0.0 -0.0 -0.0 -0.0 -0.0 -0.0025227888967056258 -0.0 0.0 1:8.35820895522388 2:9.361702127659575 3:7.575757575757576 4:6.851851851851852 5:7.0 6:8.876404494382022 7:7.816091954022989 8:9.33774834437086 9:10.064935064935066 10:10.103092783505154 11:7.5 12:6.25 13:8.0 14:8.80952380952381 15:9.166666666666666 16:9.339622641509434 17:4.117647058823529 18:6.078431372549019 19:7.826086956521739 20:8.979591836734693 21:8.602150537634408 22:9.733333333333334 23:1.1111111111111112 24:8.125 25:9.32330827067669 26:9.67741935483871 27:10.0 28:9.797297297297296 29:7.5 
-0.0 -0.00371014771469062 -0.0 -0.0 -0.0 -0.0 -0.0 -0.0 0.0 1:8.35820895522388 2:9.361702127659575 3:7.424242424242424 4:6.851851851851852 5:7.0 6:8.876404494382022 7:7.816091954022989 8:9.271523178807946 9:10.064935064935066 10:10.103092783505154 11:7.5 12:6.25 13:8.0 14:8.80952380952381 15:9.166666666666666 16:9.339622641509434 17:4.117647058823529 18:6.078431372549019 19:7.826086956521739 20:8.979591836734693 21:8.602150537634408 22:9.733333333333334 23:1.1111111111111112 24:8.035714285714286 25:9.24812030075188 26:9.67741935483871 27:10.0 28:9.797297297297296 29:6.25 
-0.0 -0.0 -0.0014375294572985047 -0.0 -0.0 -0.0 -0.0 -0.0 0.0 1:8.059701492537313 2:9.361702127659575 3:7.727272727272727 4:6.851851851851852 5:7.0 6:9.101123595505618 7:8.045977011494253 8:9.403973509933776 9:10.064935064935066 10:10.103092783505154 11:7.5 12:6.25 13:8.117647058823529 14:8.88888888888889 15:9.23611111111111 16:9.339622641509434 17:4.117647058823529 18:6.2745098039215685 19:7.971014492753623 20:9.047619047619047 21:8.602150537634408 22:9.866666666666667 23:1.1111111111111112 24:8.125 25:9.398496240601503 26:9.67741935483871 27:9.863013698630137 28:9.864864864864865 29:5.0 
-0.0 -0.0 -0.0 -0.0 -0.021809316812050922 -0.0 -0.0 -0.0 0.0 1:10.746268656716417 2:10.638297872340425 3:6.363636363636363 4:6.481481481481481 5:7.0 6:8.764044943820226 7:8.045977011494253 8:9.33774834437086 9:10.0 10:10.103092783505154 11:7.5 12:8.035714285714286 13:8.470588235294118 14:8.80952380952381 15:9.166666666666666 16:9.245283018867925 17:3.5294117647058827 18:8.03921568627451 19:8.55072463768116 20:9.047619047619047 21:8.494623655913978 22:9.466666666666667 23:1.1111111111111112 24:7.5892857142857135 25:8.796992481203008 26:9.354838709677418 27:10.410958904109588 28:9.72972972972973 29:7.5 
-0.0 -0.0 -0.0 -0.0 -0.001066219539292247 -0.0012830545160354893 -3.9770760632658184E-4 -0.0 -9.462699952794989E-4 1:10.597014925373134 2:10.851063829787233 3:7.272727272727273 4:7.037037037037037 5:22.0 6:5.393258426966292 7:2.1839080459770117 8:7.0198675496688745 9:8.246753246753247 10:7.628865979381443 11:18.75 12:10.0 13:9.294117647058824 14:9.285714285714286 15:9.51388888888889 16:9.528301886792454 17:4.117647058823529 18:10.784313725490195 19:9.27536231884058 20:8.843537414965986 21:8.602150537634408 22:9.466666666666667 23:1.1111111111111112 24:11.785714285714286 25:11.05263157894737 26:10.21505376344086 27:10.410958904109588 28:10.202702702702702 29:6.25 
-5.718970697999605E-4 -0.0 -0.0 -0.0 -0.0 -0.0 -0.0 -0.0 -0.0 1:8.955223880597016 2:5.531914893617022 3:6.363636363636363 4:6.111111111111112 5:29.0 6:4.943820224719101 7:1.839080459770115 8:6.887417218543046 9:7.597402597402597 10:7.319587628865979 11:3.75 12:8.392857142857142 13:8.588235294117647 14:8.88888888888889 15:9.166666666666666 16:8.962264150943396 17:3.5294117647058827 18:8.823529411764707 19:7.826086956521739 20:8.843537414965986 21:7.526881720430108 22:8.666666666666668 23:0.0 24:8.392857142857142 25:9.473684210526315 26:10.21505376344086 27:10.273972602739727 28:9.864864864864865 29:6.25 
-0.0 -0.0 -0.0 -0.0 -0.0 -0.0 -0.0 -0.001199062653785656 -0.0 1:8.955223880597016 2:5.531914893617022 3:6.212121212121212 4:6.111111111111112 5:29.0 6:4.943820224719101 7:1.839080459770115 8:6.887417218543046 9:7.597402597402597 10:7.319587628865979 11:3.75 12:8.392857142857142 13:8.588235294117647 14:8.88888888888889 15:9.166666666666666 16:8.962264150943396 17:3.5294117647058827 18:8.823529411764707 19:7.826086956521739 20:8.843537414965986 21:7.526881720430108 22:8.666666666666668 23:0.0 24:8.303571428571429 25:9.473684210526315 26:10.21505376344086 27:10.273972602739727 28:9.864864864864865 29:6.25 
-0.0 -2.2322005797810948E-4 -0.0 -0.0 -0.0 -0.0 -0.0 -0.0 -0.0 1:8.656716417910447 2:5.106382978723404 3:6.363636363636363 4:6.111111111111112 5:31.0 6:4.943820224719101 7:1.7241379310344829 8:6.887417218543046 9:7.662337662337663 10:7.319587628865979 11:5.0 12:8.214285714285714 13:8.588235294117647 14:8.80952380952381 15:9.097222222222221 16:8.867924528301888 17:3.5294117647058827 18:8.627450980392158 19:7.826086956521739 20:8.843537414965986 21:7.526881720430108 22:8.666666666666668 23:0.0 24:8.482142857142858 25:9.62406015037594 26:10.32258064516129 27:10.273972602739727 28:9.932432432432432 29:6.25 
-0.0 -0.0 -0.0 -0.0015886466980381093 -0.0 -0.0 -0.0 -0.0 -0.0 1:8.507462686567164 2:4.8936170212765955 3:6.666666666666666 4:6.481481481481481 5:11.0 6:5.393258426966292 7:2.6436781609195403 8:7.0198675496688745 9:7.987012987012987 10:7.835051546391752 11:2.5 12:8.214285714285714 13:8.470588235294118 14:8.80952380952381 15:9.097222222222221 16:8.867924528301888 17:4.705882352941177 18:8.823529411764707 19:7.826086956521739 20:8.91156462585034 21:7.634408602150538 22:8.8 23:0.0 24:8.214285714285714 25:9.398496240601503 26:10.10752688172043 27:10.273972602739727 28:9.864864864864865 29:6.25 
-0.0 -0.0 -0.005803997131394461 -0.0 -0.016622754830816697 -0.0 -0.0 -0.0 -0.020409030037743518 1:8.35820895522388 2:7.23404255319149 3:6.8181818181818175 4:6.574074074074074 5:11.0 6:5.617977528089888 7:2.7586206896551726 8:7.086092715231787 9:7.922077922077922 10:7.731958762886598 11:3.75 12:8.392857142857142 13:8.588235294117647 14:8.80952380952381 15:9.166666666666666 16:8.867924528301888 17:3.5294117647058827 18:9.019607843137255 19:7.826086956521739 20:8.775510204081632 21:7.634408602150538 22:8.8 23:0.0 24:8.571428571428571 25:9.473684210526315 26:9.67741935483871 27:9.863013698630137 28:9.797297297297296 29:6.25 
-0.0 -0.0 -0.0 -0.0 -0.0 -0.0 -0.0 -0.0 -9.595847950501047E-4 1:9.402985074626866 2:9.148936170212766 3:7.727272727272727 4:6.851851851851852 5:13.0 6:6.404494382022472 7:2.7586206896551726 8:7.086092715231787 9:7.987012987012987 10:7.835051546391752 11:2.5 12:8.035714285714286 13:8.235294117647058 14:8.730158730158731 15:9.166666666666666 16:8.867924528301888 17:3.5294117647058827 18:8.235294117647058 19:7.826086956521739 20:8.707482993197278 21:7.634408602150538 22:8.666666666666668 23:0.0 24:8.839285714285714 25:9.62406015037594 26:9.67741935483871 27:9.726027397260275 28:9.797297297297296 29:6.25 
-0.0 -0.0 -0.0 -4.807504783820155E-4 -0.0 -0.0 -0.0 -0.0 -0.0 1:9.402985074626866 2:8.936170212765957 3:7.878787878787879 4:6.851851851851852 5:14.0 6:6.404494382022472 7:2.7586206896551726 8:7.086092715231787 9:7.987012987012987 10:7.835051546391752 11:1.25 12:7.857142857142857 13:8.117647058823529 14:8.650793650793652 15:9.097222222222221 16:8.867924528301888 17:3.5294117647058827 18:8.03921568627451 19:7.6811594202898545 20:8.707482993197278 21:7.526881720430108 22:8.666666666666668 23:0.0 24:8.75 25:9.548872180451127 26:9.67741935483871 27:9.863013698630137 28:9.797297297297296 29:6.25 
-0.005231222693011596 -0.0 -0.0 -0.006792124354622281 -0.0 -0.0 -0.0 -0.0012340970677226265 -0.0 1:9.402985074626866 2:8.936170212765957 3:7.878787878787879 4:6.851851851851852 5:15.0 6:6.404494382022472 7:2.7586206896551726 8:7.086092715231787 9:8.051948051948052 10:7.835051546391752 11:1.25 12:7.857142857142857 13:8.117647058823529 14:8.650793650793652 15:9.097222222222221 16:8.867924528301888 17:3.5294117647058827 18:8.03921568627451 19:7.6811594202898545 20:8.639455782312925 21:7.526881720430108 22:8.666666666666668 23:0.0 24:8.75 25:9.548872180451127 26:9.67741935483871 27:9.863013698630137 28:9.797297297297296 29:6.25 
-0.0 -0.0 -0.0 -0.0 -0.0 -0.007658030796221186 -0.0 -0.0 -0.0 1:9.402985074626866 2:8.936170212765957 3:7.878787878787879 4:6.851851851851852 5:14.0 6:6.404494382022472 7:2.8735632183908044 8:7.086092715231787 9:8.051948051948052 10:7.835051546391752 11:2.5 12:7.857142857142857 13:8.117647058823529 14:8.650793650793652 15:9.097222222222221 16:8.867924528301888 17:3.5294117647058827 18:8.03921568627451 19:7.6811594202898545 20:8.639455782312925 21:7.526881720430108 22:8.666666666666668 23:0.0 24:8.839285714285714 25:9.62406015037594 26:9.67741935483871 27:9.863013698630137 28:9.72972972972973 29:6.25 
-0.0 -0.0 -0.0 -0.0 -0.0 -0.0 -0.002541016539230587 -0.0 -0.0 1:9.402985074626866 2:8.72340425531915 3:7.878787878787879 4:6.851851851851852 5:14.0 6:6.404494382022472 7:2.7586206896551726 8:7.086092715231787 9:8.051948051948052 10:7.835051546391752 11:2.5 12:7.857142857142857 13:8.117647058823529 14:8.650793650793652 15:9.097222222222221 16:8.867924528301888 17:3.5294117647058827 18:8.03921568627451 19:7.6811594202898545 20:8.639455782312925 21:7.526881720430108 22:8.666666666666668 23:0.0 24:8.839285714285714 25:9.62406015037594 26:9.67741935483871 27:9.726027397260275 28:9.72972972972973 29:6.25 
